#ifndef HIDDEN_LAYER_128
#define HIDDEN_LAYER_128

#include "neural_network.h"

fixed_point_t hidden_weights_128[FLATTENED_SIZE][HIDDEN_LAYER_128_SIZE] = {
    {
        0.004387666005641222,  -0.0625680461525917,    -0.07465272396802902,
        -0.03893766179680824,  0.046454451978206635,   -0.07532872259616852,
        0.03395462408661842,   0.05894581973552704,    0.05226728692650795,
        0.10919597744941711,   0.05278535559773445,    0.05906268581748009,
        -0.07277395576238632,  0.004339898936450481,   -0.013519461266696453,
        -0.01743936911225319,  -0.0005429547745734453, -0.04081861302256584,
        0.03875589370727539,   -0.10238538682460785,   0.06575983017683029,
        0.08821934461593628,   -0.02824454754590988,   -0.019461318850517273,
        0.09977398067712784,   -0.03520546108484268,   -0.003846028819680214,
        0.01758435368537903,   -0.08641833066940308,   -0.05904819816350937,
        -0.018175095319747925, 0.0413687601685524,     0.05021292343735695,
        -0.03939090296626091,  0.021209217607975006,   0.07524703443050385,
        -0.042813438922166824, -0.0974409282207489,    0.04265918210148811,
        -0.0979069322347641,   -0.0650760605931282,    0.04758332669734955,
        -0.08371175080537796,  0.08599013835191727,    -0.0861210972070694,
        -0.02956392429769039,  0.004632663447409868,   -0.07776709645986557,
        0.050401438027620316,  -0.03866921737790108,   0.04171076416969299,
        -0.02830813266336918,  -0.01436998788267374,   -0.10909809917211533,
        -0.08496737480163574,  -0.07644907385110855,   0.04785030707716942,
        0.1240270659327507,    0.1266918033361435,     0.06994619220495224,
        -0.039632510393857956, -0.04093147814273834,   -0.07510588318109512,
        0.032577745616436005,  -0.02864374965429306,   0.0550520084798336,
        -0.061544064432382584, 0.08797846734523773,    -0.03952648490667343,
        -0.03237612918019295,  0.06800516694784164,    -0.10718175023794174,
        0.014041700400412083,  -0.10448791831731796,   0.07001078128814697,
        0.055163148790597916,  0.12242601811885834,    -0.006903244182467461,
        0.09135213494300842,   0.11150039732456207,    0.03616589680314064,
        -0.08850295841693878,  0.031363021582365036,   0.0025057606399059296,
        0.05521814525127411,   -0.06703495234251022,   -0.04882507398724556,
        0.08851306885480881,   -0.025486232712864876,  0.010194891132414341,
        0.02935137040913105,   0.025677993893623352,   0.0571911595761776,
        -0.03548726066946983,  0.030970200896263123,   0.11047583818435669,
        0.01740909554064274,   -0.11548177152872086,   -0.07463295757770538,
        -0.05832751467823982,  0.02049684152007103,    0.028919462114572525,
        0.03384796157479286,   0.09570291638374329,    -0.0033893920481204987,
        0.1319229006767273,    0.03686614707112312,    -0.05881944298744202,
        0.09157363325357437,   0.01145047228783369,    0.0005667853401973844,
        -0.051735542714595795, 0.003143818350508809,   0.07848668843507767,
        0.0990084856748581,    -0.05674862489104271,   0.1121877059340477,
        -0.037362080067396164, -0.08341149985790253,   0.06035877764225006,
        -0.02929600700736046,  0.0024338795337826014,  0.05592809617519379,
        -0.07915794104337692,  0.0030580449383705854,  -0.0934956967830658,
        -0.05997896566987038,  -0.07217875868082047,
    },
    {
        -0.08405333757400513,  0.055119045078754425,   -0.02553045004606247,
        0.021242259070277214,  -0.09612106531858444,   0.07468605041503906,
        -0.04492156580090523,  0.0841706246137619,     0.03203289583325386,
        0.10276611149311066,   -0.0586349256336689,    -0.15414835512638092,
        0.12371882796287537,   -0.07377243787050247,   0.060066889971494675,
        0.012832464650273323,  0.14998678863048553,    0.14875401556491852,
        -0.11022373288869858,  0.04799807071685791,    0.06265927106142044,
        -0.014683316461741924, 0.14108619093894958,    -0.06114974617958069,
        -0.05958138406276703,  -0.025857865810394287,  -0.09647474437952042,
        0.10845393687486649,   0.05323077365756035,    -0.022310206666588783,
        0.09012137353420258,   0.17955969274044037,    0.05908120051026344,
        0.09018918126821518,   -0.09965991973876953,   0.027398977428674698,
        -0.06773990392684937,  -0.0024177683517336845, 0.1604541689157486,
        -0.11947935819625854,  -0.004945958964526653,  0.07348233461380005,
        0.0013433434069156647, -0.0844867080450058,    -0.060008835047483444,
        -0.02120819315314293,  -0.055717457085847855,  0.003943014424294233,
        0.06154097244143486,   0.09887564927339554,    0.019614847376942635,
        -0.0395040437579155,   0.06648752838373184,    -0.0326363630592823,
        0.04590030014514923,   0.013670867308974266,   0.1168561652302742,
        0.10576019436120987,   0.04693683236837387,    -0.08843433856964111,
        0.016029376536607742,  -0.01445895154029131,   -0.0525178387761116,
        0.07291562110185623,   -0.012395857833325863,  -0.08389713615179062,
        0.043472107499837875,  0.02032056637108326,    -0.023947259411215782,
        0.030657675117254257,  -0.07790569216012955,   0.025322431698441505,
        -0.02082420140504837,  0.0015392694622278214,  0.09389659017324448,
        -0.06769422441720963,  0.12469659000635147,    -0.029813896864652634,
        0.022487971931695938,  0.1520942747592926,     -0.02126179449260235,
        0.026163408532738686,  0.08249187469482422,    -0.018767593428492546,
        0.13035188615322113,   -0.043383147567510605,  -0.0356113538146019,
        -0.008213683031499386, 0.062473364174366,      -0.13602784276008606,
        0.02536800503730774,   -0.007424218114465475,  0.09773238003253937,
        0.09378732740879059,   0.01051239762455225,    0.0458025261759758,
        0.07746279984712601,   0.023936914280056953,   0.008259141817688942,
        -0.014695854857563972, -0.09979633241891861,   -0.03276298567652702,
        0.046804286539554596,  0.07697997242212296,    -0.0688619613647461,
        0.15780654549598694,   0.03309168294072151,    0.009406061843037605,
        0.059338781982660294,  0.07320111244916916,    0.049652449786663055,
        -0.040255408734083176, 0.0685875192284584,     0.05265466496348381,
        -0.053393151611089706, 0.05691241845488548,    0.09873946756124496,
        -0.007188234943896532, -0.03827011212706566,   -0.059727203100919724,
        -0.09272433072328568,  -0.05185219645500183,   -0.021449893712997437,
        -0.004262850154191256, 0.03455877676606178,    0.04652838036417961,
        0.07060752063989639,   0.13979554176330566,
    },
    {
        -0.0002979376004077494, -0.044277921319007874,  0.027995117008686066,
        0.02831769362092018,    -0.0367845855653286,    -0.05567391216754913,
        -0.011915033683180809,  0.132673442363739,      -0.0802648589015007,
        0.08304528146982193,    0.06599892675876617,    -0.06542617082595825,
        -0.0500970222055912,    -0.1204720139503479,    0.08489800244569778,
        0.042716629803180695,   0.07198487967252731,    0.01431210432201624,
        -0.0047053927555680275, 0.055058553814888,      -0.02655898407101631,
        -0.013608381152153015,  -0.006737521383911371,  0.01699359342455864,
        -0.09632134437561035,   0.06406150758266449,    0.013047220185399055,
        0.12510308623313904,    -0.009107816964387894,  0.11456271260976791,
        -0.011763055808842182,  0.05660860240459442,    0.07167269289493561,
        0.028866562992334366,   0.042921874672174454,   -0.05309635400772095,
        -0.11604734510183334,   0.12217404693365097,    0.09805244952440262,
        -0.15369847416877747,   -0.0006415162933990359, -0.04114041477441788,
        0.13193334639072418,    -0.09590405225753784,   0.07474829256534576,
        0.11529558897018433,    -0.018913665786385536,  -0.08421400934457779,
        0.036526184529066086,   -0.00619136169552803,   -0.030404577031731606,
        -0.08231589198112488,   0.09016698598861694,    -0.12010204046964645,
        -0.0004404280334711075, 0.07095099240541458,    -0.02368708699941635,
        0.04012572392821312,    0.04053392633795738,    -0.08727782964706421,
        0.03980567306280136,    0.013168392702937126,   0.07005301862955093,
        0.035980939865112305,   0.07051956653594971,    0.07593690603971481,
        0.021813930943608284,   -0.06950195133686066,   0.05978423357009888,
        -0.02251053787767887,   0.04343503341078758,    0.01720495894551277,
        0.015046592801809311,   -0.007062211632728577,  -0.0072797550819814205,
        0.01129976473748684,    0.14177995920181274,    0.01071094162762165,
        0.028521304950118065,   0.15686069428920746,    -0.0787724107503891,
        -0.07552634179592133,   -0.10215575993061066,   -0.11717149615287781,
        0.0385374054312706,     -0.02413753792643547,   0.057480089366436005,
        0.01557218562811613,    0.21674752235412598,    -0.06775911152362823,
        -0.03371317312121391,   -0.07699757069349289,   0.038731906563043594,
        0.10015048831701279,    0.04242202267050743,    0.18765519559383392,
        -0.05646144598722458,   -0.05461790785193443,   -0.05503828078508377,
        -0.10305473953485489,   -0.01671702414751053,   0.02494673989713192,
        0.11151780188083649,    -0.0031153145246207714, -0.022944187745451927,
        -0.033829327672719955,  -0.033834632486104965,  0.039398763328790665,
        0.06664596498012543,    -0.0011362715158611536, 0.022744622081518173,
        0.04366237297654152,    -0.10815776139497757,   0.0008037197403609753,
        -0.09006594121456146,   0.02600427344441414,    -0.04376799613237381,
        0.09302961826324463,    -0.0567241907119751,    0.05855643376708031,
        0.061005476862192154,   0.08584508299827576,    -0.062346331775188446,
        0.08060620725154877,    -0.01128023024648428,   -0.04640663042664528,
        0.03529265522956848,    0.09968423843383789,
    },
    {
        0.11342057585716248,   -0.06680741161108017,  0.07366889715194702,
        0.046725306659936905,  -0.07846599817276001,  -0.03179261088371277,
        0.04883989319205284,   0.12668056786060333,   0.07217181473970413,
        0.09805908799171448,   0.09580317884683609,   0.08526415377855301,
        -0.09994453936815262,  0.10746277868747711,   0.02670625038444996,
        -0.008168322965502739, -0.06756476312875748,  0.022278083488345146,
        0.09308453649282455,   0.04795714095234871,   0.07751000672578812,
        0.09397119283676147,   0.11692652851343155,   0.08849048614501953,
        0.053742822259664536,  -0.05099911615252495,  -0.06602144241333008,
        -0.009131480939686298, -0.04724524915218353,  0.06083742156624794,
        0.06566211581230164,   0.08898864686489105,   -0.039555151015520096,
        -0.08073093742132187,  0.09512995928525925,   0.023937217891216278,
        0.09524480998516083,   -0.003476279554888606, 0.0331573560833931,
        0.08316977322101593,   -0.07301142066717148,  0.07411720603704453,
        -0.061283428221940994, 0.08762091398239136,   0.07583430409431458,
        -0.006373855285346508, -0.06640143692493439,  0.0017253797268494964,
        -0.030692165717482567, -0.06612507998943329,  0.003643532982096076,
        0.051723819226026535,  0.026927802711725235,  -0.03615839034318924,
        0.10682649910449982,   -0.04310097172856331,  0.07100006192922592,
        0.013587228022515774,  -0.0854581817984581,   0.018230102956295013,
        0.09212145209312439,   0.07724332809448242,   -0.0243043452501297,
        -0.0756170004606247,   0.05994286388158798,   0.01362786814570427,
        -0.06264667958021164,  0.10993660986423492,   0.028321566060185432,
        -0.016222475096583366, 0.10785527527332306,   -0.08323752135038376,
        0.05436835065484047,   -0.071039579808712,    0.03783480077981949,
        -0.017340486869215965, 0.023182498291134834,  0.01741318218410015,
        -0.07369811832904816,  -0.036028068512678146, 0.09066727012395859,
        -0.009527926333248615, -0.08956879377365112,  0.00851454772055149,
        0.07786773145198822,   0.08252330869436264,   0.06968609243631363,
        0.0626479759812355,    -0.06297102570533752,  0.11056166142225266,
        -0.06047317013144493,  0.06663737446069717,   0.006709262263029814,
        -0.0399126261472702,   -0.054615966975688934, 0.017152821645140648,
        0.012738510966300964,  -0.04055420681834221,  0.07524046301841736,
        0.040088534355163574,  0.04852253571152687,   -0.08462293446063995,
        0.019178638234734535,  0.06903819739818573,   0.10423926264047623,
        -0.057257410138845444, -0.06736909598112106,  -0.0968153327703476,
        0.10418853908777237,   -0.03292298689484596,  0.009967206045985222,
        0.056677162647247314,  -0.07027297466993332,  -0.026507815346121788,
        0.045071445405483246,  -0.03194733336567879,  0.05542135611176491,
        -0.04782532528042793,  0.09421937167644501,   0.08970081806182861,
        0.0541113018989563,    -0.08661989867687225,  -0.10382084548473358,
        0.06193837523460388,   0.0612613819539547,    -0.1069549024105072,
        0.12801527976989746,   0.050525300204753876,
    },
    {
        -0.09837862849235535,   0.10522207617759705,   -0.04733769968152046,
        0.15903203189373016,    -0.06676416099071503,  -0.0015234519960358739,
        -0.13377737998962402,   0.0234481543302536,    -0.026075221598148346,
        0.02720526047050953,    -0.005582485813647509, -0.013740061782300472,
        0.0962660014629364,     -0.1375739574432373,   0.16156087815761566,
        -0.09077940881252289,   -0.041457805782556534, 0.06576115638017654,
        -0.12055552005767822,   0.1028667762875557,    -0.08060351759195328,
        -0.032668277621269226,  0.03251872956752777,   -0.0740000531077385,
        -0.073179692029953,     0.01139384787529707,   -0.055350277572870255,
        0.11079034209251404,    0.06047813594341278,   -0.0075936755165457726,
        0.05070813000202179,    0.10940200090408325,   -0.04806768149137497,
        0.07555577903985977,    -0.0727178305387497,   -0.051119573414325714,
        -0.10431062430143356,   -0.0538485050201416,   0.15956765413284302,
        -0.02790137566626072,   0.16114544868469238,   0.07873621582984924,
        -0.020547566935420036,  -0.16822785139083862,  -0.14831025898456573,
        -0.1702297329902649,    0.03360987454652786,   0.025046169757843018,
        0.07086221128702164,    -0.15510401129722595,  -0.07620955258607864,
        0.1677468866109848,     0.10406961292028427,   -0.11687956750392914,
        0.05434095114469528,    -0.17567627131938934,  0.0038895357865840197,
        0.09680956602096558,    0.1164272129535675,    -0.11834036558866501,
        -0.06230686604976654,   0.05669271573424339,   0.04405619204044342,
        0.11916209757328033,    0.11267738789319992,   0.10983402281999588,
        0.012133828364312649,   0.017368189990520477,  0.18778032064437866,
        -0.11718805879354477,   0.17343957722187042,   -0.07483650743961334,
        0.08593650907278061,    -0.006683412939310074, 0.11137974262237549,
        0.18567049503326416,    0.07675415277481079,   -0.09237013012170792,
        -0.036411531269550323,  0.029064513742923737,  0.03523872420191765,
        -0.09713465720415115,   0.030953766778111458,  -0.06483414024114609,
        0.05173333361744881,    -0.06304650753736496,  0.06017778813838959,
        -0.05279223993420601,   0.017397021874785423,  -0.17039065062999725,
        -0.00923496950417757,   -0.11007240414619446,  0.1532633900642395,
        -0.1362573206424713,    -0.17857065796852112,  0.08653469383716583,
        0.07942274212837219,    -0.15120390057563782,  0.07752509415149689,
        0.05470540001988411,    -0.0580984465777874,   0.06698067486286163,
        -0.05784176290035248,   0.09531521797180176,   0.06009694188833237,
        0.07092258334159851,    -0.03715858981013298,  -0.04528304934501648,
        0.09097166359424591,    0.011998229660093784,  0.19510142505168915,
        -0.04818720743060112,   0.01823599636554718,   0.22870224714279175,
        0.03549906611442566,    -0.11677197366952896,  0.08902479708194733,
        -0.03523768112063408,   0.043124910444021225,  -0.03587561100721359,
        -0.0051047056913375854, 0.03566089645028114,   0.09941095858812332,
        -0.002172129461541772,  -0.09515424817800522,  -0.05673038214445114,
        0.02270890213549137,    0.09623081237077713,
    },
    {
        0.03155764192342758,   0.00994657352566719,   0.06540745496749878,
        0.10198982059955597,   -0.03943601995706558,  0.07697582989931107,
        -0.12416914850473404,  0.12918105721473694,   -0.10423744469881058,
        -0.0557820126414299,   0.09072684496641159,   -0.1323564499616623,
        0.016163192689418793,  -0.08003432303667068,  0.11953143030405045,
        0.04413922131061554,   0.016721323132514954,  -0.060844674706459045,
        -0.10577508062124252,  0.022887391969561577,  0.02598995715379715,
        0.07511124014854431,   -0.05156176909804344,  -0.008566760458052158,
        -0.03895103186368942,  -0.061028771102428436, -0.01800190843641758,
        -0.030881742015480995, -0.034118589013814926, 0.1132359653711319,
        0.10164672136306763,   -0.01327346358448267,  -0.04117266833782196,
        -0.10597468167543411,  0.00895383208990097,   -0.09559691697359085,
        -0.05687218904495239,  -0.08295924216508865,  0.039739757776260376,
        0.07290279865264893,   -0.08209742605686188,  0.07550974190235138,
        -0.11006685346364975,  -0.099510557949543,    -0.0746641680598259,
        0.008791753090918064,  -0.010688656009733677, -0.07847598940134048,
        0.03510557860136032,   -0.0720025897026062,   0.08392618596553802,
        0.09046156704425812,   0.0310730691999197,    -0.07788864523172379,
        -0.035027775913476944, -0.02988167107105255,  -0.033520523458719254,
        0.01670064404606819,   0.0847930908203125,    -0.08548343181610107,
        -0.058937426656484604, -0.07666667550802231,  -0.06485199928283691,
        0.08447681367397308,   0.12365621328353882,   0.047849640250205994,
        0.058554597198963165,  0.10387822240591049,   -0.036918871104717255,
        -0.09329236298799515,  0.10279373079538345,   -0.019623249769210815,
        -0.09458274394273758,  -0.07444080710411072,  -0.044299982488155365,
        0.03625418245792389,   -0.012045552022755146, -0.06752011924982071,
        -0.002650663023814559, 0.032221630215644836,  -0.01919686421751976,
        0.07202699780464172,   0.014987151138484478,  0.08075474202632904,
        0.0032064246479421854, -0.0444573238492012,   -0.04394437372684479,
        -0.051571909338235855, 0.0573042631149292,    0.003678365610539913,
        -0.03374210745096207,  -0.08446148782968521,  0.04698190465569496,
        -0.046966493129730225, 0.07027702033519745,   0.03768065944314003,
        0.05213687941431999,   -0.1097651869058609,   -0.029281269758939743,
        0.073211170732975,     0.005729724187403917,  -0.01606122963130474,
        -0.008236367255449295, 0.052674829959869385,  -0.025770854204893112,
        0.006006468087434769,  -0.12393474578857422,  -0.0790170282125473,
        -0.005446299910545349, -0.01347767561674118,  0.10032510757446289,
        -0.05809246003627777,  0.0719282403588295,    0.0707777813076973,
        -0.09874925762414932,  0.04501475393772125,   0.11570748686790466,
        -0.006237531080842018, -0.09721202403306961,  -0.1195969507098198,
        -0.008304743096232414, 0.10627476871013641,   -0.007983434945344925,
        -0.024225357919931412, -0.05615608021616936,  -0.004370187874883413,
        0.08763302862644196,   0.04373442381620407,
    },
    {
        0.11123809963464737,   0.06199474632740021,   -0.058860670775175095,
        -0.05283716693520546,  0.09267178922891617,   0.12027016282081604,
        -0.04959435388445854,  0.07486291974782944,   -0.17387837171554565,
        -0.35501575469970703,  0.07814101129770279,   -0.05859602615237236,
        0.10534127056598663,   0.024944046512246132,  -0.05483558028936386,
        -0.04207726940512657,  0.12030639499425888,   -0.19189611077308655,
        -0.07066111266613007,  -0.0933072566986084,   0.03194091469049454,
        0.13971896469593048,   -0.09147049486637115,  0.0232025645673275,
        0.09273155778646469,   -0.002753846812993288, 0.11745179444551468,
        0.1393374651670456,    0.19920361042022705,   -0.058984801173210144,
        -0.12359300255775452,  0.18489348888397217,   -0.1674373745918274,
        -0.06843618303537369,  0.0492468997836113,    -0.0900026261806488,
        -0.03898854926228523,  -0.09656665474176407,  0.05188772454857826,
        -0.0415661595761776,   0.34666845202445984,   -0.0928010419011116,
        -0.12454859912395477,  0.019050754606723785,  -0.20590533316135406,
        -0.23227187991142273,  -0.0804351419210434,   0.12044581025838852,
        0.1757723093032837,    -0.040570057928562164, -0.035738732665777206,
        0.20124498009681702,   -0.2555754482746124,   -0.05453406274318695,
        -0.06195775792002678,  -0.03220469504594803,  0.022354355081915855,
        -0.23148316144943237,  0.09516694396734238,   0.03106723539531231,
        0.09540238231420517,   -0.022288011386990547, 0.06042260676622391,
        0.12625931203365326,   -0.10939415544271469,  0.057876959443092346,
        -0.02934405952692032,  0.06728915870189667,   0.18142230808734894,
        -0.23250384628772736,  0.092571921646595,     -0.05874030292034149,
        0.10778973251581192,   -0.09983190149068832,  -0.0756717175245285,
        0.44295045733451843,   0.2157781422138214,    -0.013643243350088596,
        0.0011171384248882532, 0.09190834313631058,   0.09203795343637466,
        -0.21080593764781952,  -0.09827079623937607,  -0.08864621073007584,
        0.2833637595176697,    0.05836348235607147,   -0.029547207057476044,
        0.207969069480896,     0.04289330914616585,   -0.05353553593158722,
        0.22003266215324402,   -0.024716783314943314, 0.15462176501750946,
        0.02571112848818302,   -0.23625236749649048,  0.18885867297649384,
        -0.1341954618692398,   0.037429071962833405,  0.12677215039730072,
        0.24418610334396362,   0.08288132399320602,   -0.09084973484277725,
        -0.17710794508457184,  0.060378845781087875,  -0.10536839812994003,
        0.2804839611053467,    -0.02311175875365734,  -0.17398524284362793,
        -0.10470320284366608,  -0.015099015086889267, -0.021332046017050743,
        -0.02710578218102455,  -0.03527279570698738,  0.1354902982711792,
        -0.10619354993104935,  -0.151893749833107,    0.05263396352529526,
        -0.18481700122356415,  0.09345490485429764,   -0.19555804133415222,
        0.025810573250055313,  0.004673342686146498,  0.01032913476228714,
        4.721981531474739e-05, 0.06851851940155029,   -0.04871875047683716,
        0.12793585658073425,   0.29818713665008545,
    },
    {
        0.06403984129428864,   0.08000478148460388,    0.007227649912238121,
        -0.04889553040266037,  -0.035766568034887314,  0.06174344941973686,
        0.039114709943532944,  -0.0672079548239708,    0.08014166355133057,
        -0.044011130928993225, 0.022498764097690582,   0.0012198637705296278,
        0.037325918674468994,  0.03597477450966835,    0.023872096091508865,
        -0.04745178669691086,  -0.06383156031370163,   0.03995895758271217,
        -0.01595892198383808,  -0.07776838541030884,   0.060840509831905365,
        -0.019759438931941986, 0.09605321288108826,    0.03059656172990799,
        0.04899192601442337,   0.02254434861242771,    0.02766128070652485,
        0.039176009595394135,  -0.06795933097600937,   -0.02559930458664894,
        -0.022456318140029907, 0.05968253314495087,    -0.006862591952085495,
        0.06037032604217529,   -0.034982457756996155,  0.08097274601459503,
        0.03068685345351696,   -0.009227417409420013,  -0.06409252434968948,
        -0.02896454930305481,  -0.09726890921592712,   -0.07220041006803513,
        0.016780201345682144,  0.11003496497869492,    0.05997148156166077,
        -0.02503633126616478,  -0.06171819195151329,   -0.0521610863506794,
        0.09972915798425674,   -0.04052170366048813,   0.0178441870957613,
        0.007811176124960184,  -0.03087669424712658,   -0.028121940791606903,
        -0.021381007507443428, 0.07500021159648895,    -0.017159733921289444,
        0.11920689791440964,   -0.09031017124652863,   -0.05521906539797783,
        -0.005704386159777641, 0.06317700445652008,    0.05900663509964943,
        0.06282832473516464,   -0.018891265615820885,  0.09209773689508438,
        0.039804037660360336,  -0.04733242839574814,   -0.024463046342134476,
        -0.036415793001651764, -0.01572696678340435,   -0.07257850468158722,
        0.018340472131967545,  0.0909881442785263,     0.05831500142812729,
        -0.07378458976745605,  -0.04271916672587395,   -0.006106612738221884,
        0.001338485162705183,  0.12411054223775864,    -0.07244917750358582,
        0.008024931885302067,  -0.02582983672618866,   0.03809059411287308,
        -0.06468243151903152,  0.0735660269856453,     0.015833213925361633,
        0.009375711902976036,  0.10936161875724792,    -0.04572618007659912,
        -0.05940083786845207,  -0.015073821879923344,  0.06351283937692642,
        -0.014008169062435627, -0.11142531782388687,   0.08506563305854797,
        0.0069248853251338005, 0.0812503844499588,     0.11408869177103043,
        -0.01973823271691799,  0.07198978215456009,    -0.055106811225414276,
        0.07165773212909698,   0.10356731712818146,    0.02508222870528698,
        -0.05333845689892769,  0.049672119319438934,   0.07164877653121948,
        -0.007744580041617155, -0.0001905058597913012, 0.0033387024886906147,
        -0.009039134718477726, 0.02394016832113266,    -0.08585872501134872,
        0.0014636237174272537, 0.1157085970044136,     -0.03520379215478897,
        0.0030069302301853895, -0.07646453380584717,   -0.06114409863948822,
        -0.08222406357526779,  0.027667246758937836,   0.02220221981406212,
        -0.027644500136375427, 0.005132030695676804,   -0.04923221468925476,
        0.019601037725806236,  0.05907114967703819,
    },
    {
        -0.09077609330415726,  -0.06892257183790207,  -0.11301149427890778,
        -0.16000714898109436,  -0.06585917621850967,  -0.08864638209342957,
        -0.05654171481728554,  -0.07929717004299164,  -0.1452108770608902,
        0.16523735225200653,   0.09188895672559738,   -0.07931158691644669,
        -0.05439785495400429,  -0.08328624069690704,  0.09898725897073746,
        -0.14230553805828094,  -0.10586624592542648,  0.15691298246383667,
        -0.004862082190811634, -0.02887340821325779,  -0.038674596697092056,
        -0.13954481482505798,  0.09916703402996063,   -0.065915547311306,
        -0.05535650998353958,  0.1299276053905487,    -0.03642909973859787,
        -0.10356390476226807,  -0.06250986456871033,  -0.09823532402515411,
        -0.07102251052856445,  0.06197799742221832,   0.14084561169147491,
        0.03296380862593651,   -0.04331762343645096,  0.09544569253921509,
        0.08586112409830093,   -0.05161985009908676,  0.16640448570251465,
        -0.20658570528030396,  0.17110200226306915,   0.19941949844360352,
        -0.061021462082862854, -0.06384896486997604,  -0.14875388145446777,
        0.031030790880322456,  0.13768208026885986,   0.05945240706205368,
        -0.05018211528658867,  -0.19313108921051025,  -0.08992593735456467,
        0.07191706448793411,   0.09507942944765091,   -0.2298349291086197,
        0.17544330656528473,   -0.24058255553245544,  0.09571488946676254,
        0.299219012260437,     0.1360614150762558,    0.02379017509520054,
        0.0623931959271431,    -0.06532624363899231,  -0.15420736372470856,
        -0.10964488983154297,  0.19680559635162354,   -0.020153360441327095,
        -0.012556122615933418, -0.12154664099216461,  0.0022726543247699738,
        -0.01159148383885622,  -0.15677013993263245,  -0.0762426033616066,
        0.05303294584155083,   0.10204234719276428,   0.18376363813877106,
        0.018582487478852272,  0.13579429686069489,   -0.016064804047346115,
        -0.05333249270915985,  -0.050584059208631516, -0.0010480127530172467,
        -0.1331452876329422,   0.14586099982261658,   0.009593868628144264,
        -0.09176760911941528,  0.03363177180290222,   -0.009661626070737839,
        -0.10131189972162247,  -0.038913480937480927, -0.07761092483997345,
        0.06133158504962921,   -0.1436002552509308,   -0.08200585842132568,
        -0.06616663187742233,  -0.13019615411758423,  -0.23647916316986084,
        -0.059259455651044846, -0.17755679786205292,  -0.05407996475696564,
        -0.043269503861665726, 0.07425560057163239,   0.011735586449503899,
        -0.010146332904696465, -0.02047472447156906,  0.1415814310312271,
        0.0026114515494555235, -0.00629836693406105,  0.18983997404575348,
        0.06363701820373535,   -0.11151324957609177,  0.012314487248659134,
        -0.069730743765831,    0.023016488179564476,  0.12131552398204803,
        0.08857078850269318,   0.2103499472141266,    0.2366856187582016,
        0.08597168326377869,   0.0547916553914547,    -0.06856762617826462,
        -0.13325048983097076,  0.16962385177612305,   -0.20007751882076263,
        0.003194862511008978,  -0.1442667841911316,   0.08455751836299896,
        0.07246953248977661,   0.1438753753900528,
    },
    {
        -0.07467509061098099,  0.015937797725200653,   -0.07340550422668457,
        -0.07122330367565155,  0.08063598722219467,    0.04176147282123566,
        -0.09125310182571411,  -0.028201470151543617,  -0.1358209103345871,
        0.003911309875547886,  0.06836041063070297,    0.11714562773704529,
        0.06285189092159271,   -0.07485678046941757,   0.12801246345043182,
        0.014199120923876762,  -0.016847684979438782,  0.004089768044650555,
        0.09297674894332886,   -0.10109243541955948,   0.1187010183930397,
        -0.002048018854111433, -0.07953595370054245,   -0.09445223957300186,
        -0.046412840485572815, -0.08672136813402176,   -0.11686253547668457,
        -0.21030722558498383,  -0.01957288756966591,   -0.047099191695451736,
        -0.07516811788082123,  -0.05579633638262749,   -0.06122229993343353,
        -0.03277149423956871,  -0.06182529032230377,   -0.010411531664431095,
        -0.09341490268707275,  -0.1588663011789322,    0.13219183683395386,
        -0.06486086547374725,  0.04954533278942108,    0.14292976260185242,
        -0.03798701614141464,  -0.19338907301425934,   0.11778780072927475,
        -0.18855255842208862,  0.006749889813363552,   -0.07861301302909851,
        0.06617235392332077,   -0.06590592116117477,   0.12862294912338257,
        0.0062196520157158375, 0.09199453145265579,    -0.20039330422878265,
        0.051443759351968765,  0.09305328130722046,    0.017217937856912613,
        0.1746286302804947,    -0.0921417698264122,    -0.016291538253426552,
        0.07961072027683258,   0.09072397649288177,    0.07104212790727615,
        -0.03437509387731552,  0.048742543905973434,   0.009356655180454254,
        -0.04787203669548035,  -0.21950390934944153,   0.049679432064294815,
        -0.007861250080168247, -0.0036606285721063614, 0.053532037883996964,
        0.07426951825618744,   0.13752244412899017,    0.10721845924854279,
        -0.11195074021816254,  -0.03862999007105827,   -0.05363740772008896,
        -0.1957792043685913,   0.16684894263744354,    0.05345091596245766,
        -0.09713581949472427,  0.069862499833107,      0.03428955003619194,
        -0.19724957644939423,  0.07709770649671555,    0.030923543497920036,
        -0.10595828294754028,  -0.15254054963588715,   -0.0726797804236412,
        -0.14330802857875824,  0.13426420092582703,    0.08214927464723587,
        -0.06794492155313492,  -0.0487920343875885,    -0.10319586843252182,
        0.022348051890730858,  -0.0721956416964531,    -0.07818619161844254,
        -0.038116175681352615, 0.04466238245368004,    -0.06589390337467194,
        0.13844335079193115,   0.07446753978729248,    -0.0322260819375515,
        0.0500369630753994,    0.18806487321853638,    0.04322599247097969,
        0.020775748416781425,  -0.022321641445159912,  0.03158320486545563,
        0.02723671682178974,   -0.15316350758075714,   0.03494100645184517,
        -0.025480646640062332, -0.08720571547746658,   0.18982551991939545,
        0.12595637142658234,   0.02909068949520588,    -0.14861734211444855,
        0.07400603592395782,   -0.012296352535486221,  -0.03843975439667702,
        0.020050235092639923,  -0.08230715245008469,   -0.06135774776339531,
        -0.018235644325613976, 0.12363598495721817,
    },
    {
        -0.06892522424459457,  -0.04298948496580124,   -0.1864830106496811,
        0.041098881512880325,  -0.11459296941757202,   0.09489153325557709,
        0.07437837868928909,   -0.08330730348825455,   -0.2373875230550766,
        0.12622255086898804,   0.013284080661833286,   0.14305450022220612,
        0.03485066443681717,   -0.05574208125472069,   0.011859513819217682,
        -0.05469007045030594,  -0.06976735591888428,   0.080567866563797,
        0.036607470363378525,  -0.08305536955595016,   -0.08616957813501358,
        -0.19008709490299225,  0.12824879586696625,    0.02919616550207138,
        0.0926257073879242,    0.08886545151472092,    0.03418705612421036,
        -0.029567494988441467, 0.035104911774396896,   0.1444455236196518,
        -0.06213647499680519,  -0.0024527849163860083, -0.03581845760345459,
        0.038747429847717285,  -0.07290652394294739,   -0.08600907772779465,
        0.14588040113449097,   0.07418937236070633,    0.20160751044750214,
        -0.12617449462413788,  0.03630971536040306,    0.08543848991394043,
        0.051694605499506,     -0.3266165256500244,    -0.06333032250404358,
        0.01788521371781826,   -0.07233216613531113,   0.12270397692918777,
        -0.045142076909542084, -0.15130315721035004,   0.1534409075975418,
        -0.038304653018713,    0.29794102907180786,    0.019040273502469063,
        -0.036491017788648605, 0.1179703027009964,     -0.08540381491184235,
        0.3383525311946869,    0.0037915066350251436,  0.0037099351175129414,
        -0.09575816988945007,  0.008279704488813877,   -0.13557781279087067,
        -0.004171210806816816, 0.16244496405124664,    0.05702744051814079,
        -0.10431446880102158,  -0.13165542483329773,   0.0017951809568330646,
        -0.08415092527866364,  0.09530755132436752,    -0.1016639992594719,
        -0.018932487815618515, 0.0469849556684494,     0.062414031475782394,
        -0.039596009999513626, -0.031026173382997513,  -0.14778093993663788,
        -0.06719037145376205,  -0.09550302475690842,   -0.014139863662421703,
        -0.13096541166305542,  -0.022266995161771774,  0.01854291744530201,
        -0.12191838026046753,  0.05391189455986023,    -0.0931001529097557,
        0.023379510268568993,  -0.12582723796367645,   -0.09720899909734726,
        -0.15546682476997375,  -0.10406599938869476,   0.10480111092329025,
        -0.19671767950057983,  -0.14506617188453674,   -0.10582735389471054,
        -0.03848318010568619,  -0.028052497655153275,  -0.04851391911506653,
        -0.01832323893904686,  -0.03466593474149704,   -0.0705077275633812,
        0.17532536387443542,   -0.01312290783971548,   0.07183870673179626,
        0.0047154356725513935, 0.0360824353992939,     0.027938751503825188,
        0.042818840593099594,  0.032119717448949814,   0.07701855152845383,
        0.030162367969751358,  -0.058217935264110565,  0.09512131661176682,
        -0.023410813882946968, -0.0011936097871512175, 0.0352436900138855,
        0.04575390741229057,   -0.14201569557189941,   0.005135456100106239,
        0.051105234771966934,  0.0072387028485536575,  -0.002232018858194351,
        0.0778798833489418,    -0.15669956803321838,   -0.06504644453525543,
        0.04150983691215515,   0.09066838771104813,
    },
    {
        -0.0653485506772995,   -0.13399285078048706,  -0.06757088005542755,
        0.024463124573230743,  -0.06046724691987038,  0.019858794286847115,
        0.0754622370004654,    0.008135012350976467,  -0.07496952265501022,
        0.1320618987083435,    0.03659365326166153,   -0.10299593955278397,
        -0.14528310298919678,  -0.19815878570079803,  0.11294171214103699,
        -0.03031129203736782,  -0.12708446383476257,  0.1751784086227417,
        0.25871506333351135,   -0.030442306771874428, 0.05748415365815163,
        -0.10642088204622269,  0.023432042449712753,  -0.18078868091106415,
        0.04048817232251167,   0.12800781428813934,   -0.11151237040758133,
        -0.16227437555789948,  -0.17239853739738464,  0.1280636042356491,
        0.18321044743061066,   0.12986892461776733,   -0.11558998376131058,
        -0.08363721519708633,  -0.04127926006913185,  -0.01506956946104765,
        0.1790364384651184,    0.02422408200800419,   0.055119115859270096,
        -0.20411980152130127,  0.13353335857391357,   0.1567603200674057,
        0.10540307313203812,   -0.19075065851211548,  0.016822803765535355,
        0.03403468430042267,   0.1287875771522522,    0.04234229773283005,
        -0.011116568930447102, -0.1085304319858551,   -0.13973918557167053,
        0.08018449693918228,   0.20103198289871216,   -0.2163948118686676,
        0.19094866514205933,   -0.07532919198274612,  0.04543584957718849,
        0.1969318836927414,    0.20407839119434357,   0.009912843815982342,
        0.007336667273193598,  -0.11464868485927582,  -0.17088446021080017,
        -0.05434424802660942,  0.3037806451320648,    -0.07424968481063843,
        -0.09605639427900314,  -0.09010270982980728,  0.05432910844683647,
        0.03099611960351467,   -0.06110382825136185,  -0.02778584696352482,
        0.017332326620817184,  -0.04958729073405266,  0.04091512784361839,
        0.11394999921321869,   0.15022005140781403,   0.03167741000652313,
        -0.1716151088476181,   -0.009522092528641224, -0.02187984250485897,
        -0.1520872563123703,   0.08987118303775787,   -0.029730258509516716,
        -0.1879459172487259,   -0.13826745748519897,  -0.06694425642490387,
        -0.08772286027669907,  -0.015858685597777367, -0.018907634541392326,
        -0.16996900737285614,  -0.1251269280910492,   -0.16804799437522888,
        -0.052615828812122345, -0.06809524446725845,  -0.20142953097820282,
        0.11099130660295486,   -0.05393316224217415,  -0.07213106006383896,
        -0.05144667625427246,  0.03741759434342384,   -0.08334268629550934,
        0.06147776171565056,   0.014201806858181953,  0.2781221568584442,
        0.15175727009773254,   0.054431039839982986,  0.24999096989631653,
        0.1291046440601349,    -0.08860521763563156,  0.16033324599266052,
        0.046859875321388245,  0.0394429974257946,    0.09661593288183212,
        -0.062055137008428574, 0.001028308761306107,  0.23700621724128723,
        0.1305137723684311,    -0.022176561877131462, -0.006380039267241955,
        -0.3250455856323242,   0.13252699375152588,   -0.12578392028808594,
        -0.16296793520450592,  -0.19969604909420013,  0.10965625196695328,
        0.0518164187669754,    0.34244033694267273,
    },
    {
        0.0340363085269928,     -0.05133204534649849,   -0.1375819742679596,
        0.08615035563707352,    -0.07222922146320343,   0.057586874812841415,
        0.04838313162326813,    -0.12240074574947357,   -0.18131382763385773,
        0.11568886786699295,    -0.0937720313668251,    0.09902843087911606,
        0.013442321680486202,   -0.09912682324647903,   -0.038177281618118286,
        0.026799943298101425,   -0.025859812274575233,  0.011122815310955048,
        -0.029979707673192024,  0.03280455246567726,    0.00025321959401480854,
        -0.24596016108989716,   0.11033487319946289,    -0.2168664187192917,
        -0.08322403579950333,   -0.022622212767601013,  -0.03972946107387543,
        -0.1281854659318924,    -0.042926933616399765,  -0.02959282323718071,
        0.09398924559354782,    0.059794358909130096,   -0.21529452502727509,
        0.024472676217556,      0.04745588079094887,    -0.07703031599521637,
        0.05133802816271782,    -0.2790062427520752,    0.11078029870986938,
        -0.03399881720542908,   -0.08036060631275177,   0.2289806604385376,
        0.061927128583192825,   -0.18271082639694214,   -0.053429726511240005,
        -0.299987256526947,     -0.0013766804477199912, -0.01670684665441513,
        0.04808337986469269,    0.01107837911695242,    0.014720327220857143,
        -0.057937704026699066,  0.27152493596076965,    -0.04747774451971054,
        -0.07046244293451309,   0.13096943497657776,    -0.0872364193201065,
        0.3275286555290222,     -0.11566156148910522,   0.00706572225317359,
        -0.07054851204156876,   -0.007651535794138908,  -0.07496791332960129,
        0.048390548676252365,   0.1319497674703598,     0.13904240727424622,
        -0.09902718663215637,   -0.4121393859386444,    -0.19192573428153992,
        -0.030345702543854713,  -0.03320299834012985,   -0.02993934601545334,
        -0.014700666069984436,  -0.05662408471107483,   0.15594540536403656,
        -0.1313689947128296,    -0.10375922173261642,   -0.13423363864421844,
        -0.13781681656837463,   0.05667756870388985,    -0.045656897127628326,
        -0.17374546825885773,   -0.012278623878955841,  0.015921520069241524,
        -0.298201322555542,     0.14764614403247833,    0.038782283663749695,
        -0.14757145941257477,   -0.17607605457305908,   0.07935502380132675,
        -0.25233110785484314,   0.038226205855607986,   -0.050758954137563705,
        -0.19912581145763397,   -0.1582130789756775,    -0.09240520745515823,
        0.13683302700519562,    -0.22155390679836273,   -0.16698770225048065,
        0.02480929158627987,    -0.009587176144123077,  -0.09948865324258804,
        0.0028878527227789164,  -0.05510156229138374,   0.030412374064326286,
        -0.061012204736471176,  0.13734789192676544,    0.09742490202188492,
        0.10679562389850616,    -0.05906298756599426,   0.012257789261639118,
        0.12386965751647949,    -0.05915197357535362,   0.06468676030635834,
        0.08374565094709396,    -0.05714970454573631,   0.20988143980503082,
        0.062158241868019104,   0.007411428261548281,   -0.1033058613538742,
        -0.09096857905387878,   0.07345196604728699,    0.04045203700661659,
        0.012202654965221882,   -0.16624869406223297,   0.08024687319993973,
        -0.0033908814657479525, 0.140593484044075,
    },
    {
        -0.10770844668149948,   0.049106426537036896,  -0.09115301072597504,
        -0.017096951603889465,  0.03691934794187546,   -0.10376599431037903,
        -0.06917165219783783,   -0.04131143540143967,  -0.16131891310214996,
        0.1954941302537918,     -0.022400476038455963, 0.060404811054468155,
        -0.09050711989402771,   -0.06544782966375351,  -0.020236553624272346,
        0.06679805368185043,    0.02598358318209648,   0.04976550489664078,
        0.09477883577346802,    -0.024631444364786148, 0.07528571784496307,
        0.049211110919713974,   0.03557682782411575,   -0.12633183598518372,
        0.09400231391191483,    0.04079344496130943,   -0.08387552201747894,
        -0.046415895223617554,  -0.13584981858730316,  0.12138205766677856,
        -0.02532811276614666,   0.011146612465381622,  -0.023496277630329132,
        0.015926698222756386,   0.08713974803686142,   0.09614353626966476,
        0.03132100775837898,    -0.18510030210018158,  0.021061034873127937,
        -0.007342091761529446,  0.09270256012678146,   0.04139211028814316,
        0.09572778642177582,    -0.06030135601758957,  -0.02745475247502327,
        -0.08477678894996643,   0.04159165173768997,   -0.05014948546886444,
        -0.0040530371479690075, -0.11624392122030258,  -0.04155324026942253,
        0.0457385890185833,     -0.019556662067770958, -0.03540213778614998,
        0.18147800862789154,    -0.10309876501560211,  0.012714063748717308,
        0.1763099879026413,     0.12409171462059021,   0.05838894098997116,
        0.02242567203938961,    -0.07262436300516129,  -0.08630972355604172,
        -0.06544899195432663,   0.03944844752550125,   0.09318604320287704,
        -0.05022270604968071,   -0.11323985457420349,  -0.08252891898155212,
        -0.006050165742635727,  -0.1384536772966385,   0.04367669299244881,
        -0.07482931762933731,   0.043868277221918106,  0.027175376191735268,
        0.027387335896492004,   0.18335063755512238,   -0.09582598507404327,
        -0.01399153657257557,   0.1054215058684349,    0.10819936543703079,
        -0.1214279904961586,    0.044271424412727356,  0.10592667013406754,
        -0.10667571425437927,   -0.06960542500019073,  -0.056846532970666885,
        0.07160094380378723,    -0.17481355369091034,  -0.026147475466132164,
        -0.1249370276927948,    0.05605315789580345,   -0.06588079780340195,
        -0.02280396595597267,   -0.0770578607916832,   -0.1856006383895874,
        0.13589021563529968,    -0.14923161268234253,  -0.09826924651861191,
        0.014924945309758186,   -0.08708278834819794,  -0.04146919399499893,
        0.04556979611515999,    0.07529853284358978,   0.11005864292383194,
        0.07369846105575562,    0.07488033175468445,   -0.03348551690578461,
        0.12280529737472534,    -0.025110334157943726, -0.008613724261522293,
        -0.05755635350942612,   -0.10882359743118286,  -0.03712029755115509,
        -0.06838606297969818,   0.031417299062013626,  0.1043294295668602,
        0.065344899892807,      0.09395214915275574,   -0.06494387239217758,
        -0.010577774606645107,  0.12528486549854279,   -0.034852318465709686,
        -0.07593362033367157,   0.008054009638726711,  0.09310527890920639,
        0.052081163972616196,   0.15163256227970123,
    },
    {
        -0.03739088028669357,   0.01505213137716055,    0.0038341244217008352,
        0.013254839926958084,   -0.09947142004966736,   0.03330950066447258,
        0.11561824381351471,    0.006362149957567453,   -0.046307146549224854,
        0.019899284467101097,   0.011917687952518463,   0.02978532388806343,
        0.1262332797050476,     0.0515773631632328,     -0.08251495659351349,
        0.04399435594677925,    -0.022203221917152405,  -0.039099808782339096,
        0.11533460021018982,    0.07347822189331055,    0.04778330400586128,
        -0.16565491259098053,   -0.06480921804904938,   -0.023620180785655975,
        -0.053171902894973755,  -0.0693330317735672,    0.0318245068192482,
        -0.1338680535554886,    0.1175241693854332,     0.22367197275161743,
        0.06988626718521118,    -0.07416106760501862,   -0.09314441680908203,
        -0.006960742175579071,  0.0872742310166359,     -0.0639275386929512,
        0.24587896466255188,    -0.2612466812133789,    -0.029268469661474228,
        -0.12152262032032013,   -0.21301226317882538,   0.1032489761710167,
        0.05373334884643555,    -0.18726354837417603,   0.03960985690355301,
        -0.32350221276283264,   0.017776861786842346,   0.02838289365172386,
        0.15288594365119934,    -0.13762198388576508,   -0.056710660457611084,
        -0.16644421219825745,   0.22102466225624084,    -0.06640349328517914,
        -0.0037582183722406626, 0.08918635547161102,    0.03493478521704674,
        0.13278821110725403,    -0.08295395970344543,   0.004506252706050873,
        0.022082755342125893,   0.004695717711001635,   -0.08677314966917038,
        -0.10379444062709808,   0.09473151713609695,    0.050812531262636185,
        -0.2369036227464676,    -0.3190600872039795,    -0.28138023614883423,
        0.02841087058186531,    -0.03609703853726387,   0.06790347397327423,
        0.043700262904167175,   0.09821856766939163,    0.18488341569900513,
        -0.2661258280277252,    -0.10789591819047928,   -0.04246418550610542,
        -0.10053516179323196,   -0.0020652508828788996, -0.06968749314546585,
        -0.13346420228481293,   0.030779017135500908,   0.00046670748270116746,
        -0.23158082365989685,   0.10759219527244568,    0.011524396948516369,
        -0.08322560787200928,   -0.2603928744792938,    -0.010351978242397308,
        -0.28589797019958496,   0.076717309653759,      0.1501123607158661,
        -0.15743999183177948,   -0.19225825369358063,   -0.09285973757505417,
        -0.025991138070821762,  -0.19858843088150024,   -0.03580494970083237,
        -0.06672629714012146,   -0.08829627931118011,   -0.06736626476049423,
        -0.02359468676149845,   0.029053715988993645,   0.06369288265705109,
        -0.044856879860162735,  0.23672129213809967,    -0.12004244327545166,
        0.2591434419155121,     -0.16077248752117157,   0.14526601135730743,
        0.07307568937540054,    -0.1631595641374588,    -0.014277062378823757,
        -0.03631379455327988,   -0.14693166315555573,   0.07871120423078537,
        0.0878705084323883,     -0.036816827952861786,  -0.05674319714307785,
        -0.01642609015107155,   -0.028492465615272522,  0.14831480383872986,
        -0.055009253323078156,  -0.28520241379737854,   -0.020485354587435722,
        0.056557510048151016,   0.1539035588502884,
    },
    {
        -0.2718588411808014,    0.029891379177570343,  -6.800091796321794e-05,
        0.030702844262123108,   -0.0393402986228466,   -0.0055918325670063496,
        -0.14533653855323792,   0.12376999855041504,   -0.00021533902327064425,
        0.15803924202919006,    -0.00442477036267519,  -0.022386785596609116,
        -0.1396046280860901,    -0.16732275485992432,  0.1467197686433792,
        -0.11700959503650665,   -0.14723823964595795,  -0.011859077960252762,
        0.26467257738113403,    -0.02139999344944954,  0.020196380093693733,
        -0.0011147871846333146, -0.08761473000049591,  -0.17265018820762634,
        0.10622454434633255,    0.009417166002094746,  -0.14013972878456116,
        -0.08397351205348969,   -0.04667145758867264,  0.046558935195207596,
        0.13882580399513245,    0.0838489830493927,    -0.212617427110672,
        -0.03046172484755516,   0.02214908041059971,   -0.14168305695056915,
        0.12047252804040909,    -0.028102269396185875, 0.24852973222732544,
        -0.06514926999807358,   0.20424185693264008,   0.04664177820086479,
        0.09414328634738922,    -0.08788496255874634,  -0.006020815577358007,
        0.14110712707042694,    -0.058465905487537384, 0.06369461119174957,
        -0.16847148537635803,   -0.08685941249132156,  -0.1010187640786171,
        0.19574615359306335,    0.0631655752658844,    0.004902566317468882,
        0.2369413822889328,     -0.13704445958137512,  0.02199123427271843,
        0.17457416653633118,    0.048743151128292084,  -0.14182260632514954,
        0.07885609567165375,    -0.008606337010860443, -0.031945597380399704,
        -0.07468952238559723,   0.24262748658657074,   0.07330991327762604,
        -0.14512290060520172,   -0.09707452356815338,  0.0003694914630614221,
        0.09332204610109329,    -0.12120147794485092,  -0.0988895446062088,
        -0.0869356095790863,    -0.1166827529668808,   0.14245115220546722,
        0.1144610270857811,     0.060027480125427246,  -0.0038610161282122135,
        -0.01392035000026226,   0.11935102194547653,   -0.08043709397315979,
        -0.13036395609378815,   0.022411787882447243,  -0.08261669427156448,
        -0.2185465395450592,    -0.006104005500674248, -0.0801263302564621,
        0.1016136109828949,     0.02660249173641205,   -0.14463981986045837,
        -0.13366389274597168,   -0.13575126230716705,  -0.009941788390278816,
        -0.13594110310077667,   -0.17542493343353271,  0.054295528680086136,
        0.05914987251162529,    -0.03638296201825142,  0.012256480753421783,
        -0.20794348418712616,   -0.013240575790405273, -0.07698304951190948,
        0.03380744904279709,    0.018988339230418205,  0.1992630660533905,
        0.16099224984645844,    0.019313562661409378,  -0.051266204565763474,
        0.11011611670255661,    -0.037938594818115234, 0.11049781739711761,
        0.026518942788243294,   -0.1711045354604721,   0.04687615483999252,
        -0.09758179634809494,   0.06269439309835434,   0.23539718985557556,
        0.1437554806470871,     0.049827639013528824,  -0.16441911458969116,
        -0.13558559119701385,   0.1182023361325264,    -0.176774799823761,
        -0.00602895999327302,   0.03187285736203194,   -0.11587920784950256,
        0.2640463411808014,     0.300327867269516,
    },
    {
        -0.22875761985778809,  -0.05656976252794266,   0.07631281018257141,
        0.09296241402626038,   0.039388351142406464,   -0.0725826621055603,
        0.0012956332648172975, -0.021014679223299026,  -0.1946105659008026,
        0.09027812629938126,   0.09948290139436722,    -0.13596287369728088,
        -0.10253579169511795,  -0.09452089667320251,   -0.07043848931789398,
        -0.14131079614162445,  -0.12134277075529099,   0.011759255081415176,
        0.0079237911850214,    -0.11309897899627686,   0.09026262164115906,
        -0.10358154773712158,  -0.03285491466522217,   -0.08677426725625992,
        -0.0944289118051529,   0.27005526423454285,    -0.052251286804676056,
        -0.1087990552186966,   -0.018718235194683075,  0.09386622905731201,
        -0.02129044197499752,  -0.06646434962749481,   0.0373985581099987,
        -0.021673643961548805, 0.01923251710832119,    -0.03798546642065048,
        0.25025492906570435,   -0.010518844239413738,  0.04200099781155586,
        0.03265276551246643,   -0.008183402940630913,  0.033549871295690536,
        0.027995994314551353,  -0.0435340441763401,    0.022181883454322815,
        -0.1309790164232254,   -0.01364968717098236,   -0.017815399914979935,
        0.07013996690511703,   -0.08543508499860764,   -0.024235457181930542,
        -0.010935637168586254, 0.10553618520498276,    -0.006472561974078417,
        -0.04783383384346962,  -0.08307900279760361,   -0.024970896542072296,
        0.28575268387794495,   -0.06635938584804535,   0.025567807257175446,
        -0.10999133437871933,  0.17300164699554443,    0.06648480147123337,
        -0.12770356237888336,  0.1740352213382721,     -0.11400513350963593,
        -0.09616592526435852,  0.01729174330830574,    -0.08600768446922302,
        0.057450611144304276,  -0.0010235804365947843, -0.005520103499293327,
        0.08386445045471191,   0.05506347119808197,    -0.0018144056666642427,
        -0.17404581606388092,  0.024584680795669556,   -0.10422926396131516,
        0.10594013333320618,   0.10266400128602982,    0.03624287620186806,
        -0.02683732658624649,  -0.030746424570679665,  0.03832514211535454,
        -0.011247610673308372, -0.13225670158863068,   -0.013870032504200935,
        0.17018631100654602,   -0.016598254442214966,  0.02330510877072811,
        -0.017494406551122665, -0.07291494309902191,   -0.10176099091768265,
        -0.029041217640042305, -0.04813044145703316,   0.03322318568825722,
        -0.14278210699558258,  0.0929529145359993,     0.13249433040618896,
        -0.12041901797056198,  -0.08149293065071106,   0.05043720453977585,
        0.06911829113960266,   0.0006416272954083979,  0.03355402871966362,
        0.017089776694774628,  -0.06474403291940689,   0.06845593452453613,
        -0.06220740079879761,  -0.015895087271928787,  0.10760073363780975,
        0.045756615698337555,  0.08270619064569473,    0.11063221842050552,
        0.08796697854995728,   -0.03575405105948448,   0.02446196973323822,
        0.02493971586227417,   0.048807669430971146,   0.1854834407567978,
        0.03311879560351372,   0.05410980433225632,    -0.06012074649333954,
        0.06845825165510178,   -0.25826478004455566,   -0.07449626177549362,
        0.07720796018838882,   0.056069884449243546,
    },
    {
        -0.00490834703668952,  -0.11939079314470291,  0.0639587864279747,
        0.013191349804401398,  0.07265213876962662,   -0.12758874893188477,
        0.07073252648115158,   -0.01215213444083929,  -0.29392769932746887,
        0.13188858330249786,   0.07565421611070633,   0.03041810914874077,
        -0.024454496800899506, -0.11446964740753174,  -0.10573668032884598,
        -0.1775212585926056,   -0.18963737785816193,  0.11818200349807739,
        -0.018450915813446045, 0.09009946137666702,   -0.07524954527616501,
        -0.026889139786362648, 0.037622950971126556,  0.014422276057302952,
        -0.032269805669784546, 0.10826180130243301,   -0.06892910599708557,
        -0.18402057886123657,  -0.08770257979631424,  0.24361033737659454,
        -0.09831343591213226,  -0.045861005783081055, -0.08948216587305069,
        -0.0647483766078949,   0.006092235911637545,  0.06891560554504395,
        0.07325278967618942,   -0.019127829000353813, 0.03558150678873062,
        -0.02822481468319893,  0.1478443145751953,    0.17296181619167328,
        0.05640099570155144,   -0.18141008913516998,  0.046648722141981125,
        -0.3266780972480774,   -0.15033429861068726,  0.05040844529867172,
        0.05060515180230141,   -0.11378446221351624,  -0.02164904959499836,
        0.042103998363018036,  0.23881137371063232,   -0.1365353763103485,
        0.19851374626159668,   0.03720344975590706,   0.07226665318012238,
        0.061748865991830826,  -0.025093667209148407, -0.06930594891309738,
        -0.09374582022428513,  0.0033597946166992188, -0.05980364605784416,
        -0.05386862903833389,  0.16006000339984894,   -0.13200226426124573,
        -0.2656949758529663,   0.01585051603615284,   -0.05310020223259926,
        0.22909779846668243,   0.022503942251205444,  0.06569348275661469,
        0.016861433163285255,  -0.09397059679031372,  -0.08498667180538177,
        0.10377191007137299,   -0.027889767661690712, -0.13923990726470947,
        0.09137864410877228,   -0.056300677359104156, 0.06428191065788269,
        -0.1894129067659378,   0.1550787091255188,    -0.14993774890899658,
        -0.1655597984790802,   0.06515242159366608,   0.11307984590530396,
        -0.05682489275932312,  -0.06648176908493042,  0.06771434098482132,
        -0.2156439572572708,   -0.11609132587909698,  -0.08513636142015457,
        -0.11899471282958984,  -0.17458482086658478,  -0.050697170197963715,
        0.10412000864744186,   -0.076697438955307,    0.03880135715007782,
        -0.07170606404542923,  -0.01888900436460972,  -0.07534980028867722,
        0.17871248722076416,   0.04454582557082176,   0.1425355076789856,
        0.15382874011993408,   0.19266746938228607,   0.109126977622509,
        -0.04171030968427658,  0.06364910304546356,   0.038037583231925964,
        0.032531484961509705,  0.02989133633673191,   0.17684075236320496,
        -0.10690078139305115,  0.07645846158266068,   0.06107458844780922,
        -0.13725876808166504,  0.051044806838035583,  0.04793036729097366,
        0.08704692870378494,   0.07595231384038925,   -0.05235147103667259,
        -0.03410496190190315,  0.0015818976098671556, 0.03901679441332817,
        -0.01998676173388958,  0.16746945679187775,
    },
    {
        -0.15017035603523254,  -0.0077462391927838326, 0.1743599772453308,
        0.027715230360627174,  0.07469102740287781,    -0.1674453318119049,
        -0.05790488049387932,  0.14367185533046722,    -0.07142943888902664,
        0.1627080738544464,    -0.13078854978084564,   -0.012584860436618328,
        -0.23558929562568665,  -0.20772358775138855,   0.018032681196928024,
        -0.1300523728132248,   -0.05089800804853439,   -0.0555633008480072,
        0.022477872669696808,  0.0032584588043391705,  -0.07828278094530106,
        0.000567916315048933,  0.04606592655181885,    -0.020482003688812256,
        0.0508054718375206,    0.21461953222751617,    -0.18527451157569885,
        -0.05907409265637398,  -0.13863448798656464,   0.14578115940093994,
        -0.19919927418231964,  0.055827751755714417,   -0.18072256445884705,
        -0.07332240790128708,  0.04598228260874748,    0.16861110925674438,
        0.29067614674568176,   -0.041045695543289185,  0.03209532052278519,
        -0.016443360596895218, 0.10261274874210358,    0.12994617223739624,
        0.22377073764801025,   0.043865103274583817,   -0.01897551119327545,
        -0.09473329782485962,  -0.09944859892129898,   0.06232750415802002,
        -0.1892465054988861,   -0.2247026115655899,    -0.10958869010210037,
        0.11434202641248703,   0.1112973690032959,     0.03257590904831886,
        0.1278008669614792,    -0.081861212849617,     0.08266302943229675,
        0.11713989824056625,   -0.015034195967018604,  -0.06639398634433746,
        -0.031838491559028625, 0.17331206798553467,    0.0524495430290699,
        -0.03438955545425415,  0.21449564397335052,    -0.017876282334327698,
        -0.09225714951753616,  0.017949996516108513,   -0.016356032341718674,
        -0.05667548254132271,  0.03718787804245949,    0.05974647030234337,
        0.07633195072412491,   -0.041587214916944504,  0.1372072994709015,
        0.0354003980755806,    0.04236399382352829,    0.07220581918954849,
        0.015160112641751766,  0.08438445627689362,    -0.09103014320135117,
        -0.12461507320404053,  0.017457259818911552,   -0.25271135568618774,
        0.03759501129388809,   -0.10874740034341812,   0.15614663064479828,
        0.11458178609609604,   0.04987625032663345,    0.13196560740470886,
        -0.14872166514396667,  -0.11877519637346268,   -0.20745162665843964,
        0.09719034284353256,   -0.29671016335487366,   -0.16790452599525452,
        0.10903561860322952,   -0.06452634185552597,   0.22741340100765228,
        -0.17817729711532593,  -0.05180578678846359,   0.043327029794454575,
        0.12086382508277893,   0.13420437276363373,    -0.03895176947116852,
        0.109876848757267,     -0.01914612390100956,   0.09414840489625931,
        0.09029868990182877,   0.1122419461607933,     -0.1404312252998352,
        0.10627172142267227,   -0.1066831573843956,    0.04960665479302406,
        -0.03162208944559097,  0.07041357457637787,    0.025598865002393723,
        -0.04088766500353813,  -0.06631840020418167,   0.027918027713894844,
        0.020184557884931564,  -0.01577703095972538,   -0.17688804864883423,
        -0.0578264482319355,   -0.15508581697940826,   -0.1182548850774765,
        0.0882168561220169,    0.23560340702533722,
    },
    {
        0.09682357311248779,   -0.1216287836432457,   -0.039047446101903915,
        0.03454184532165527,   -0.022000398486852646, -0.1336555927991867,
        0.3475763499736786,    -0.027109595015645027, -0.17794634401798248,
        0.21368210017681122,   0.005282712168991566,  0.05117819830775261,
        -0.07899290323257446,  -0.12169720977544785,  -0.2165141999721527,
        0.08759071677923203,   -0.14174622297286987,  -0.09046846628189087,
        -0.0840148776769638,   -0.08327831327915192,  0.04832114279270172,
        -0.019192930310964584, -0.07687363773584366,  0.2191266268491745,
        0.04821527376770973,   0.11929639428853989,   0.008693295530974865,
        -0.09297380596399307,  0.01520074624568224,   0.19522656500339508,
        0.09717607498168945,   -0.16644452512264252,  -0.052413344383239746,
        0.09197334200143814,   -0.07818842679262161,  0.0005656906287185848,
        0.0765594094991684,    0.020592523738741875,  -0.08824965357780457,
        0.10352028906345367,   -0.1884021908044815,   0.05139712989330292,
        0.1086655929684639,    -0.15314355492591858,  0.04874567314982414,
        -0.052358414977788925, 0.013510111719369888,  0.011475395411252975,
        -0.02368524670600891,  -0.02516799420118332,  -0.05947914347052574,
        -0.18327367305755615,  0.026435011997818947,  0.00685214763507247,
        0.11447567492723465,   -0.017310403287410736, -0.04036584123969078,
        0.09609512239694595,   -0.18944226205348969,  0.1377318948507309,
        -0.025985397398471832, 0.33684617280960083,   0.04276926442980766,
        -0.03938765451312065,  0.16027387976646423,   -0.000817801512312144,
        -0.09607864171266556,  -0.05504707247018814,  -0.1664748191833496,
        0.06529626250267029,   -0.07498949766159058,  -0.09660603106021881,
        -0.05524572357535362,  -0.038596972823143005, -0.038856446743011475,
        -0.1388908475637436,   -0.04719536006450653,  -0.02292736805975437,
        -0.2671970725059509,   -0.05397854745388031,  0.003263860708102584,
        -0.08171292394399643,  0.03752400726079941,   0.036724016070365906,
        -0.05070829018950462,  -0.1962832808494568,   0.0933835357427597,
        0.21084362268447876,   0.010865672491490841,  0.1951732188463211,
        -0.11657686531543732,  0.11085508018732071,   -0.24821221828460693,
        -0.013074678368866444, -0.03311800956726074,  -0.12997354567050934,
        -0.13451114296913147,  0.08402154594659805,   0.21355250477790833,
        -0.11893118917942047,  -0.04605867341160774,  -0.01915058121085167,
        0.29765069484710693,   0.09389577060937881,   -0.0036972782108932734,
        -0.123756043612957,    0.1793726533651352,    0.10697775334119797,
        0.3116803765296936,    -0.056799717247486115, 0.110409215092659,
        0.1056407243013382,    0.25785496830940247,   0.018144426867365837,
        0.011146103963255882,  -0.12183847278356552,  -0.045408088713884354,
        0.23530250787734985,   0.011527907103300095,  0.19198660552501678,
        -0.07921936362981796,  -0.02320605330169201,  -0.17919400334358215,
        -0.040955767035484314, -0.02886938489973545,  0.17987428605556488,
        -0.05994893237948418,  -0.013333490118384361,
    },
    {
        0.0039830622263252735, 0.06129598245024681,    0.11718092113733292,
        0.022975243628025055,  0.07525426894426346,    -0.08588284254074097,
        0.1036989837884903,    -0.030314773321151733,  -0.300033301115036,
        -0.07308369129896164,  -0.0017979787662625313, -0.11718466877937317,
        0.00828914437443018,   -0.18753355741500854,   0.10010713338851929,
        -0.08274396508932114,  0.040476299822330475,   0.04399869590997696,
        0.021845661103725433,  -0.024317564442753792,  0.08639942854642868,
        -0.11346729844808578,  0.11579545587301254,    -0.1607658863067627,
        -0.03278718143701553,  0.05391797050833702,    -0.026176538318395615,
        -0.22091495990753174,  -0.09456189721822739,   0.05560815706849098,
        -0.21235071122646332,  0.04916872829198837,    -0.08864294737577438,
        0.023223571479320526,  0.05492497980594635,    -0.03376853093504906,
        0.1486494094133377,    -0.2620934247970581,    0.17231318354606628,
        -0.10737904906272888,  0.003551741596311331,   0.16155235469341278,
        0.19687068462371826,   -0.18570205569267273,   0.05313654616475105,
        -0.3657795786857605,   -0.15165837109088898,   0.10858282446861267,
        0.07028450071811676,   -0.01075088232755661,   0.06560222804546356,
        0.021298905834555626,  0.0912138894200325,     -0.05829843506217003,
        0.1304783970117569,    0.030951952561736107,   0.009260452352464199,
        0.07631684839725494,   -0.04199123755097389,   0.04052748158574104,
        0.0029288334771990776, -0.021136566996574402,  0.06272147595882416,
        -0.09762515127658844,  0.13283109664916992,    -0.13503198325634003,
        -0.2608914077281952,   -0.1682051122188568,    -0.06748265027999878,
        0.10751315951347351,   0.08866870403289795,    0.0637631043791771,
        0.07767751067876816,   0.012958837673068047,   -0.015648536384105682,
        -0.08321917802095413,  -0.043294757604599,     -0.02966112457215786,
        0.0395500622689724,    -0.06099465489387512,   -0.05041325092315674,
        -0.14782439172267914,  0.06641746312379837,    0.013421108014881611,
        -0.16835349798202515,  0.06676120311021805,    0.09451951831579208,
        0.06769923865795135,   -0.09933364391326904,   0.03235769644379616,
        -0.252138614654541,    -0.009173319675028324,  -0.07594631612300873,
        -0.07558973878622055,  -0.23405571281909943,   -0.1559918075799942,
        0.06269893050193787,   -0.12874582409858704,   -0.05127222463488579,
        -0.045906901359558105, 0.03151289373636246,    -0.032559506595134735,
        0.12454152852296829,   0.25140005350112915,    0.06151528283953667,
        -0.02035597339272499,  0.14346034824848175,    0.07313740998506546,
        0.07515648007392883,   -0.0471627376973629,    0.038280926644802094,
        -0.03806418925523758,  0.17177239060401917,    0.03695657476782799,
        -0.10193345695734024,  -0.08644915372133255,   -0.02132507599890232,
        -0.07533060014247894,  -0.027116218581795692,  0.19184568524360657,
        0.08023674041032791,   0.09261222183704376,    0.111751489341259,
        -0.003894617548212409, -0.15110258758068085,   0.08273784816265106,
        -0.10667747259140015,  0.035973820835351944,
    },
    {
        -0.011057307943701744,  -0.11390987783670425,  0.12214121967554092,
        -0.07808634638786316,   -0.09640223532915115,  0.08567720651626587,
        -0.0026752075646072626, -0.010800991207361221, -0.08573973923921585,
        -0.12439329922199249,   0.025397159159183502,  -0.003892188426107168,
        -0.09823926538228989,   -0.2293558120727539,   -0.026257818564772606,
        -0.005589343141764402,  0.035971254110336304,  0.15143871307373047,
        0.030415300279855728,   0.014454307034611702,  0.06383991241455078,
        0.004912669770419598,   -0.018261488527059555, -0.03690071031451225,
        -0.08552665263414383,   0.0010176191572099924, -0.05086732655763626,
        -0.04129818454384804,   0.07721546292304993,   -0.06871450692415237,
        -0.09396146982908249,   -0.009888445027172565, -0.08806443959474564,
        0.047433577477931976,   0.08979501575231552,   -0.06025346741080284,
        -0.07003391534090042,   -0.04975032061338425,  0.12485060840845108,
        -0.23559951782226562,   0.19251659512519836,   0.03339732810854912,
        0.0845792219042778,     -0.15167120099067688,  0.12079214304685593,
        -0.1317259669303894,    -0.004843702539801598, 0.0634172186255455,
        0.04196521267294884,    -0.05208117887377739,  -0.05370793491601944,
        -0.03092159703373909,   0.10891617834568024,   -0.12752054631710052,
        0.0798475593328476,     -0.05429498106241226,  -0.04846798628568649,
        0.15237435698509216,    0.003088490106165409,  0.184347465634346,
        -0.02888747863471508,   -0.14181989431381226,  -0.11001139879226685,
        0.010178043507039547,   0.14214389026165009,   0.06843718141317368,
        -0.02800215780735016,   0.0007120768423192203, 0.09324375540018082,
        0.03291536495089531,    0.08608818054199219,   0.010747363790869713,
        0.03717784583568573,    -0.14510101079940796,  0.08790624886751175,
        0.06397272646427155,    0.0653923898935318,    -0.06186086684465408,
        -0.09257829934358597,   0.021774325519800186,  0.15764284133911133,
        -0.2499639093875885,    0.24371154606342316,   -0.07850226759910583,
        -0.18234775960445404,   -0.12906424701213837,  -0.10170569270849228,
        -0.048818189650774,     -0.13126496970653534,  0.07759492099285126,
        -0.13082028925418854,   -0.025881022214889526, -0.11754623055458069,
        -0.05911827087402344,   -0.1080109253525734,   -0.09848714619874954,
        0.10603746771812439,    -0.1659524142742157,   -0.07338594645261765,
        -0.14207758009433746,   -0.031329818069934845, -0.10883264988660812,
        0.015943964943289757,   0.16366848349571228,   -0.04085974395275116,
        -0.011194645427167416,  0.07112090289592743,   0.09760162979364395,
        0.008524238131940365,   0.11545845866203308,   0.14836463332176208,
        -0.0558265820145607,    0.13676682114601135,   0.09029451757669449,
        0.04611555486917496,    0.04367544874548912,   0.05669013410806656,
        -0.07705697417259216,   -0.07276731729507446,  0.19811619818210602,
        -0.09875022619962692,   0.09287138283252716,   0.1222219467163086,
        -0.12617768347263336,   -0.04800129309296608,  0.16642418503761292,
        -0.0473022423684597,    0.2806340157985687,
    },
    {
        -0.0150986323133111,   0.03973858430981636,   0.10527274012565613,
        -0.02175658755004406,  -0.06671996414661407,  0.03538160026073456,
        -0.005517860874533653, 0.0308583602309227,    -0.20097984373569489,
        0.09153196215629578,   -0.09121125936508179,  0.09476738423109055,
        0.03850084915757179,   0.009821117855608463,  0.05102263391017914,
        -0.010438840836286545, 0.07240501791238785,   0.06081421673297882,
        -0.05167428404092789,  -0.04161004722118378,  -0.0031875106506049633,
        -0.01109873503446579,  0.132852703332901,     -0.009268111549317837,
        0.06178212910890579,   -0.026362933218479156, 0.05385231971740723,
        -0.22136665880680084,  -0.0960799977183342,   0.21157635748386383,
        -0.18774811923503876,  -0.04528249800205231,  -0.07206612080335617,
        0.049549125134944916,  0.039945222437381744,  -0.05112582445144653,
        0.06360851973295212,   -0.2153681516647339,   -0.028942424803972244,
        0.159758061170578,     0.04941701516509056,   0.2143523097038269,
        0.11222191154956818,   -0.26107826828956604,  -0.02192804589867592,
        -0.30630743503570557,  -0.04545057937502861,  0.1527588814496994,
        0.002185366116464138,  0.0942593663930893,    -0.059295959770679474,
        -0.07897984981536865,  0.25202345848083496,   -0.058526281267404556,
        0.12753501534461975,   0.04476659372448921,   0.02221957966685295,
        0.15849669277668,      0.012591234408318996,  0.02042253129184246,
        0.035138774663209915,  0.0725378766655922,    0.017857626080513,
        -0.090880386531353,    0.07344671338796616,   -0.14261126518249512,
        -0.33093783259391785,  -0.18497540056705475,  0.10999321192502975,
        0.09286095947027206,   0.09500716626644135,   -0.0024089112412184477,
        0.0027199573814868927, 0.04595518112182617,   -0.05518225580453873,
        0.04384811967611313,   -0.06715758889913559,  -0.08203213661909103,
        -0.12739329040050507,  -0.047339070588350296, -0.025503717362880707,
        -0.1379881203174591,   -0.008991990238428116, -0.057479433715343475,
        0.008340295404195786,  0.18958903849124908,   0.09583891928195953,
        -0.09038035571575165,  -0.18552781641483307,  -0.010023878887295723,
        -0.07261838763952255,  0.14654453098773956,   -0.17243774235248566,
        -0.10438939929008484,  -0.2861861288547516,   -0.09131360054016113,
        0.08011988550424576,   0.08426470309495926,   -0.035207249224185944,
        0.016750767827033997,  -0.07278677821159363,  -0.0007804807391948998,
        0.14743219316005707,   0.039149291813373566,  0.12519137561321259,
        -0.07442724704742432,  0.07312992960214615,   -0.017764011397957802,
        0.166232168674469,     0.07612922042608261,   0.0006941698375158012,
        0.036106355488300323,  0.03766050562262535,   -0.08234875649213791,
        -0.05647667497396469,  -0.031092822551727295, 0.060443710535764694,
        -0.039224304258823395, 0.11808352917432785,   0.06887108832597733,
        0.08808773756027222,   0.10071421414613724,   0.07772432267665863,
        -0.0910249724984169,   -0.042352095246315,    0.0421258918941021,
        0.05774861201643944,   -0.01986604370176792,
    },
    {
        -0.10818708688020706,  -0.08420860767364502,  -0.16174794733524323,
        -0.10529125481843948,  0.08496713638305664,   0.014182021841406822,
        0.08074107021093369,   -0.032645970582962036, -0.020337430760264397,
        0.07668386399745941,   -0.087554432451725,    0.023286987096071243,
        0.012371327728033066,  -0.20166051387786865,  -0.02363351359963417,
        -0.10785767436027527,  -0.06716746091842651,  -0.024313652887940407,
        0.08987397700548172,   0.053928863257169724,  0.03629416599869728,
        0.029992861673235893,  -0.12132856994867325,  0.009932105429470539,
        0.027467645704746246,  -0.09641662985086441,  -0.19311481714248657,
        -0.0867396891117096,   -0.10071095824241638,  0.230762779712677,
        0.14524193108081818,   0.030689332634210587,  -0.23828688263893127,
        0.10063000023365021,   -0.03377619758248329,  -0.07537513971328735,
        0.16450285911560059,   -0.28143373131752014,  0.09394805878400803,
        -0.24852527678012848,  0.09710641205310822,   0.01731736585497856,
        0.2553628981113434,    -0.2271777242422104,   -0.027680546045303345,
        -0.17750777304172516,  -0.026474984362721443, 0.19348149001598358,
        -0.03635614365339279,  -0.22987417876720428,  0.019935445860028267,
        0.0714515745639801,    0.22770468890666962,   -0.16508083045482635,
        0.20094740390777588,   -0.11692234128713608,  -0.070928193628788,
        0.27348610758781433,   0.10853525251150131,   0.07342852652072906,
        -0.02170487679541111,  -0.018499605357646942, -0.1420803666114807,
        -0.12440477311611176,  0.26060450077056885,   0.06582431495189667,
        -0.2470172792673111,   -0.2963903248310089,   -0.09100830554962158,
        0.14453701674938202,   0.09638821333646774,   0.02333756349980831,
        0.03925267606973648,   -0.09711936861276627,  0.07152428478002548,
        -0.10177550464868546,  -0.008340300060808659, -0.059844501316547394,
        -0.23759028315544128,  0.0029389685951173306, 0.025270109996199608,
        -0.17960096895694733,  0.15493243932724,      0.0917467325925827,
        -0.17115901410579681,  0.12462221831083298,   -0.12086249887943268,
        0.033519044518470764,  -0.19183461368083954,  0.03250306472182274,
        -0.20868007838726044,  -0.08244689553976059,  -0.18864987790584564,
        -0.07671355456113815,  -0.288051038980484,    -0.24520964920520782,
        0.1784369945526123,    -0.1289035528898239,   -0.10456109046936035,
        -0.02711682766675949,  -0.02377086877822876,  0.05847881734371185,
        0.1471407413482666,    0.10731831938028336,   0.2064724564552307,
        -0.1123739704489708,   0.2276129126548767,    0.14884315431118011,
        0.15506967902183533,   -0.01868787594139576,  0.03579912707209587,
        -0.11323560774326324,  0.1257055699825287,    -0.19590619206428528,
        -0.0415152981877327,   0.1303979456424713,    0.08477246016263962,
        -0.027058089151978493, 0.09837014973163605,   0.03993634134531021,
        -0.10891219228506088,  0.03698442876338959,   0.0263984315097332,
        -0.14165769517421722,  -0.17462144792079926,  0.10325898230075836,
        0.049099259078502655,  0.28510233759880066,
    },
    {
        0.08890535682439804,    -0.17786557972431183,  -0.14572708308696747,
        -0.0033830886241048574, -0.045697953552007675, 0.11100347340106964,
        0.29128333926200867,    -0.07216837257146835,  -0.0195907149463892,
        0.22095707058906555,    0.02030324563384056,   0.09114012867212296,
        0.09125877916812897,    -0.24733875691890717,  0.042409464716911316,
        -0.14374426007270813,   0.010187788866460323,  -0.04033800587058067,
        0.07134149968624115,    -0.05795760452747345,  -0.01928202249109745,
        -0.006631442811340094,  -0.003874117275699973, -0.08069849759340286,
        -0.054284002631902695,  0.04488663002848625,   0.011464518494904041,
        -0.07364683598279953,   0.13625608384609222,   -0.11336523294448853,
        -0.062166955322027206,  -0.06603255867958069,  0.11036873608827591,
        -0.059107400476932526,  0.05219327658414841,   0.017081335186958313,
        0.14713874459266663,    -0.23253712058067322,  -0.04297380521893501,
        0.05416996404528618,    -0.15273581445217133,  0.07127193361520767,
        0.12518735229969025,    -0.16679546236991882,  0.06066245958209038,
        -0.004274900536984205,  -0.22109340131282806,  -0.017924049869179726,
        0.021552490070462227,   -0.10067126899957657,  -0.2553514242172241,
        -0.14793135225772858,   0.08684227615594864,   0.0008800273644737899,
        0.23651453852653503,    -0.017976850271224976, -0.036532558500766754,
        0.05474623292684555,    -0.13728956878185272,  0.049527090042829514,
        -0.060529258102178574,  0.014473353512585163,  -0.023120060563087463,
        -0.060061972588300705,  0.14990220963954926,   0.00932022649794817,
        -0.006812416948378086,  0.026095112785696983,  -0.044187817722558975,
        0.12939320504665375,    0.07251472026109695,   0.06285636126995087,
        0.002005566144362092,   0.08982743322849274,   -0.01495328638702631,
        -0.22154676914215088,   0.014447038061916828,  0.06251237541437149,
        -0.29571208357810974,   -0.14059172570705414,  0.00597238028421998,
        -0.025085125118494034,  0.09295487403869629,   0.05563102662563324,
        -0.10229788720607758,   0.03138028457760811,   -0.004687562119215727,
        -0.1423037052154541,    0.0007785227498970926, 0.22959885001182556,
        -0.07512331753969193,   -0.06718263030052185,  -0.13873186707496643,
        -0.17454950511455536,   0.10246939212083817,   -0.1549597978591919,
        0.018095800653100014,   -0.24861440062522888,  0.11151251941919327,
        0.008009180426597595,   -0.019736018031835556, -0.07327541708946228,
        0.18304817378520966,    0.3524600863456726,    -0.04697052389383316,
        -0.08934447914361954,   0.3555544912815094,    0.18563255667686462,
        0.28754326701164246,    -0.033343929797410965, 0.13435441255569458,
        -0.15052910149097443,   0.24816332757472992,   -0.01060398854315281,
        0.0052858879789710045,  -0.22386470437049866,  0.17773063480854034,
        0.14361613988876343,    -0.13448113203048706,  0.14919152855873108,
        -0.3243555724620819,    0.1674296259880066,    0.09521840512752533,
        -0.037529636174440384,  -0.0732022076845169,   0.21938438713550568,
        -0.03898414969444275,   0.23167429864406586,
    },
    {
        -0.010241915471851826, -0.09885010123252869,   0.08104319125413895,
        0.017867103219032288,  0.08230459690093994,    0.07799352705478668,
        0.03865578770637512,   0.15162532031536102,    0.09016646444797516,
        -0.001841809367761016, -0.10373733192682266,   -0.06185207888484001,
        -0.018236873671412468, -0.05900437384843826,   0.1355183869600296,
        -0.0226365327835083,   -0.04537733644247055,   -0.06430864334106445,
        0.17796586453914642,   0.02524738572537899,    -0.014151412062346935,
        -0.026592062786221504, 0.17217066884040833,    0.16611246764659882,
        0.02939918451011181,   0.13555583357810974,    -0.16304852068424225,
        0.11108104884624481,   -0.03960276022553444,   0.08315807580947876,
        -0.166909858584404,    0.20897381007671356,    0.04834955930709839,
        -0.09887216240167618,  -0.11056460440158844,   0.06679975986480713,
        0.07839009910821915,   -0.07301362603902817,   0.135101780295372,
        0.08488662540912628,   -0.0012448282213881612, 0.11597875505685806,
        -0.1009443923830986,   -0.057529620826244354,  0.04427117854356766,
        -0.1835567206144333,   -0.26271969079971313,   0.08441699296236038,
        -0.21374154090881348,  -0.08659326285123825,   -0.29257503151893616,
        0.02170049026608467,   0.016380706802010536,   -0.07551691681146622,
        0.028829926624894142,  -0.15091700851917267,   0.007175443693995476,
        -0.09099670499563217,  -0.050787363201379776,  -0.022868433967232704,
        0.09280897676944733,   0.06393364071846008,    0.04087776318192482,
        0.05855988338589668,   -0.05013773590326309,   -0.028378456830978394,
        0.0763251855969429,    -0.026665790006518364,  0.10937903076410294,
        -0.07811575382947922,  -0.03087214007973671,   -0.015953823924064636,
        0.06151421368122101,   0.2800047695636749,     -0.047419801354408264,
        0.0664924681186676,    0.08580335974693298,    0.12332707643508911,
        -0.05181662365794182,  0.02406870573759079,    -0.028621764853596687,
        -0.12047126889228821,  -0.031927354633808136,  -0.04063396155834198,
        -0.021570822224020958, -0.026262616738677025,  0.06294706463813782,
        -0.018469350412487984, -0.12330697476863861,   -0.09820520877838135,
        -0.06639138609170914,  0.02177002839744091,    0.08558769524097443,
        0.10128813236951828,   0.015120178461074829,   0.06933695822954178,
        -0.0489012710750103,   -0.08229625225067139,   0.10047196596860886,
        0.07866722345352173,   0.011319310404360294,   -0.07240467518568039,
        -0.07979113608598709,  0.07870272547006607,    -0.0073171015828847885,
        0.03148762881755829,   0.12742294371128082,    -0.183138906955719,
        -0.07875816524028778,  0.20304344594478607,    -0.1363881230354309,
        0.029857177287340164,  -0.09284312278032303,   -0.0321776419878006,
        -0.041518278419971466, -0.0024708702694624662, 0.09927983582019806,
        -0.040210772305727005, 0.09462368488311768,    -0.01425782311707735,
        0.057793330401182175,  0.025714512914419174,   -0.09060042351484299,
        0.10003271698951721,   -0.010007902048528194,  -0.15337038040161133,
        0.035209741443395615,  0.05366799235343933,
    },
    {
        0.016728661954402924,  -0.1392996907234192,    0.016856897622346878,
        0.10251981019973755,   0.05360909178853035,    0.09897267818450928,
        0.019901752471923828,  0.03883893042802811,    0.02043220028281212,
        0.15431056916713715,   -0.0009513653931207955, -0.2251051366329193,
        -0.03508560359477997,  0.07099751383066177,    0.14494524896144867,
        -0.07548186182975769,  -0.0940128043293953,    -0.10354489088058472,
        0.08249779045581818,   -0.013243630528450012,  -0.11530551314353943,
        0.017946911975741386,  0.11507321894168854,    -0.042058929800987244,
        0.03376985341310501,   0.08736500889062881,    -0.029849544167518616,
        0.16530156135559082,   -0.0007221344276331365, -0.12915301322937012,
        -0.039613112807273865, 0.11975252628326416,    0.14862759411334991,
        -0.10460387170314789,  -0.05982968211174011,   0.13392122089862823,
        0.1513221561908722,    -0.13348795473575592,   0.10158147662878036,
        0.09937187284231186,   0.14395274221897125,    -0.024505475535988808,
        -0.043393608182668686, 0.060153741389513016,   -0.23765665292739868,
        -0.02718515507876873,  -0.19727317988872528,   0.09108896553516388,
        -0.22530712187290192,  -0.09041043370962143,   -0.08061828464269638,
        0.0808415487408638,    -0.06634630262851715,   -0.15616849064826965,
        0.12974779307842255,   -0.21209748089313507,   0.08867603540420532,
        -0.03193313628435135,  0.01996186561882496,    -0.21230825781822205,
        -0.08274837583303452,  0.19137276709079742,    -0.1618749350309372,
        -0.006532878614962101, 0.08654388785362244,    0.06070944294333458,
        0.08062399178743362,   -0.030061038210988045,  0.036657098680734634,
        -0.1366317868232727,   0.052500881254673004,   -0.1021755114197731,
        -0.05568750947713852,  0.1833256334066391,     0.0807734802365303,
        -0.030089713633060455, -0.007743824739009142,  0.11446116119623184,
        0.10737337917089462,   0.0054789320565760136,  0.10220684856176376,
        -0.017710048705339432, -0.12267978489398956,   0.09989743679761887,
        0.049532704055309296,  -0.05868805572390556,   0.02104089967906475,
        0.06930432468652725,   -0.08344674110412598,   -0.10715676099061966,
        0.1732693761587143,    0.04837098345160484,    0.029086103662848473,
        0.12129352241754532,   -0.004122706595808268,  0.10112287104129791,
        -0.08574779331684113,  -0.19128648936748505,   0.0025331757497042418,
        0.044080328196287155,  -0.051551803946495056,  -0.026547782123088837,
        0.025846339762210846,  -0.10466107726097107,   0.06012849509716034,
        -0.047746818512678146, -0.04228620603680611,   -0.006771103013306856,
        -0.07230658829212189,  0.0029659769497811794,  -0.1296716332435608,
        0.09506312012672424,   -0.08658751845359802,   0.015759173780679703,
        -0.04780267924070358,  0.13275404274463654,    0.0985412523150444,
        0.05486307665705681,   -0.0550188347697258,    -0.23094139993190765,
        -0.20727558434009552,  -0.08548971265554428,   -0.14399836957454681,
        0.1912786066532135,    -0.07622687518596649,   -0.10172754526138306,
        0.18752750754356384,   -0.03279223293066025,
    },
    {
        -0.006291575264185667,  -0.08529100567102432,  0.11042090505361557,
        0.17388075590133667,    -0.0838000625371933,   0.0431344136595726,
        0.31871193647384644,    0.019360657781362534,  -0.15925496816635132,
        0.15317058563232422,    0.041358739137649536,  -0.09515605121850967,
        0.094389908015728,      -0.17846211791038513,  0.11990752071142197,
        0.07457298040390015,    0.07508213073015213,   0.0402902290225029,
        0.1543365716934204,     -0.09476043283939362,  -0.04980862885713577,
        0.05304616317152977,    0.12371914088726044,   -0.1494472473859787,
        0.07593204081058502,    -0.07190679758787155,  0.14385831356048584,
        0.07395507395267487,    0.03286082297563553,   -0.008425501175224781,
        -0.0006606318638660014, -0.10027144849300385,  0.09801123291254044,
        0.07066790014505386,    -0.09930992126464844,  -0.027813231572508812,
        0.14300492405891418,    -0.35837873816490173,  -0.20431429147720337,
        0.06032874807715416,    -0.09743284434080124,  0.17164281010627747,
        -0.006593894213438034,  -0.20331132411956787,  -0.09261034429073334,
        0.23563146591186523,    -0.11576328426599503,  -0.04134688898921013,
        -0.08486675471067429,   -0.0352797694504261,   -0.11043117940425873,
        -0.046145495027303696,  0.02179032750427723,   0.03706219792366028,
        -0.02707122266292572,   -0.054169151932001114, -0.07327389717102051,
        -0.010412543080747128,  -0.11263339966535568,  -0.06307172775268555,
        -0.050070375204086304,  0.21171678602695465,   0.007163889706134796,
        -0.009764679707586765,  0.11763174086809158,   -0.094378761947155,
        -0.16064831614494324,   0.09554491937160492,   -0.13992084562778473,
        -0.060571976006031036,  0.16540421545505524,   -0.08223923295736313,
        0.11918317526578903,    0.2831677198410034,    -0.04277009516954422,
        -0.1319877803325653,    -0.06131114065647125,  0.17546392977237701,
        -0.17298166453838348,   -0.015468738041818142, 0.05062102898955345,
        -0.031084222719073296,  0.05379411578178406,   -0.10863275825977325,
        0.13793215155601501,    -0.04115526005625725,  0.06800279021263123,
        -0.10883747786283493,   0.10652385652065277,   -0.015301565639674664,
        -0.013238159939646721,  0.025029411539435387,  -0.08868969976902008,
        -0.1092936247587204,    0.035486526787281036,  0.0009366628946736455,
        -0.019572315737605095,  -0.37359461188316345,  -0.013120747171342373,
        -0.1149018332362175,    -0.10722267627716064,  0.08204273879528046,
        -0.006984989158809185,  0.2918936312198639,    0.10874903947114944,
        -0.1214987263083458,    0.3121568560600281,    0.14678804576396942,
        0.25034865736961365,    -0.07146956026554108,  0.03555891290307045,
        0.04758728668093681,    0.2176065593957901,    0.09830022603273392,
        0.02053801342844963,    0.006668509915471077,  0.15899862349033356,
        -0.03655823692679405,   0.014543426223099232,  -0.010875171050429344,
        -0.20328187942504883,   0.14840005338191986,   -0.06742946058511734,
        0.05366383120417595,    -0.15631653368473053,  0.054998110979795456,
        -0.13532333076000214,   0.019531533122062683,
    },
    {
        0.1389492005109787,     -0.18619109690189362,  -0.029851553961634636,
        -0.05595976486802101,   -0.023353595286607742, -0.07253152132034302,
        0.022246230393648148,   0.014565709978342056,  0.15007217228412628,
        0.060669369995594025,   0.04958602786064148,   -0.1648785024881363,
        0.10942039638757706,    0.07264723628759384,   0.010582521557807922,
        0.03443044796586037,    -0.03163030371069908,  -0.13236403465270996,
        0.04243035241961479,    -0.07262038439512253,  0.07647255808115005,
        0.0369761660695076,     0.003300151089206338,  -0.12982137501239777,
        -0.030345268547534943,  0.038424212485551834,  -0.0724097415804863,
        0.014126152731478214,   0.07752043753862381,   -0.06498382985591888,
        -0.20563586056232452,   -0.05582782253623009,  0.11512952297925949,
        -0.0019330084323883057, -0.08847671002149582,  -0.0214653629809618,
        0.03206280991435051,    -0.08966926485300064,  -0.019184492528438568,
        0.11712005734443665,    0.11905388534069061,   0.11597034335136414,
        0.06789903342723846,    -0.0416816845536232,   -0.056850630789995193,
        -0.11490776389837265,   -0.16294990479946136,  0.06595615297555923,
        0.11419995129108429,    0.09533264487981796,   -0.2777193486690521,
        -0.12112249433994293,   0.03483632206916809,   0.006590995471924543,
        0.10956863313913345,    0.10449600219726562,   0.11717710644006729,
        0.028732584789395332,   -0.13313235342502594,  0.030350886285305023,
        -0.08294259011745453,   -0.029751336202025414, -0.13492371141910553,
        0.030721699818968773,   0.11451000720262527,   0.0019077975302934647,
        -0.017707224935293198,  -0.035568609833717346, 0.11807721853256226,
        0.1427174210548401,     -0.08147444576025009,  -0.07795514166355133,
        -0.01640268601477146,   0.10827179998159409,   -0.061764638870954514,
        0.04684935882687569,    0.023010095581412315,  0.1072428897023201,
        0.03234025463461876,    -0.029607975855469704, 0.1415899395942688,
        0.022840166464447975,   0.12624157965183258,   0.017372436821460724,
        0.004496776964515448,   -0.03252413496375084,  0.1806493103504181,
        0.037016868591308594,   -0.045114170759916306, 0.014373152516782284,
        0.015254844911396503,   0.03524055331945419,   0.05796381086111069,
        -0.01097181998193264,   -0.1700638234615326,   -0.051492199301719666,
        0.032588325440883636,   -0.13606904447078705,  0.07853520661592484,
        0.12009118497371674,    -0.0576200969517231,   0.0199164766818285,
        -0.06736306101083755,   0.056352805346250534,  0.1033148244023323,
        -0.008685520850121975,  0.15336589515209198,   0.1410258561372757,
        0.00041024069651030004, 0.07058220356702805,   -0.20162658393383026,
        -0.04375166818499565,   0.0790884718298912,    0.008206559345126152,
        0.00042831272003240883, 0.06438890099525452,   -0.0597989521920681,
        -0.2010687291622162,    0.08801435679197311,   -0.0394749753177166,
        0.017431294545531273,   -0.04587827995419502,  -0.005212113726884127,
        0.002818373031914234,   -0.027346648275852203, 0.007935707457363605,
        -0.015099907293915749,  -0.01634608767926693,
    },
    {
        -0.017883315682411194, -0.09760010242462158,  -0.042268797755241394,
        0.12265296280384064,   -0.015100972726941109, 0.0718299075961113,
        -0.057950567454099655, 0.0969957634806633,    0.04222327470779419,
        0.16763480007648468,   -0.039219800382852554, -0.15934103727340698,
        0.024364115670323372,  -0.18469645082950592,  0.10683391988277435,
        -0.12289319187402725,  -0.1161390170454979,   0.1222977340221405,
        0.34556543827056885,   -0.029349228367209435, -0.023457098752260208,
        -0.09273389726877213,  0.15027675032615662,   -0.14399513602256775,
        -0.055471908301115036, 0.05490080267190933,   -0.17925317585468292,
        -0.08364986628293991,  -0.1478174924850464,   -0.055929843336343765,
        -0.16917948424816132,  0.09756628423929214,   0.005585057195276022,
        0.05389668792486191,   -0.0713081806898117,   -0.012961653992533684,
        0.037748247385025024,  -0.20119884610176086,  0.07976222783327103,
        -0.19314898550510406,  0.15379242599010468,   0.03682709485292435,
        0.150792196393013,     0.0952242836356163,    0.09915922582149506,
        -0.08998510241508484,  -0.17447629570960999,  0.09081501513719559,
        -0.20642167329788208,  -0.15583500266075134,  -0.09664298593997955,
        -0.036727458238601685, 0.023987142369151115,  -0.22384104132652283,
        0.011826670728623867,  0.07954520732164383,   0.1293390691280365,
        0.03050065040588379,   -0.04510986804962158,  0.025377614423632622,
        -0.010465908795595169, 0.11722713708877563,   -0.014762718230485916,
        0.22103683650493622,   0.23490044474601746,   -0.09472738951444626,
        -0.02124617248773575,  0.11731530725955963,   0.04054185375571251,
        -0.03159972280263901,  0.00691775931045413,   -0.02185080572962761,
        0.06691756099462509,   0.08120102435350418,   -0.05275733396410942,
        -0.11229857802391052,  0.0820319876074791,    0.16611701250076294,
        -0.03766905888915062,  -0.010225986130535603, -0.08900550752878189,
        -0.24760325253009796,  0.11390664428472519,   -0.04860364645719528,
        -0.13634906709194183,  -0.0966644287109375,   -0.03056045062839985,
        -0.11609211564064026,  -0.12598976492881775,  0.10060923546552658,
        -0.04493913799524307,  -0.14499406516551971,  0.10641845315694809,
        0.16639107465744019,   -0.11713719367980957,  0.10871860384941101,
        0.06567102670669556,   -0.3127506971359253,   0.07720134407281876,
        -0.10521844774484634,  -0.05453469604253769,  -0.06955369561910629,
        -0.038706451654434204, 0.20102068781852722,   0.052422940731048584,
        0.1143026128411293,    0.10550133883953094,   -0.02081473171710968,
        -0.11118072271347046,  0.1250499039888382,    -0.0913851261138916,
        -0.11614475399255753,  0.06075578182935715,   0.07999058812856674,
        0.04075104743242264,   0.15383504331111908,   0.055115822702646255,
        -0.07004984468221664,  0.0948796421289444,    -0.012239024043083191,
        -0.009783390909433365, 0.04596376046538353,   -0.04994398355484009,
        0.0063922652043402195, -0.20855668187141418,  0.03966284543275833,
        -0.02050451748073101,  0.22909653186798096,
    },
    {
        0.1326426863670349,     -0.21751083433628082,  -0.047370731830596924,
        0.004415980540215969,   -0.10429554432630539,  -0.05097292363643646,
        0.01157026831060648,    0.0912434309720993,    -0.017115730792284012,
        0.012411989271640778,   -0.00526037160307169,  -0.014282146468758583,
        0.14409030973911285,    0.026698943227529526,  0.04185210168361664,
        -0.0416276641190052,    -0.03953449800610542,  -0.09859362989664078,
        -0.013636539690196514,  0.0013098373310640454, 0.09937331080436707,
        0.0013879470061510801,  0.010428328067064285,  -0.1429518312215805,
        -0.023178361356258392,  -0.07523031532764435,  -0.2114429920911789,
        -0.20999681949615479,   0.023771872743964195,  0.1367271989583969,
        -0.1828518658876419,    -0.002935040043666959, -0.04327387362718582,
        -0.03608391433954239,   -0.08721418678760529,  -0.08474039286375046,
        0.0009999751346185803,  0.17968517541885376,   0.08559355139732361,
        0.17372044920921326,    -0.03776988014578819,  0.02933521568775177,
        0.09020768851041794,    -0.001665412331931293, -0.02823101170361042,
        -0.18220750987529755,   -0.19452381134033203,  -0.09389186650514603,
        0.11163592338562012,    0.00982456374913454,   -0.21464909613132477,
        0.03234654664993286,    0.09604237228631973,   -0.02476935088634491,
        0.045866552740335464,   0.004213022068142891,  -0.05420566722750664,
        -0.1389956772327423,    -0.18177694082260132,  0.11112257093191147,
        0.08038404583930969,    0.0803813561797142,    -0.14282537996768951,
