#ifndef HIDDEN_LAYER_64
#define HIDDEN_LAYER_64

#include "neural_network.h"

fixed_point_t hidden_weights_64[HIDDEN_LAYER_128_SIZE][HIDDEN_LAYER_64_SIZE] = {
    {
        0.049421023577451706, 0.12382963299751282,   0.2513425350189209,
        0.22527065873146057,  -0.13730818033218384,  -0.23860275745391846,
        0.011611047200858593, -0.14888352155685425,  0.1427481770515442,
        0.15639355778694153,  0.16040220856666565,   -0.14517514407634735,
        0.17497891187667847,  -0.07018352299928665,  -0.3580673933029175,
        0.20893758535385132,  -0.12115087360143661,  0.01665305532515049,
        0.28255361318588257,  0.12883959710597992,   -0.1185024306178093,
        -0.2330806851387024,  0.23180672526359558,   -0.13734570145606995,
        0.07503508776426315,  0.38576000928878784,   0.014833275228738785,
        -0.09384637326002121, 0.37141937017440796,   -0.04833928868174553,
        0.012420586310327053, -0.03808790072798729,  0.09858899563550949,
        -0.18450121581554413, -0.043126318603754044, 0.07148882746696472,
        0.03975854814052582,  -0.08530975878238678,  0.011417638510465622,
        -0.32703596353530884, 0.3421681225299835,    0.0765978991985321,
        -0.15708912909030914, -0.1047818511724472,   -0.13737870752811432,
        0.10288320481777191,  0.3174310028553009,    -0.19621425867080688,
        -0.277850478887558,   0.15838663280010223,   0.18134139478206635,
        0.044324032962322235, -0.1592409759759903,   -0.07771112024784088,
        0.11057814955711365,  0.03681525960564613,   -0.10182379931211472,
        -0.03524572402238846, -0.11994758993387222,  0.00793690700083971,
        0.16225233674049377,  -0.3286532461643219,   0.06569784134626389,
        -0.06944834440946579,
    },
    {
        0.16734489798545837,    0.2902401387691498,    -0.053401488810777664,
        -0.03419909253716469,   -0.27632081508636475,  -0.18702419102191925,
        -0.014994096010923386,  0.07644452154636383,   -0.051188308745622635,
        -0.1754283457994461,    0.12054529041051865,   -0.06780707091093063,
        -0.09516482055187225,   -0.172686368227005,    -0.02966880239546299,
        -0.20211035013198853,   -0.16706810891628265,  0.03140538930892944,
        0.04811700060963631,    0.14965613186359406,   0.1284094750881195,
        -0.0006836287793703377, -0.10967344790697098,  -0.11887417733669281,
        0.09238538891077042,    0.17565205693244934,   -0.10485003888607025,
        0.04906235262751579,    0.08575756102800369,   -0.15008261799812317,
        -0.23899714648723602,   -0.10843364149332047,  0.20829635858535767,
        -0.13587836921215057,   -0.011756774969398975, 0.048185065388679504,
        0.06559737026691437,    -0.24908344447612762,  0.2753993570804596,
        0.0788058266043663,     0.15511007606983185,   0.11291878670454025,
        -0.023907862603664398,  -0.10734296590089798,  -0.14776061475276947,
        -0.1928282529115677,    -0.044527433812618256, 0.06805907934904099,
        0.0930238887667656,     -0.12390606850385666,  0.051712580025196075,
        -0.04401429370045662,   0.009012180380523205,  -0.10292958468198776,
        0.016128042712807655,   -0.03478905186057091,  0.011419425718486309,
        -0.009362989105284214,  0.2270263433456421,    0.056852273643016815,
        0.015985120087862015,   0.08851528912782669,   0.04245217889547348,
        -0.03434571623802185,
    },
    {
        -0.1796652227640152,    0.1480727642774582,     -0.025015998631715775,
        0.09838441014289856,    0.12101736664772034,    0.2708849012851715,
        0.2888096272945404,     0.14659826457500458,    0.00213656690903008,
        -0.08025958389043808,   -0.16824214160442352,   -0.1795017272233963,
        -0.19420768320560455,   0.03433501347899437,    -0.002248153556138277,
        0.062145642936229706,   -0.20589163899421692,   -0.16832388937473297,
        0.14290544390678406,    0.03340588137507439,    0.0994245707988739,
        0.08232038468122482,    0.03388262167572975,    0.30760276317596436,
        0.26831042766571045,    -0.14700444042682648,   -0.12263299524784088,
        0.02062140591442585,    0.005738301668316126,   -0.14639092981815338,
        -0.0025863051414489746, 0.07814469188451767,    0.16729822754859924,
        -0.12521222233772278,   -0.11170029640197754,   0.11913219094276428,
        -0.12784171104431152,   -0.0001372475817333907, -0.24071082472801208,
        0.002875159028917551,   0.017883289605379105,   0.04570028930902481,
        0.08587424457073212,    -0.007601680234074593,  0.002669371198862791,
        0.3181919455528259,     0.14836539328098297,    0.317035973072052,
        -0.13052059710025787,   0.18626898527145386,    -0.15637969970703125,
        -0.30363163352012634,   0.11613549292087555,    0.04969433695077896,
        0.043518856167793274,   -0.06488578766584396,   -0.20958392322063446,
        0.31942084431648254,    0.19488099217414856,    0.2833651304244995,
        0.15160444378852844,    -0.103147953748703,     0.05990380421280861,
        -0.16172575950622559,
    },
    {
        0.025273002684116364,  -0.004552090540528297, -0.3561270534992218,
        -0.2504839599132538,   0.24550415575504303,   0.030118213966488838,
        -0.19311685860157013,  0.2860028147697449,    -0.28903236985206604,
        -0.23093099892139435,  0.08057350665330887,   0.24972741305828094,
        0.030912980437278748,  -0.05467718467116356,  0.1691143661737442,
        -0.21584023535251617,  -0.013565058819949627, -0.11267586052417755,
        -0.06744121015071869,  -0.13956502079963684,  0.3905429542064667,
        -0.10428978502750397,  -0.44288498163223267,  0.2752395272254944,
        0.3407818675041199,    -0.2551054060459137,   -0.06347457319498062,
        -0.013112897053360939, -0.2450016587972641,   -0.12993794679641724,
        0.12425374984741211,   0.045645494014024734,  -0.14774751663208008,
        0.07264157384634018,   -0.18858714401721954,  0.30372393131256104,
        0.008714724332094193,  0.09863608330488205,   0.004314641933888197,
        0.3961549401283264,    -0.2169807255268097,   0.08154375851154327,
        -0.01010103989392519,  0.1232529953122139,    0.09593481570482254,
        -0.025367626920342445, 0.012249157764017582,  -0.3012237846851349,
        0.09564804285764694,   -0.043892450630664825, 0.1818837821483612,
        0.045235756784677505,  -0.2593226134777069,   -0.05794157087802887,
        -0.17065848410129547,  -0.35888388752937317,  -0.051660723984241486,
        -0.11555206775665283,  0.2763635814189911,    -0.23768730461597443,
        -0.2818056344985962,   0.07090694457292557,   -0.18702279031276703,
        0.07462402433156967,
    },
    {
        0.13831287622451782,   -0.00421943748369813,  0.12592129409313202,
        -0.05721034109592438,  -0.02769029699265957,  0.17108435928821564,
        0.013667674735188484,  -0.016329359263181686, -0.16866180300712585,
        0.11750317364931107,   0.005457831081002951,  0.06837961077690125,
        -0.02773343026638031,  -0.0924898236989975,   -0.06653562188148499,
        0.15958578884601593,   -0.11516423523426056,  0.11416937410831451,
        -0.11642084270715714,  -0.09845668822526932,  -0.1158091202378273,
        -0.062070123851299286, 0.051471952348947525,  -0.10131637752056122,
        -0.15822665393352509,  -0.14105600118637085,  -0.09188805520534515,
        0.06991761922836304,   -0.03478916734457016,  0.04728902876377106,
        0.02981661818921566,   -0.11721540242433548,  -0.09440088272094727,
        -0.16981203854084015,  -0.02023586817085743,  0.09027867019176483,
        -0.13346299529075623,  -0.013273622840642929, 0.0976911336183548,
        0.1026126816868782,    -0.10219575464725494,  -0.1117326021194458,
        0.14239589869976044,   0.11203905940055847,   0.03644610941410065,
        0.05383804440498352,   0.028996899724006653,  0.07698960602283478,
        -0.04151025414466858,  0.16961583495140076,   0.15151339769363403,
        -0.1311941146850586,   0.061941780149936676,  -0.10628437250852585,
        0.06322933733463287,   0.06736987084150314,   0.07589740306138992,
        0.04586779326200485,   0.08078588545322418,   -0.1167665347456932,
        -0.12330444157123566,  -0.025120548903942108, 0.014236435294151306,
        0.1126931756734848,
    },
    {
        0.32135674357414246,  0.3224004805088043,    -0.10409371554851532,
        0.01397178415209055,  0.017562422901391983,  -0.33168408274650574,
        -0.27590230107307434, 0.16596974432468414,   -0.06368742138147354,
        -0.32596006989479065, 0.03183603286743164,   0.5273815989494324,
        0.36706459522247314,  0.014950246550142765,  -0.18131722509860992,
        0.16271750628948212,  -0.14423023164272308,  -0.01042775809764862,
        0.07747355848550797,  -0.04268923029303551,  0.27349117398262024,
        0.28491440415382385,  -0.042866211384534836, -0.1726129651069641,
        0.3008148670196533,   -0.0572759173810482,   -0.01556776650249958,
        -0.2472483366727829,  -0.17532429099082947,  -0.4052537679672241,
        -0.07313129305839539, 0.05827353149652481,   -0.08153273910284042,
        -0.333761990070343,   -0.32518240809440613,  0.3551939129829407,
        0.08567855507135391,  0.12645573914051056,   0.14181800186634064,
        0.320771723985672,    0.3276222050189972,    -0.30755266547203064,
        0.17617036402225494,  0.44680243730545044,   0.17711898684501648,
        -0.04870465025305748, 0.004302133806049824,  -0.12414487451314926,
        -0.19942156970500946, 0.3261410593986511,    -0.018454259261488914,
        -0.13652391731739044, -0.47869354486465454,  0.2544853687286377,
        0.10330186784267426,  0.1821458488702774,    0.0034610568545758724,
        0.10339174419641495,  0.10000386089086533,   -0.36698824167251587,
        -0.1894121915102005,  -0.17861448228359222,  0.21240092813968658,
        -0.06497211754322052,
    },
    {
        0.2927694022655487,     0.12408984452486038,  0.0724068433046341,
        0.09459970891475677,    0.15031121671199799,  -0.219246968626976,
        -0.1176898330450058,    0.038216087967157364, -0.16243501007556915,
        0.18327955901622772,    0.03672017529606819,  0.07126785069704056,
        0.3032197952270508,     -0.09605395048856735, 0.2600611746311188,
        0.1259981095790863,     -0.15998807549476624, -0.08864419907331467,
        -0.2538447082042694,    0.18309740722179413,  -0.0019070529378950596,
        0.029519101604819298,   0.13830722868442535,  0.017968259751796722,
        0.0997350662946701,     0.20914708077907562,  -0.10677404701709747,
        -0.02936556749045849,   0.2635233700275421,   -0.15511532127857208,
        0.011179774068295956,   0.18468350172042847,  -0.03589377924799919,
        -0.11761462688446045,   0.1307385116815567,   -0.014937089756131172,
        -0.06650365144014359,   0.12521284818649292,  0.19999870657920837,
        0.0534759983420372,     0.21906472742557526,  -0.3017961084842682,
        0.24017226696014404,    0.07538414746522903,  0.0914413183927536,
        -0.21224524080753326,   -0.19318874180316925, -0.06282921880483627,
        -0.1756841391324997,    -0.03628047928214073, -0.15719249844551086,
        -0.05037621781229973,   -0.10001787543296814, 0.1555578112602234,
        0.01037551648914814,    0.04189257696270943,  0.17805162072181702,
        -0.0009046259219758213, 0.03402801603078842,  0.08080987632274628,
        -0.005659875925630331,  -0.07348941266536713, -0.03352898359298706,
        0.015007399953901768,
    },
    {
        -0.02335471846163273,  0.06956321746110916,   -0.16158872842788696,
        0.21739378571510315,   0.3275083005428314,    0.18487855792045593,
        -0.0787808895111084,   0.243839293718338,     -0.011924966238439083,
        0.08827104419469833,   -0.06074051931500435,  0.18623243272304535,
        0.22602324187755585,   0.11592558026313782,   0.21392561495304108,
        0.11309154331684113,   -0.121205173432827,    0.1122322753071785,
        0.19185084104537964,   -0.26944470405578613,  0.2301855981349945,
        0.17978237569332123,   -0.12825079262256622,  0.21981897950172424,
        -0.20800291001796722,  0.10341938585042953,   0.3190172612667084,
        0.12525036931037903,   -0.0818750187754631,   -0.046351633965969086,
        -0.10261140763759613,  0.28973326086997986,   -0.007035974413156509,
        0.2917558252811432,    -0.07457888126373291,  0.12243086844682693,
        -0.17950692772865295,  0.1678307056427002,    0.03780556470155716,
        0.1564575582742691,    -0.14151282608509064,  0.014116614125669003,
        -0.07940544188022614,  0.20319028198719025,   0.1582365781068802,
        0.059234827756881714,  -0.056537918746471405, -0.15502013266086578,
        0.11050250381231308,   0.01264490932226181,   -0.11525779962539673,
        0.06241140514612198,   0.20144332945346832,   -0.2922987639904022,
        -0.03900885209441185,  -0.1883905678987503,   0.22265741229057312,
        -0.20421898365020752,  -0.04567493870854378,  -0.033465269953012466,
        0.007616131566464901,  0.15521106123924255,   0.18742670118808746,
        -0.033359210938215256,
    },
    {
        0.039976879954338074,  -0.2933011054992676,   0.08921539038419724,
        0.0910506322979927,    -0.09324834495782852,  0.2388199120759964,
        -0.040697839111089706, 0.009218457154929638,  -0.24697424471378326,
        0.015765314921736717,  0.12054537981748581,   -0.21950629353523254,
        0.04648591950535774,   -0.2241789698600769,   0.18682752549648285,
        -0.11719474196434021,  -0.14212682843208313,  -0.07464312016963959,
        -0.28199654817581177,  -0.15731075406074524,  -0.04401645436882973,
        0.0793038085103035,    0.26704731583595276,   0.15912193059921265,
        0.02985701709985733,   -0.05560432747006416,  0.017408136278390884,
        0.11971879005432129,   0.16893061995506287,   0.03762442246079445,
        0.1117810383439064,    0.07377456873655319,   -0.14743472635746002,
        0.06794153153896332,   -0.1259153038263321,   -0.21936653554439545,
        0.016160156577825546,  -0.017078863456845284, -0.10894659161567688,
        0.13948795199394226,   0.04007544741034508,   -0.046786028891801834,
        -0.1373986452817917,   -0.18309420347213745,  -0.19360066950321198,
        -0.040427207946777344, -0.310285747051239,    0.013256832025945187,
        -0.010381595231592655, 0.021842526271939278,  -0.19063106179237366,
        -0.0884188562631607,   -0.09858167171478271,  0.2624383866786957,
        0.01837431825697422,   0.03254704177379608,   0.09901200234889984,
        0.07775319367647171,   0.07083381712436676,   0.21874229609966278,
        -0.03223905339837074,  -0.1290154606103897,   -0.31473100185394287,
        0.026653500273823738,
    },
    {
        0.10269919037818909,  0.029137365520000458,  -0.01403469406068325,
        0.038021933287382126, 0.13351981341838837,   0.1544838845729828,
        0.021431423723697662, -0.02074490487575531,  -0.23410025238990784,
        0.005302239675074816, -0.05207892507314682,  0.18505392968654633,
        -0.10783222317695618, -0.11498904973268509,  0.30307266116142273,
        0.1811944991350174,   -0.21996848285198212,  -0.004691643174737692,
        -0.08103814721107483, 0.2002522200345993,    0.0954514890909195,
        -0.37591561675071716, -0.1828363537788391,   -0.004033043514937162,
        0.1929251104593277,   -0.08975783735513687,  -0.037186089903116226,
        -0.05172943323850632, 0.16847649216651917,   0.18329684436321259,
        0.12796272337436676,  -0.047237247228622437, 0.19100548326969147,
        0.00841203797608614,  -0.1494998037815094,   -0.38783207535743713,
        -0.18532156944274902, 0.14820952713489532,   -0.024370690807700157,
        0.20352645218372345,  -0.09391145408153534,  -0.09511689096689224,
        -0.11975517123937607, -0.05634438246488571,  -0.05492608994245529,
        0.06882695853710175,  0.08100040256977081,   0.09081855416297913,
        0.10923799127340317,  0.1522790640592575,    0.15184353291988373,
        0.15819886326789856,  0.08007565140724182,   -0.05408494174480438,
        -0.06363007426261902, 0.003624343778938055,  0.07381726056337357,
        -0.15842439234256744, 0.185786172747612,     0.21165892481803894,
        -0.23283109068870544, 0.0047415392473340034, -0.15978564321994781,
        -0.03599691390991211,
    },
    {
        0.023066850379109383, 0.02519570104777813,   0.015808401629328728,
        0.014257760718464851, -0.07054268568754196,  0.04104538634419441,
        -0.1459006667137146,  0.12752003967761993,   -0.06685281544923782,
        0.15766239166259766,  0.015870779752731323,  -0.10373366624116898,
        -0.03362855315208435, 0.09849654138088226,   0.15211956202983856,
        0.008967233821749687, 0.038000013679265976,  0.010893195867538452,
        -0.0460127554833889,  -0.04059924557805061,  -0.040898218750953674,
        0.047210752964019775, -0.07559524476528168,  -0.030253475531935692,
        0.06739242374897003,  0.05131344869732857,   -0.16086941957473755,
        0.045799124985933304, -0.03881438821554184,  0.13903404772281647,
        0.11413824558258057,  0.06919814646244049,   -0.09630277007818222,
        0.16524675488471985,  0.11647060513496399,   -0.06382725387811661,
        0.12087613344192505,  -0.03571838513016701,  -0.078086256980896,
        -0.1129152774810791,  -0.1175314411520958,   0.043951790779829025,
        0.12702874839305878,  -0.03292720019817352,  -0.15116406977176666,
        -0.1302504986524582,  0.20270152390003204,   -0.13404077291488647,
        0.001934162457473576, 0.09221413731575012,   0.0775429904460907,
        0.19178639352321625,  -0.007961522787809372, -0.16653773188591003,
        0.04631815850734711,  0.13736802339553833,   0.015760337933897972,
        0.12332823127508163,  -0.022764964029192924, -0.20931027829647064,
        -0.10316427052021027, 0.1577397733926773,    0.14685291051864624,
        -0.11050929129123688,
    },
    {
        0.32158616185188293,   0.20869150757789612,  0.011679875664412975,
        0.08928399533033371,   -0.18198400735855103, -0.09285786002874374,
        -0.06655949354171753,  -0.35018211603164673, 0.2443440705537796,
        0.28615978360176086,   0.23789472877979279,  0.18183821439743042,
        0.21332986652851105,   -0.22067996859550476, -0.02786940522491932,
        -0.11949798464775085,  0.12050215899944305,  -0.004652651492506266,
        -0.07650244235992432,  0.07518176734447479,  -0.22551017999649048,
        0.1224360316991806,    0.17992746829986572,  0.013232228346168995,
        -0.21974550187587738,  -0.02265947498381138, 0.06608117371797562,
        0.2061658650636673,    0.05766789987683296,  -0.2224879115819931,
        0.054011404514312744,  -0.17723871767520905, -0.013091753236949444,
        0.06357008963823318,   -0.07686004042625427, 0.05823410302400589,
        0.1344355195760727,    0.04258651286363602,  0.09740499407052994,
        -0.008427897468209267, 0.3669095039367676,   -0.3439517915248871,
        0.2342357635498047,    0.24242019653320312,  -0.02811262756586075,
        -0.4835206866264343,   -0.04193549230694771, 0.07906334102153778,
        -0.35180556774139404,  0.023251157253980637, 0.08314766734838486,
        0.0889541432261467,    0.05671544373035431,  0.3813766539096832,
        0.15829245746135712,   0.09349311143159866,  -0.08997935801744461,
        0.25638532638549805,   -0.06827570497989655, 0.10172489285469055,
        -0.002480219816789031, -0.3228575885295868,  -0.0814085602760315,
        -0.23307231068611145,
    },
    {
        0.14325325191020966,   0.12519457936286926,   0.26191145181655884,
        0.19720467925071716,   -0.11860742419958115,  -0.0550660640001297,
        -0.5037124752998352,   0.14735183119773865,   0.2054692804813385,
        0.1701509654521942,    -0.272447407245636,    0.22805365920066833,
        0.27363121509552,      -0.15766170620918274,  0.1920056790113449,
        0.12171656638383865,   0.01128819677978754,   -0.05430307611823082,
        -0.3193700611591339,   0.06632126122713089,   -0.18292920291423798,
        0.15884660184383392,   0.34599459171295166,   -0.14941540360450745,
        0.06544740498065948,   0.15373770892620087,   -0.2154414802789688,
        0.13361330330371857,   0.10665395855903625,   0.14756044745445251,
        -0.25449293851852417,  0.15118615329265594,   -0.26277992129325867,
        0.10317536443471909,   -0.21619172394275665,  0.1677824854850769,
        0.1295250803232193,    -0.04864787310361862,  0.12091059237718582,
        -0.11972136795520782,  0.03213426098227501,   -0.1400619000196457,
        0.2298249751329422,    0.3226715922355652,    -0.12269669026136398,
        -0.25486424565315247,  -0.029999222606420517, -0.41724422574043274,
        -0.028515024110674858, 0.1653074324131012,    0.07619676738977432,
        0.28732094168663025,   0.07481764256954193,   -0.03511466830968857,
        0.006078134290874004,  0.13475051522254944,   0.4644085764884949,
        -0.07993485778570175,  0.02033252641558647,   -0.272050678730011,
        0.19480642676353455,   -0.15490949153900146,  0.17985792458057404,
        -0.011552712880074978,
    },
    {
        0.40422406792640686,   0.21125048398971558,   0.21904809772968292,
        -0.1684565544128418,   0.0007373028201982379, -0.09233430027961731,
        0.08379556238651276,   -0.05953548476099968,  0.12994229793548584,
        0.19384726881980896,   0.11782903969287872,   -0.015198232606053352,
        -0.05776173993945122,  -0.18805068731307983,  0.11895961314439774,
        0.12504473328590393,   -0.026732981204986572, -0.05076604709029198,
        -0.03301562741398811,  0.12309762090444565,   0.09098748117685318,
        -0.019536105915904045, 0.10873592644929886,   0.009188750758767128,
        0.1794966459274292,    0.24014218151569366,   0.20432576537132263,
        0.018449977040290833,  0.3407740294933319,    -0.09343582391738892,
        -0.1543174833059311,   -0.004486613906919956, 0.29505425691604614,
        0.058869585394859314,  0.0013258159160614014, -0.08173929154872894,
        0.07418039441108704,   -0.2659318447113037,   -0.1252807080745697,
        -0.059148162603378296, 0.1325625777244568,    -0.004154723137617111,
        -0.029277516528964043, -0.1540306657552719,   -0.1327877640724182,
        -0.2589641511440277,   -0.013925902545452118, 0.11174255609512329,
        0.17022348940372467,   -0.09735210984945297,  -0.170448437333107,
        0.2924782931804657,    -0.05571264028549194,  -0.1219816729426384,
        -0.08999276161193848,  0.1695607304573059,    -0.16713525354862213,
        -0.012144578620791435, 0.1373191475868225,    0.28332212567329407,
        -0.018412858247756958, 0.011980004608631134,  -0.13015133142471313,
        -0.17813727259635925,
    },
    {
        0.14862868189811707,   -0.045859985053539276, 0.09884566813707352,
        -0.09833899885416031,  -0.004815679509192705, 0.03224870190024376,
        0.12332312762737274,   0.3500962257385254,    -0.1753149926662445,
        0.04304296150803566,   -0.10583454370498657,  0.11123038828372955,
        -0.023311911150813103, 0.09205823391675949,   0.08191139250993729,
        -0.24712274968624115,  -0.07608751952648163,  -0.06718792021274567,
        -0.06204685568809509,  -0.26158323884010315,  0.2437405288219452,
        -0.050268761813640594, -0.09574884176254272,  -0.06262902915477753,
        -0.062467459589242935, -0.06863494217395782,  -0.10696136206388474,
        0.15987619757652283,   0.17762283980846405,   0.30680474638938904,
        0.1356247216463089,    0.17420199513435364,   -0.014725404791533947,
        0.11405999958515167,   -0.11645201593637466,  0.17186515033245087,
        -0.10360860824584961,  0.20942312479019165,   -0.25802817940711975,
        0.06507718563079834,   -0.2658197581768036,   0.24441859126091003,
        0.17115335166454315,   0.15810079872608185,   -0.13028763234615326,
        0.2166898399591446,    0.14067061245441437,   0.1301001012325287,
        0.020521320402622223,  -0.1566561460494995,   0.014715839177370071,
        -0.13301894068717957,  -0.09507948905229568,  0.13884319365024567,
        0.023099366575479507,  -0.16041329503059387,  0.09781521558761597,
        0.19257354736328125,   -0.18623144924640656,  -0.12258030474185944,
        -0.12289666384458542,  0.13094672560691833,   0.150999054312706,
        -0.1846664845943451,
    },
    {
        0.26639842987060547,   0.24019767343997955,  0.08983151614665985,
        -0.261317640542984,    -0.03190368413925171, -0.19832082092761993,
        -0.0717177763581276,   0.006260109134018421, 0.08434092998504639,
        0.0015345631400123239, -0.2292255163192749,  -0.02740933746099472,
        0.35419273376464844,   -0.15558885037899017, -0.06427238136529922,
        0.14635451138019562,   -0.13070154190063477, 0.057343557476997375,
        -0.12402768433094025,  0.04093283787369728,  -0.13322441279888153,
        -0.032648906111717224, -0.12950409948825836, 0.262299507856369,
        0.18525470793247223,   0.08287833631038666,  -0.14044757187366486,
        0.15331369638442993,   0.16834691166877747,  -0.08072834461927414,
        -0.030078452080488205, 0.04503729194402695,  0.06912040710449219,
        -0.32981929183006287,  0.16739575564861298,  0.3533098101615906,
        -0.21812701225280762,  -0.04581177234649658, 0.06416550278663635,
        0.02229849435389042,   0.13380296528339386,  0.03435775637626648,
        0.239325150847435,     -0.04592675343155861, 0.0715293288230896,
        -0.04597792401909828,  -0.04463975876569748, 0.1605805903673172,
        -0.1337054967880249,   0.2831363081932068,   -0.07274249196052551,
        0.010722789913415909,  -0.11339477449655533, -0.09703139960765839,
        -0.03229241073131561,  -0.0658918023109436,  -0.1292354017496109,
        -0.038594432175159454, -0.0774930939078331,  0.26038387417793274,
        -0.24319426715373993,  -0.16378642618656158, 0.17036005854606628,
        -0.2268981784582138,
    },
    {
        -0.007054378744214773, 0.11492922157049179,   -0.072003073990345,
        -0.036383382976055145, -0.003624818054959178, 0.07897402346134186,
        0.2152668833732605,    0.1370822638273239,    -0.04624028503894806,
        0.048474524170160294,  -0.1385636031627655,   -0.17696698009967804,
        -0.33639147877693176,  -0.09343980252742767,  0.17433668673038483,
        0.10729577392339706,   -0.18553993105888367,  -0.15753018856048584,
        0.05434006080031395,   -0.12192490696907043,  -0.21726170182228088,
        -0.06841959059238434,  -0.08442603051662445,  -0.03632475435733795,
        0.05693473294377327,   0.14417560398578644,   0.051745034754276276,
        0.17837487161159515,   0.2259865403175354,    -0.05457249656319618,
        0.11261682957410812,   0.16223691403865814,   0.244212806224823,
        -0.10198889672756195,  -0.037240784615278244, 0.08654448390007019,
        -0.003092936472967267, 0.13218092918395996,   -0.20918318629264832,
        0.1360839456319809,    0.05292009562253952,   0.20851299166679382,
        -0.15601372718811035,  0.11377952992916107,   -0.18945397436618805,
        0.20891618728637695,   -0.2505451738834381,   0.1307706981897354,
        0.23037274181842804,   0.04692333936691284,   -0.06428695470094681,
        -0.007446831092238426, -0.14143027365207672,  -0.11401316523551941,
        0.14341884851455688,   -0.17703121900558472,  -0.05652964487671852,
        0.09563574194908142,   -0.034312520176172256, 0.16353566944599152,
        0.13435958325862885,   0.19355562329292297,   -0.03878948837518692,
        -0.09977057576179504,
    },
    {
        -0.20079578459262848,  -0.2398805320262909,  -0.28932520747184753,
        -0.10811758786439896,  -0.14531704783439636, 0.18839940428733826,
        -0.06523161381483078,  0.2803579568862915,   0.09612336754798889,
        -0.03292268514633179,  0.06713801622390747,  0.26514410972595215,
        -0.2507410943508148,   0.07788841426372528,  0.21555675566196442,
        0.157392680644989,     0.08159951120615005,  -0.17339225113391876,
        0.2355198711156845,    0.10422855615615845,  -0.037531185895204544,
        -0.12514597177505493,  0.08611000329256058,  -0.1501561999320984,
        0.002214249223470688,  0.08014107495546341,  0.15483476221561432,
        -0.07285048067569733,  0.07733264565467834,  -0.04852750524878502,
        -0.07300107926130295,  0.040455371141433716, -0.009000292979180813,
        -0.06083308160305023,  0.12159452587366104,  -0.09492500126361847,
        0.39394712448120117,   0.32192015647888184,  -0.10266724973917007,
        0.2505681812763214,    -0.1909714639186859,  0.15317589044570923,
        -0.22581890225410461,  -0.08154813200235367, 0.013363766483962536,
        0.03583073616027832,   0.07680126279592514,  -0.23081432282924652,
        0.22198663651943207,   -0.1171288788318634,  0.21488873660564423,
        -0.11988960206508636,  0.03415956348180771,  0.19445067644119263,
        -0.020337428897619247, -0.00475429929792881, 0.2586002051830292,
        0.06547883152961731,   -0.2362450510263443,  0.021142451092600822,
        -0.0628051906824112,   0.24641837179660797,  -0.13543447852134705,
        -0.20250290632247925,
    },
    {
        -0.16778360307216644, -0.3271218538284302,   0.03903219476342201,
        0.25590983033180237,  -0.12803763151168823,  0.268913596868515,
        0.21896949410438538,  -0.06789598613977432,  0.19122138619422913,
        0.04284727945923805,  0.09791978448629379,   0.0757385641336441,
        0.06303233653306961,  -0.02525894157588482,  -0.123440220952034,
        0.29361048340797424,  -0.17992794513702393,  0.049798931926488876,
        0.10830071568489075,  0.04927266389131546,   0.07639680802822113,
        0.15156321227550507,  0.24001866579055786,   -0.07492457330226898,
        -0.16252487897872925, -0.07066347450017929,  0.08482358604669571,
        0.24854925274848938,  -0.19546237587928772,  0.14826850593090057,
        -0.15674836933612823, -0.09191996604204178,  0.056319016963243484,
        0.10248986631631851,  -0.026916710659861565, -0.24306710064411163,
        -0.13077101111412048, -0.0977693647146225,   0.046325962990522385,
        0.006548619829118252, 0.06433273106813431,   -0.06111455708742142,
        -0.1375173181295395,  -0.14663377404212952,  -0.06240937113761902,
        -0.31179162859916687, 0.08456818759441376,   -0.03750921040773392,
        0.2903924882411957,   0.04251301288604736,   -0.03927752003073692,
        0.07930375635623932,  0.2582184374332428,    -0.5068501830101013,
        0.03798297420144081,  0.23221717774868011,   0.2920474708080292,
        -0.31259679794311523, -0.057352326810359955, 0.12434304505586624,
        -0.01376174297183752, -0.05894344300031662,  0.14485368132591248,
        -0.11120586842298508,
    },
    {
        -0.006375093013048172, -0.05766582861542702, 0.1618105173110962,
        -0.09318473935127258,  -0.06428346782922745, 0.12582851946353912,
        0.08018317818641663,   -0.14239560067653656, -0.011625329032540321,
        -0.15247756242752075,  0.0977664664387703,   -0.10781960934400558,
        0.0841340646147728,    0.10308666527271271,  -0.04976095259189606,
        0.1439332216978073,    0.14260533452033997,  -0.05450224131345749,
        -0.13606373965740204,  -0.10376547276973724, -0.10286246240139008,
        0.1345973014831543,    0.08027944713830948,  -0.13242511451244354,
        0.12181401997804642,   -0.07310573011636734, -0.06907446682453156,
        -0.05463365837931633,  0.05291236191987991,  0.05541076883673668,
        -0.1783825308084488,   -0.0957246944308281,  0.07280868291854858,
        -0.13173608481884003,  0.03739830106496811,  -0.01810755580663681,
        -0.13886336982250214,  0.06501482427120209,  0.06133432313799858,
        0.10698933154344559,   -0.1498895138502121,  0.05823087319731712,
        0.15282778441905975,   -0.13952092826366425, -0.15437324345111847,
        -0.1140064224600792,   -0.09631553292274475, -0.13976618647575378,
        0.023188278079032898,  0.08789221942424774,  0.1330551952123642,
        0.06740336865186691,   -0.03185608610510826, -0.10923807322978973,
        -0.1547650843858719,   0.03504315763711929,  0.09073511511087418,
        0.020045362412929535,  -0.05640783533453941, 0.03820719197392464,
        0.10328380763530731,   -0.03454422578215599, 0.10908319056034088,
        0.04545736312866211,
    },
    {
        0.03399119898676872,   0.08994582295417786,   -0.11198703199625015,
        -0.06856431066989899,  -0.1261945366859436,   0.10664351284503937,
        0.03766484558582306,   0.010333654470741749,  -0.054002270102500916,
        0.06990299373865128,   -0.07093068212270737,  -0.14732809364795685,
        -0.03951498866081238,  0.1609199494123459,    -0.01432231068611145,
        0.02972985804080963,   -0.14859111607074738,  -0.03718338906764984,
        0.09594948589801788,   0.016316456720232964,  0.09791012853384018,
        0.0782693475484848,    -0.09931346774101257,  -0.0652255043387413,
        -0.11130795627832413,  0.08549878746271133,   0.14567844569683075,
        -0.02241978980600834,  0.03750864788889885,   -0.1036892980337143,
        0.013004491105675697,  -0.07839011400938034,  -0.03761047124862671,
        0.06168815866112709,   0.09609058499336243,   -0.04795163869857788,
        0.018883442506194115,  0.108486108481884,     -0.1493174284696579,
        -0.010417885147035122, 0.0004466228710953146, 0.07149572670459747,
        0.12205083668231964,   0.1611500382423401,    -0.13258403539657593,
        0.17070026695728302,   -0.06758762896060944,  0.10568833351135254,
        -0.1184140294790268,   0.05595143139362335,   -0.094405896961689,
        0.11024694889783859,   -0.10412169247865677,  0.018632398918271065,
        0.11888845264911652,   -0.03513074293732643,  0.13681328296661377,
        -0.042424436658620834, 0.0794295072555542,    -0.1246681734919548,
        -0.022076517343521118, 0.06913507729768753,   0.14005877077579498,
        -0.11172463744878769,
    },
    {
        -0.033614177256822586,  -0.011528429575264454, 0.1342587172985077,
        0.1482759565114975,     0.14999599754810333,   -0.0009669239516369998,
        -0.06572653353214264,   0.1261756718158722,    -0.06561596691608429,
        0.17639297246932983,    -0.11856381595134735,  -0.01633274368941784,
        0.2248494178056717,     -0.027841055765748024, 0.21805259585380554,
        -0.06455004960298538,   0.031236542388796806,  -0.1229805052280426,
        -0.05336042121052742,   0.09624554961919785,   0.27235519886016846,
        -0.0656513050198555,    -0.17653599381446838,  -0.1413300484418869,
        0.2071351855993271,     -0.20877598226070404,  -0.03536021709442139,
        0.10074207931756973,    0.09366733580827713,   0.077834352850914,
        0.05416302755475044,    0.2779824435710907,    0.26399898529052734,
        -0.0036635028664022684, -0.17217327654361725,  -0.052405230700969696,
        -0.22470638155937195,   0.009463392198085785,  -0.0656755194067955,
        -0.1500604748725891,    -0.03048952855169773,  0.08793149888515472,
        0.11295219510793686,    0.15522490441799164,   -0.07907197624444962,
        0.11548945307731628,    0.0451643168926239,    0.0021724493708461523,
        0.04542595520615578,    0.16159497201442719,   0.0386795774102211,
        0.0076378402300179005,  0.07358796149492264,   -0.1467272937297821,
        -0.12094026803970337,   -0.03427471965551376,  -0.16494378447532654,
        0.26468542218208313,    0.17051969468593597,   -0.04617859050631523,
        -0.0196846816688776,    0.2703050971031189,    0.09603060036897659,
        0.05066164210438728,
    },
    {
        0.006184519734233618,  0.1330757737159729,    -0.20617952942848206,
        -0.25628963112831116,  -0.0621333122253418,   -0.09536492824554443,
        -0.057308927178382874, 0.2255980670452118,    0.09327468276023865,
        0.16864846646785736,   0.24570898711681366,   -0.01543036475777626,
        -0.07372193038463593,  0.09659498184919357,   -0.12983585894107819,
        -0.11301667988300323,  -0.09872575849294662,  -0.055083125829696655,
        0.25746703147888184,   0.09754683077335358,   0.10085397958755493,
        0.0026965830475091934, -0.008032331243157387, -0.0745520368218422,
        0.2438306361436844,    0.15189607441425323,   0.14709526300430298,
        -0.05415796861052513,  0.15165705978870392,   0.12705649435520172,
        -0.2666986882686615,   -0.16520294547080994,  -0.011156975291669369,
        0.22706159949302673,   -0.07286439090967178,  0.18536654114723206,
        0.30158379673957825,   -0.07662463933229446,  -0.0015224384842440486,
        0.13281813263893127,   -0.041799768805503845, 0.08564674109220505,
        0.034861139953136444,  -0.0940491333603859,   -0.009653291665017605,
        -0.03867415711283684,  0.11794300377368927,   -0.21090978384017944,
        0.07398835569620132,   -0.10520344972610474,  0.027543513104319572,
        0.08375200629234314,   -0.06537573784589767,  -0.16647420823574066,
        0.05567147210240364,   -0.12045460194349289,  0.035682644695043564,
        -0.16393882036209106,  0.08284400403499603,   0.0282510444521904,
        0.008043902926146984,  0.08459523320198059,   0.12703217566013336,
        0.004855705425143242,
    },
    {
        0.1419941782951355,     0.32268476486206055,   -0.3444685637950897,
        -0.13132327795028687,   -0.2677990198135376,   -0.33520665764808655,
        -0.0015897346893325448, -0.04617533087730408,  0.23609191179275513,
        -0.007266375236213207,  0.0010982468957081437, 0.23198068141937256,
        0.19723621010780334,    -0.04571208357810974,  0.0028275547083467245,
        0.08832059055566788,    -0.04827582836151123,  0.01958603225648403,
        0.18875516951084137,    0.14991562068462372,   0.35277828574180603,
        -0.025038745254278183,  -0.34275585412979126,  0.20098580420017242,
        0.2729642391204834,     0.14202935993671417,   -0.061432838439941406,
        -0.26250824332237244,   -0.2923312187194824,   -0.2118164598941803,
        0.18251371383666992,    -0.24206510186195374,  0.2525884807109833,
        -0.2477159947156906,    0.12256287038326263,   0.1679040938615799,
        0.04652752727270126,    0.08108819276094437,   0.27119526267051697,
        0.11850517243146896,    0.11863751709461212,   -0.2571282386779785,
        0.22537633776664734,    0.44193974137306213,   0.14603087306022644,
        0.2418348342180252,     0.018061622977256775,  -0.03397996351122856,
        -0.3879680633544922,    0.23988835513591766,   0.11642071604728699,
        -0.09632493555545807,   -0.2771700918674469,   0.24235384166240692,
        -0.15166719257831573,   0.04594923555850983,   -0.05613813176751137,
        0.023063410073518753,   0.05911636725068092,   -0.30535921454429626,
        -0.23454736173152924,   0.013925476931035519,  0.06683706492185593,
        -0.15413115918636322,
    },
    {
        -0.013409769162535667, 0.03218744322657585,   0.09022030234336853,
        -0.005610888823866844, -0.048455797135829926, -0.061413515359163284,
        0.11494790762662888,   0.09944626688957214,   0.012794368900358677,
        -0.10697370022535324,  0.04395622760057449,   -0.012347212992608547,
        -0.1071181520819664,   -0.13143081963062286,  0.07810027152299881,
        -0.03408946096897125,  0.051575347781181335,  0.07790778577327728,
        0.012608441524207592,  0.043515466153621674,  -0.10426527261734009,
        0.11208228766918182,   0.023516498506069183,  -0.13090433180332184,
        -0.11814062297344208,  -0.08016911149024963,  0.06060835346579552,
        -0.05332832410931587,  0.09809137135744095,   0.007266115862876177,
        -0.09893631190061569,  0.03933030366897583,   0.11295806616544724,
        0.051372889429330826,  -0.1602100431919098,   -0.0560799241065979,
        0.0099182715639472,    0.0519876554608345,    0.1284758597612381,
        -0.10981959849596024,  0.048002488911151886,  0.06136539578437805,
        0.14292000234127045,   0.006504271179437637,  -0.03203931450843811,
        -0.14377857744693756,  -0.12891627848148346,  0.04495520144701004,
        0.07818653434515,      -0.10123620182275772,  0.08089891076087952,
        0.09396183490753174,   -0.03664066642522812,  0.13219986855983734,
        0.06150287389755249,   -0.1350296139717102,   -0.07042190432548523,
        -0.14400774240493774,  0.08322314918041229,   0.06844870746135712,
        0.02361138164997101,   0.02030067704617977,   0.08030011504888535,
        -0.14656342566013336,
    },
    {
        0.06079854071140289,   0.4352726936340332,     -0.046169959008693695,
        0.06573566794395447,   0.1714177131652832,     -0.14752814173698425,
        -0.11578948050737381,  -0.10063418000936508,   -0.3167937994003296,
        -0.13926196098327637,  0.08768346160650253,    0.18590980768203735,
        0.2087763547897339,    -0.18560807406902313,   0.06427977979183197,
        -0.03643108159303665,  -0.06738365441560745,   0.008410321548581123,
        0.005213696043938398,  0.24621422588825226,    0.0077115632593631744,
        0.006188448052853346,  -0.13064435124397278,   0.05810870602726936,
        0.09337873011827469,   0.13606896996498108,    -0.07780424505472183,
        0.052238576114177704,  -0.027745621278882027,  0.013307811692357063,
        0.059180255979299545,  -0.10867433995008469,   -0.1085091158747673,
        -0.1018916517496109,   0.17167255282402039,    -0.07493951171636581,
        0.0979117602109909,    0.10391252487897873,    0.10824795812368393,
        -0.15202809870243073,  0.41070497035980225,    -0.0061503686010837555,
        0.3018573224544525,    0.16519170999526978,    0.008364579640328884,
        -0.2143298238515854,   0.0893893763422966,     -0.08025695383548737,
        0.06813052296638489,   0.3274059295654297,     0.30156251788139343,
        0.11752830445766449,   -0.10415597259998322,   -0.09622518718242645,
        0.015297752805054188,  -0.020696120336651802,  0.1200452446937561,
        -0.19509385526180267,  0.21630991995334625,    0.053015030920505524,
        -0.16131798923015594,  -0.0008428559522144496, 0.08551782369613647,
        -0.009748194366693497,
    },
    {
        -0.0449850969016552,   -0.22776050865650177, -0.051422566175460815,
        0.30988743901252747,   -0.24504782259464264, -0.046716053038835526,
        0.4037732481956482,    0.16019651293754578,  -0.08863510191440582,
        0.04956338182091713,   -0.1154596135020256,  -0.2808593809604645,
        0.07072483748197556,   -0.1442144513130188,  -0.37495556473731995,
        0.2558777928352356,    -0.15206702053546906, -0.08708274364471436,
        0.27844658493995667,   0.14562448859214783,  -0.012348958291113377,
        -0.0652410015463829,   0.1308773010969162,   0.11966200917959213,
        -0.27960819005966187,  0.13359050452709198,  0.19496993720531464,
        -0.003875299356877804, 0.06938294321298599,  -0.09682472050189972,
        0.1982206553220749,    -0.1835152953863144,  0.23983518779277802,
        -0.2104988396167755,   0.21971559524536133,  -0.27796241641044617,
        0.09555076062679291,   0.05984724313020706,  0.257268488407135,
        -0.18431097269058228,  -0.05639481544494629, 0.04384058713912964,
        -0.11410222202539444,  -0.1735556423664093,  -0.06485307961702347,
        -0.17993135750293732,  -0.05397873744368553, 0.34186241030693054,
        -0.10099789500236511,  0.06102510169148445,  0.10801228135824203,
        -0.17548249661922455,  0.15121206641197205,  -0.006049687508493662,
        -0.11316259950399399,  0.08662472665309906,  -0.10440635681152344,
        -0.08562122285366058,  0.09351964294910431,  0.42919519543647766,
        -0.026993809267878532, -0.25506898760795593, -0.0018992869881913066,
        -0.09353072196245193,
    },
    {
        0.15408286452293396,   0.11956849694252014,   0.026585374027490616,
        0.04255754128098488,   0.13765689730644226,   -0.13110172748565674,
        0.021023854613304138,  0.14772295951843262,   0.043441224843263626,
        -0.2752293050289154,   0.24851445853710175,   -0.04816826805472374,
        0.32165586948394775,   -0.06374435871839523,  -0.3669816255569458,
        -0.10147478431463242,  -0.09766431152820587,  -0.10980212688446045,
        0.3749030530452728,    -0.09545423090457916,  0.22436808049678802,
        0.26611563563346863,   -0.37812066078186035,  0.12678414583206177,
        0.3927052319049835,    0.24363936483860016,   -0.16453322768211365,
        -0.06283485889434814,  -0.07078411430120468,  -0.354370653629303,
        0.11555901169776917,   0.23044341802597046,   -0.08988983929157257,
        -0.24640701711177826,  -0.154851496219635,    0.22008027136325836,
        -0.02719198539853096,  -0.048627812415361404, 0.02491844817996025,
        0.22846809029579163,   0.12449254840612411,   0.036577992141246796,
        -0.04977959021925926,  0.24506103992462158,   -0.06892528384923935,
        -0.012626568786799908, 0.26500481367111206,   -0.13476207852363586,
        0.06873881071805954,   0.01794356293976307,   0.19079889357089996,
        -0.1208413764834404,   -0.16051439940929413,  -0.4229491651058197,
        0.018257567659020424,  0.011645323596894741,  -0.20377536118030548,
        -0.09081385284662247,  -0.06664068251848221,  -0.005586154758930206,
        -0.06784502416849136,  0.23125380277633667,   0.2814459800720215,
        -0.19207093119621277,
    },
    {
        -0.07948216050863266,  -0.08476538956165314,  -0.03866223245859146,
        0.31512272357940674,   0.22274693846702576,   -0.1073990911245346,
        0.1511458456516266,    0.10903074592351913,   0.07116775214672089,
        0.04016292095184326,   0.021663175895810127,  -0.3033265471458435,
        0.3378324508666992,    -0.02998332493007183,  -0.0730491355061531,
        0.35195794701576233,   -0.014426376670598984, 0.04396969452500343,
        -0.12179499864578247,  0.0868540033698082,    -0.08596036583185196,
        -0.04529961571097374,  0.2622818946838379,    -0.013891433365643024,
        0.004453692585229874,  0.19432920217514038,   0.0746258944272995,
        0.024297064170241356,  0.3295612335205078,    0.027587004005908966,
        0.18421144783496857,   0.06620379537343979,   0.06535745412111282,
        -0.10877972096204758,  0.08926860988140106,   0.006344199646264315,
        0.06584248691797256,   0.10321026295423508,   0.09238370507955551,
        -0.28225022554397583,  0.16064196825027466,   0.19616541266441345,
        0.061292342841625214,  -0.2262077033519745,   0.23508137464523315,
        -0.1226835772395134,   -0.04210702329874039,  0.09230100363492966,
        -0.008718462660908699, 0.07276400178670883,   0.11346618086099625,
        0.106904037296772,     -0.09719853103160858,  0.18360242247581482,
        0.0650545284152031,    0.058731649070978165,  0.07193147391080856,
        0.20415140688419342,   -0.1143617108464241,   0.05158155784010887,
        0.10223034769296646,   -0.019817199558019638, -0.03654107823967934,
        -0.04603831470012665,
    },
    {
        0.14896826446056366,   0.16326934099197388,   -0.09363821893930435,
        0.24593612551689148,   0.033520448952913284,  0.057391680777072906,
        0.11961909383535385,   0.06888610869646072,   0.0748232901096344,
        0.14410951733589172,   -0.01624717377126217,  0.07921717315912247,
        0.3053267002105713,    -0.19625939428806305,  -0.12707476317882538,
        -0.01611502841114998,  0.03982505574822426,   -0.030656205490231514,
        -0.1828809380531311,   0.15079380571842194,   -0.14151552319526672,
        0.26048406958580017,   0.22427189350128174,   0.030042942613363266,
        0.019448844715952873,  0.19895002245903015,   -0.1556238979101181,
        -0.0380890890955925,   0.03466857969760895,   -0.14747998118400574,
        -0.006566060706973076, 0.04016633704304695,   0.01682380773127079,
        0.007441523484885693,  0.2677830457687378,    -0.043053850531578064,
        0.009649716317653656,  0.18547043204307556,   0.027631843462586403,
        0.020785169675946236,  0.23150604963302612,   -0.08701319247484207,
        0.04583462327718735,   0.118655726313591,     -0.2980158030986786,
        -0.12633860111236572,  0.042187176644802094,  0.1409822553396225,
        -0.03714806213974953,  0.07140129804611206,   0.12864325940608978,
        0.004346166271716356,  -0.026596885174512863, 0.18582826852798462,
        -0.11232621222734451,  0.26305389404296875,   -0.024367153644561768,
        0.20169489085674286,   0.10074608027935028,   0.08866807073354721,
        -0.16551168262958527,  -0.1591997593641281,   0.11624947935342789,
        -0.21881398558616638,
    },
    {
        0.13933949172496796,   -0.112199567258358,   -0.21789239346981049,
        -0.2267448753118515,   0.017900500446558,    0.0012020972790196538,
        -0.22006957232952118,  0.027878211811184883, -0.07026579976081848,
        -0.09215189516544342,  0.43610405921936035,  0.4644302427768707,
        -0.06882267445325851,  -0.1451384425163269,  0.3010281026363373,
        -0.21360956132411957,  0.08753760904073715,  -0.06312724202871323,
        -0.12206429988145828,  0.01165750902146101,  -0.04806255176663399,
        -0.08325368165969849,  0.10260003805160522,  -0.35419586300849915,
        -0.08554356545209885,  0.10496919602155685,  0.14870817959308624,
        -0.17953887581825256,  0.060396697372198105, -0.0022420119494199753,
        0.056754887104034424,  -0.06247387081384659, -0.19121213257312775,
        0.25961869955062866,   -0.26275625824928284, -0.21625357866287231,
        0.19002433121204376,   0.08406497538089752,  0.046989791095256805,
        0.4688287079334259,    -0.22254616022109985, -0.25939205288887024,
        -0.09409607201814651,  0.22778648138046265,  0.3074824810028076,
        -0.2764821946620941,   -0.2542944848537445,  -0.17451822757720947,
        -0.12203092873096466,  -0.14772404730319977, -0.03258388862013817,
        0.13083802163600922,   -0.19517558813095093, -0.04335835576057434,
        -0.0824226513504982,   -0.06366707384586334, 0.20946764945983887,
        -0.2255069613456726,   -0.31600844860076904, -0.3354127109050751,
        -0.046601299196481705, 0.07096883654594421,  -0.19528928399085999,
        0.08294247835874557,
    },
    {
        0.010746518149971962,  -0.14887072145938873,  -0.23389236629009247,
        0.18662475049495697,   0.017609840258955956,  0.045283589512109756,
        0.06133869290351868,   0.06677737832069397,   -0.1443372368812561,
        -0.04066583514213562,  -0.1222977563738823,   -0.20129352807998657,
        -0.35006779432296753,  -0.08383435755968094,  0.027861302718520164,
        -0.1321631819009781,   0.035863298922777176,  -0.04679188132286072,
        0.24188131093978882,   -0.11036866158246994,  -0.24416948854923248,
        0.0637691468000412,    -0.27840811014175415,  0.058292828500270844,
        0.031246380880475044,  0.27535954117774963,   0.3606996238231659,
        -0.20041483640670776,  -0.1870129555463791,   -0.023017916828393936,
        -0.08694817870855331,  -0.18729263544082642,  0.3091893792152405,
        0.18296633660793304,   0.09750942140817642,   -0.07247291505336761,
        0.12507180869579315,   0.1331453025341034,    0.08525675535202026,
        -0.18844081461429596,  -0.21007299423217773,  0.1947617381811142,
        -0.07485827803611755,  0.0730610117316246,    -0.10393650084733963,
        0.08192241191864014,   0.07671011984348297,   0.1935991793870926,
        -0.058253005146980286, -0.502495527267456,    0.164854034781456,
        -0.2736007869243622,   -0.0117974067106843,   -0.18798241019248962,
        -0.1672678142786026,   -0.027616359293460846, -0.036309245973825455,
        0.08585479110479355,   0.1752060204744339,    0.1149245873093605,
        -0.1136195957660675,   0.24471279978752136,   0.26643508672714233,
        -0.09745357185602188,
    },
    {
        -0.05590377748012543,  0.08761315047740936,   -0.08374371379613876,
        -0.3130103349685669,   -0.18964776396751404,  0.10829275846481323,
        0.018117807805538177,  -0.05048055201768875,  -0.2219013124704361,
        -0.23703879117965698,  0.24866797029972076,   -0.13115735352039337,
        -0.32855457067489624,  -0.17286348342895508,  0.1330212950706482,
        0.12929990887641907,   -0.17430278658866882,  -0.13815246522426605,
        0.1971864104270935,    0.37063008546829224,   -0.15990301966667175,
        0.03168952837586403,   -0.3158145844936371,   0.023684775456786156,
        0.0816553384065628,    0.06375254690647125,   -0.14568020403385162,
        -0.17461727559566498,  -0.22447344660758972,  0.10847663134336472,
        0.2705221176147461,    -0.010819002985954285, 0.2729472517967224,
        -0.1933341771364212,   0.2293642908334732,    -0.20554488897323608,
        -0.0830315425992012,   0.25738927721977234,   -0.17138800024986267,
        0.15694859623908997,   -0.0993654876947403,   -0.0033698442857712507,
        0.0017730973195284605, -0.09335308521986008,  -0.05995463207364082,
        0.017359387129545212,  0.05000593885779381,   0.018795674666762352,
        0.1278071105480194,    0.012105949223041534,  0.223366841673851,
        -0.1326419860124588,   -0.045043375343084335, 0.1499587893486023,
        -0.10792388021945953,  0.1264602392911911,    -0.021662352606654167,
        0.05365821346640587,   0.36358842253685,      0.10105008631944656,
        0.08725116401910782,   0.13394872844219208,   0.0763716921210289,
        -0.16808126866817474,
    },
    {
        -0.004464597906917334, -0.1540733128786087,   -0.14392434060573578,
        0.02340059168636799,   -0.0725710466504097,   -0.08141280710697174,
        -0.11209084838628769,  0.1650526225566864,    -0.05949229747056961,
        0.016943372786045074,  -0.17182697355747223,  0.0639495998620987,
        0.15588386356830597,   -0.013520032167434692, 0.048729442059993744,
        -0.08214963227510452,  0.13890857994556427,   -0.09421152621507645,
        -0.05342642590403557,  0.16540752351284027,   0.05482251197099686,
        -0.08713089674711227,  0.05600662901997566,   -0.004034528974443674,
        0.10094863176345825,   0.08449982106685638,   0.008830738253891468,
        0.1129065677523613,    0.013439117930829525,  0.06502944976091385,
        -0.14441846311092377,  -0.006236133631318808, 0.09332381188869476,
        0.06682796031236649,   0.15794843435287476,   0.11260224878787994,
        0.13033677637577057,   0.12532852590084076,   0.15864865481853485,
        -0.11738456785678864,  0.014140098355710506,  0.1563490778207779,
        0.04871240258216858,   0.14804796874523163,   -0.10462748259305954,
        -0.039824679493904114, 0.13148528337478638,   0.051946528255939484,
        -0.14843964576721191,  -0.11319267749786377,  -0.11203420162200928,
        -0.10910963267087936,  0.1670837253332138,    0.08558936417102814,
        0.019986584782600403,  -0.03413533419370651,  -0.09709863364696503,
        0.06675004214048386,   0.1416303962469101,    -0.1527615338563919,
        0.010102644562721252,  -0.1318417191505432,   -0.04132581129670143,
        -0.029317006468772888,
    },
    {
        0.053446706384420395,    0.07381077110767365,    0.021924462169408798,
        -0.05153163522481918,    -0.059628989547491074,  -0.06241700053215027,
        0.01143565122038126,     0.044369474053382874,   -0.12066307663917542,
        -0.03797615319490433,    -0.024487022310495377,  -0.06847058236598969,
        0.1552795171737671,      -0.14483430981636047,   0.005008019041270018,
        -0.00018781956168822944, 0.166580930352211,      -0.11267129331827164,
        0.06923616677522659,     -0.011097454465925694,  -0.13591888546943665,
        0.055328235030174255,    0.014981087297201157,   -0.17598479986190796,
        0.15320885181427002,     -0.026517048478126526,  0.16892139613628387,
        0.1011265367269516,      -0.0003656793851405382, -0.07288571447134018,
        0.06787829846143723,     0.03233269974589348,    -0.07882444560527802,
        0.051818910986185074,    -0.008119494654238224,  0.08388764411211014,
        0.013070964254438877,    0.20532409846782684,    -0.019634276628494263,
        0.19347478449344635,     -0.013904516585171223,  0.0922379270195961,
        0.07990969717502594,     -0.14366209506988525,   0.025242507457733154,
        -0.1358794867992401,     0.02073582261800766,    -0.07566966116428375,
        -0.07697751373052597,    -0.023194141685962677,  -0.05597275495529175,
        -0.1416495144367218,     0.10742705315351486,    -0.17460550367832184,
        -0.17213919758796692,    -0.06206493824720383,   -0.07206309586763382,
        0.02787126787006855,     0.08294122666120529,    -0.13325847685337067,
        0.08327265083789825,     -0.1236351728439331,    0.030996959656476974,
        0.08142997324466705,
    },
    {
        0.133494034409523,     -0.2652812600135803,   -0.09955239295959473,
        -0.12236011028289795,  0.048572931438684464,  0.10161054134368896,
        -0.02832651697099209,  -0.11153261363506317,  0.03703168407082558,
        0.20202083885669708,   0.13452589511871338,   -0.09254686534404755,
        -0.057855576276779175, -0.15298792719841003,  0.11400023102760315,
        0.14158888161182404,   0.1316736489534378,    -0.07776190340518951,
        -0.016460690647363663, 0.16440175473690033,   0.20151855051517487,
        -0.01005837507545948,  -0.1024685874581337,   0.1702575385570526,
        0.041502345353364944,  -0.09368310123682022,  -0.009992665611207485,
        -0.1102457270026207,   -0.010377242229878902, 0.07327191531658173,
        0.08888036012649536,   -0.02322116680443287,  0.30578044056892395,
        0.06284443289041519,   0.052558884024620056,  -0.38295915722846985,
        -0.07774060219526291,  -0.18971453607082367,  -0.08042605221271515,
        -0.09944543242454529,  0.1011894941329956,    -0.09254125505685806,
        -0.1979251205921173,   -0.045751411467790604, -0.3111579716205597,
        0.15208971500396729,   -0.264724463224411,    -0.04260287061333656,
        -0.15683229267597198,  -0.18192872405052185,  -0.08444364368915558,
        -0.06389540433883667,  -0.1373281627893448,   -0.08713777363300323,
        -0.050213489681482315, 0.11409608274698257,   -0.12183865159749985,
        0.11785324662923813,   0.062045808881521225,  0.23291349411010742,
        -0.19998078048229218,  0.0953204557299614,    -0.29633817076683044,
        -0.0986393615603447,
    },
    {
        -0.1398637741804123,   -0.2177896350622177,  -0.33853083848953247,
        -0.06434860080480576,  -0.09484762698411942, 0.18663492798805237,
        0.017580077052116394,  -0.03756975755095482, -0.024852169677615166,
        -0.27326735854148865,  0.4555129110813141,   0.3118266761302948,
        -0.19921156764030457,  -0.19194717705249786, -0.28851577639579773,
        0.31731724739074707,   -0.1575545221567154,  0.08589878678321838,
        0.04360572621226311,   0.2081827074289322,   0.33427566289901733,
        0.2084600031375885,    0.11688640713691711,  0.20510075986385345,
        0.1783418357372284,    -0.10318752378225327, -0.08205291628837585,
        -0.22599436342716217,  -0.1923622190952301,  -0.027828926220536232,
        0.057322800159454346,  0.12201689183712006,  -0.23023809492588043,
        -0.16040614247322083,  0.18560869991779327,  0.1312107890844345,
        0.0679858848452568,    0.43183010816574097,  -0.28186145424842834,
        -0.014387802220880985, 0.012096920050680637, -0.10985413938760757,
        -0.05737205967307091,  0.3102196156978607,   -0.07395905256271362,
        -0.16247718036174774,  0.204810231924057,    0.20124119520187378,
        0.11932492256164551,   0.13277195394039154,  0.4554092586040497,
        0.01798449084162712,   0.047567762434482574, 0.06735996901988983,
        -0.07495376467704773,  0.24342815577983856,  0.09269267320632935,
        -0.07227309793233871,  0.3676888346672058,   0.050867993384599686,
        -0.009464888833463192, -0.2624175250530243,  0.40309542417526245,
        -0.2781534194946289,
    },
    {
        0.40500035881996155,  0.16364416480064392,  -0.22648730874061584,
        0.009596559219062328, -0.2294882833957672,  -0.24517472088336945,
        -0.22398345172405243, 0.36752381920814514,  0.3147379755973816,
        0.1386357843875885,   0.2118874341249466,   0.34189122915267944,
        0.290966272354126,    0.12443748116493225,  -0.2920788526535034,
        -0.2662568986415863,  0.012914364226162434, -0.07685939967632294,
        -0.12792280316352844, 0.2601012885570526,   0.17461147904396057,
        0.053470492362976074, -0.173253133893013,   0.15547119081020355,
        0.3916093409061432,   0.39336609840393066,  0.16233988106250763,
        -0.16874010860919952, -0.08242962509393692, -0.20224745571613312,
        -0.08933627605438232, -0.3034321069717407,  0.36786794662475586,
        0.051851119846105576, 0.37238484621047974,  0.1113482415676117,
        0.3265515863895416,   -0.4233352541923523,  -0.04576284438371658,
        0.10373727977275848,  -0.20208688080310822, 0.0791156068444252,
        0.15903934836387634,  0.34003716707229614,  0.18852387368679047,
        -0.10659279674291611, 0.2033470869064331,   -0.08096018433570862,
        -0.26726973056793213, -0.10956930369138718, 0.07978343218564987,
        0.05745998024940491,  0.01573883555829525,  0.022535864263772964,
        0.10099833458662033,  -0.1391972005367279,  0.0008075584773905575,
        0.20017088949680328,  0.11982046812772751,  -0.16097277402877808,
        -0.2459074854850769,  0.134563609957695,    -0.0636155903339386,
        0.015906352549791336,
    },
    {
        -0.11338149011135101,  -0.2028004676103592,   -0.14603792130947113,
        -0.012097440659999847, 0.07953815907239914,   0.180933877825737,
        0.14848414063453674,   0.12810169160366058,   -0.13760201632976532,
        0.2187262773513794,    0.1486203670501709,    0.042783260345458984,
        -0.04781743884086609,  0.0230389554053545,    0.2737906575202942,
        -0.16416342556476593,  0.07619399577379227,   -0.1557770073413849,
        0.0038655293174088,    -0.20951808989048004,  -0.030834894627332687,
        0.20721513032913208,   -0.09861824661493301,  0.1053437739610672,
        0.1483544111251831,    -0.09138265997171402,  0.21856357157230377,
        0.2795836627483368,    -0.10129512846469879,  0.005074911285191774,
        -0.27744394540786743,  -0.013873363845050335, 0.2858843505382538,
        0.2447565495967865,    0.17357392609119415,   0.06775274872779846,
        -0.017446568235754967, -0.10310938209295273,  -0.026506058871746063,
        0.2460310310125351,    -0.14644931256771088,  -0.15506380796432495,
        0.07797294110059738,   -0.10654100030660629,  -0.03171307593584061,
        -0.19573618471622467,  -0.11440745741128922,  0.14165011048316956,
        0.016944626346230507,  -0.17833226919174194,  0.1245434433221817,
        0.15092504024505615,   -0.05971372500061989,  0.1539362221956253,
        0.0029164778534322977, -0.09527287632226944,  0.16576555371284485,
        -0.09752342104911804,  0.06889724731445312,   -0.15012435615062714,
        -0.12096869945526123,  0.06434722244739532,   0.08608198910951614,
        -0.02566332370042801,
    },
    {
        0.20217975974082947,   0.08012287318706512,   0.17161373794078827,
        -0.2881735563278198,   -0.10082167387008667,  -0.3081541955471039,
        0.15072768926620483,   -0.032925084233284,    -0.1600630283355713,
        0.24064815044403076,   -0.015577657148241997, -0.057189375162124634,
        -0.2135130912065506,   0.0016439094906672835, -0.09191690385341644,
        -0.11118889600038528,  0.11039358377456665,   0.12318431586027145,
        0.035773828625679016,  -0.0635933205485344,   0.011136314831674099,
        -0.1620865911245346,   -0.045994166284799576, -0.26647379994392395,
        0.1920737773180008,    0.11937020719051361,   0.1251908242702484,
        0.3502315580844879,    0.31892865896224976,   0.1109568327665329,
        -0.19840651750564575,  0.014476669020950794,  0.32688382267951965,
        -0.10361218452453613,  0.08351049572229385,   -0.07913555204868317,
        0.15535850822925568,   -0.2587292790412903,   0.012772864662110806,
        0.19614091515541077,   0.2513526678085327,    -0.07635302096605301,
        -0.10723754018545151,  -0.036383531987667084, -0.02658875286579132,
        0.03481464833021164,   0.0524054616689682,    0.028254706412553787,
        0.11745991557836533,   0.05715078115463257,   0.10030840337276459,
        0.2233721762895584,    0.20663927495479584,   -0.22917582094669342,
        0.0702591985464096,    0.03810173645615578,   0.045323606580495834,
        -0.09641776233911514,  0.02541409432888031,   -0.016938624903559685,
        0.20014077425003052,   0.17097125947475433,   -0.2871226370334625,
        -0.005342843942344189,
    },
    {
        -0.1005701869726181,   0.048667918890714645, 0.060056451708078384,
        0.32551196217536926,   0.185934379696846,    0.21294379234313965,
        0.1527155339717865,    0.1394718587398529,   -0.026070572435855865,
        -0.09802459925413132,  0.09758760035037994,  0.044027578085660934,
        -0.059935033321380615, -0.08329152315855026, 0.1959749311208725,
        -0.01843162067234516,  -0.16034884750843048, -0.11190315335988998,
        0.0006363682332448661, -0.2651068866252899,  -0.1332666128873825,
        -0.12138424813747406,  -0.1327873170375824,  0.2969483435153961,
        -0.2409958839416504,   -0.19881939888000488, 0.10678590834140778,
        0.07932081073522568,   0.15300270915031433,  0.0792233794927597,
        0.11202515661716461,   0.06533171236515045,  -0.01866104081273079,
        0.1735033392906189,    0.1288144737482071,   -0.035882290452718735,
        -0.13429640233516693,  -0.01148991659283638, -0.12134452909231186,
        -0.19021658599376678,  -0.01947627030313015, 0.14498406648635864,
        -0.023753218352794647, 0.11565010994672775,  -0.06413384526968002,
        0.2237120121717453,    0.10916292667388916,  0.10771128535270691,
        -0.24766278266906738,  -0.2195185422897339,  0.05185487121343613,
        0.01104312390089035,   -0.03103438951075077, 0.11268645524978638,
        -0.21233446896076202,  -0.15695692598819733, 0.042944930493831635,
        0.06623142957687378,   0.1873406171798706,   -0.037599436938762665,
        -0.0296345092356205,   0.015191854909062386, 0.2496369183063507,
        -0.059167250990867615,
    },
    {
        0.21226799488067627,   0.108167365193367,    0.16534680128097534,
        0.008279222995042801,  0.13696356117725372,  -0.026117054745554924,
        -0.2531079947948456,   0.37742850184440613,  0.0880405381321907,
        0.2062135934829712,    -0.1708333045244217,  0.14436225593090057,
        -0.3056379556655884,   0.035880196839571,    0.07173783332109451,
        -0.3356882333755493,   0.03750567510724068,  -0.06756411492824554,
        0.0532200001180172,    -0.06940484046936035, -0.05548397824168205,
        0.011273382231593132,  0.0977870523929596,   -0.024127673357725143,
        0.0038708988577127457, -0.22903238236904144, 0.29246529936790466,
        0.3433994948863983,    -0.07247069478034973, 0.5115907788276672,
        -0.24963948130607605,  0.026985006406903267, -0.019332963973283768,
        0.26659515500068665,   -0.20314741134643555, 0.09445533156394958,
        -0.16691133379936218,  -0.10866263508796692, -0.12917080521583557,
        0.11588150262832642,   -0.21104015409946442, 0.057491663843393326,
        -0.1228397935628891,   0.10831271857023239,  -0.04235523194074631,
        -0.18838520348072052,  0.2605547606945038,   -0.15438240766525269,
        0.0658360943198204,    -0.19832779467105865, 0.1904810070991516,
        0.2144840955734253,    0.2727442681789398,   -0.31695249676704407,
        -0.026229679584503174, -0.160556361079216,   -0.049643125385046005,
        -0.27630990743637085,  -0.22296252846717834, -0.0798584446310997,
        -0.03209751844406128,  0.10515765100717545,  -0.223665252327919,
        -0.1677192598581314,
    },
    {
        0.0005941514391452074, -0.16795000433921814,  0.13511811196804047,
        -0.016628101468086243, -0.07989607751369476,  -0.03406147286295891,
        0.16071125864982605,   0.08588006347417831,   0.11725986003875732,
        -0.05820220708847046,  -0.01032252237200737,  -0.09617526084184647,
        -0.23351924121379852,  -0.1643151044845581,   -0.26401767134666443,
        0.3974084258079529,    -0.05757889151573181,  0.09706238657236099,
        0.222373828291893,     0.1913537085056305,    0.01036085281521082,
        -0.3433932363986969,   0.26019230484962463,   -0.19633924961090088,
        -0.18914435803890228,  -0.13147985935211182,  -0.0728149265050888,
        -0.24266260862350464,  -0.09677591174840927,  -0.03540177270770073,
        -0.08840937912464142,  0.00228487909771502,   -0.0702601820230484,
        -0.13747388124465942,  0.27997490763664246,   -0.7108906507492065,
        -0.3801220655441284,   0.07172292470932007,   -0.0658806636929512,
        -0.009558511897921562, -0.12113815546035767,  0.11733776330947876,
        -0.1618639975786209,   -0.007920486852526665, -0.14169515669345856,
        0.2519000768661499,    0.18161214888095856,   0.08903948962688446,
        -0.11026507616043091,  -0.052858129143714905, 0.16587446630001068,
        -0.009260912425816059, 0.11347001791000366,   0.024437561631202698,
        -0.13656720519065857,  0.3386325538158417,    0.19216583669185638,
        -0.18204985558986664,  0.10819125920534134,   0.026922693476080894,
        0.01604613848030567,   -0.1663859486579895,   -0.044568613171577454,
        -0.14799630641937256,
    },
    {
        0.15718014538288116,   0.08826148509979248,    -0.07246445119380951,
        0.30520302057266235,   -0.0012415769742801785, 0.033776964992284775,
        0.008949103765189648,  0.053463004529476166,   -0.006058465223759413,
        -0.07567930966615677,  0.2636586129665375,     -0.22161568701267242,
        0.12282232195138931,   -0.16415797173976898,   -0.11784316599369049,
        -0.13532721996307373,  -0.08108904957771301,   0.09479756653308868,
        -0.05720452964305878,  -0.0020097941160202026, 0.019428296014666557,
        0.2137768417596817,    -0.04184761270880699,   0.2553975284099579,
        -0.0338556244969368,   0.2203776091337204,     0.39838287234306335,
        0.06210298463702202,   0.0527128167450428,     -0.032884325832128525,
        -0.09302476793527603,  -0.19658388197422028,   0.3205641806125641,
        0.2555551826953888,    0.1008836030960083,     0.08869092166423798,
        0.17220230400562286,   -0.2640155255794525,    0.0064836828969419,
        -0.2791353166103363,   0.16804815828800201,    -0.13188309967517853,
        0.08380052447319031,   -0.009663550183176994,  0.0750807672739029,
        0.06372056901454926,   -0.010370324365794659,  0.19116944074630737,
        0.07000494003295898,   -0.0773405134677887,    0.028126144781708717,
        -0.002631167182698846, 0.009623302146792412,   -0.0961986556649208,
        -0.15318450331687927,  -0.09585142880678177,   0.04892778769135475,
        -0.062491241842508316, 0.016079284250736237,   0.1382370889186859,
        -0.1193368136882782,   -0.013137818314135075,  -0.05176710709929466,
        -0.07684848457574844,
    },
    {
        0.13565608859062195,    -0.20370417833328247,  -0.07382162660360336,
        -0.08577831089496613,   0.0295609962195158,    0.2183704376220703,
        0.20965804159641266,    0.1278427392244339,    0.0947088971734047,
        0.15198805928230286,    -0.038498010486364365, -0.2017175257205963,
        -0.09712468832731247,   0.12299514561891556,   0.09112173318862915,
        0.1318177580833435,     -0.013208209536969662, 0.10557027161121368,
        0.1423216611146927,     -0.018112530931830406, -0.007445984054356813,
        -0.10054506361484528,   0.08981168270111084,   0.06674239039421082,
        0.04198840633034706,    -0.20338593423366547,  -0.053346503525972366,
        -0.13904429972171783,   0.09647572040557861,   -0.1002597063779831,
        0.03724246472120285,    0.062465254217386246,  0.15196694433689117,
        0.03341694176197052,    -0.12116330862045288,  -0.052466996014118195,
        -0.12852820754051208,   0.17662310600280762,   -0.318806529045105,
        0.14131200313568115,    -0.10327775031328201,  -0.017951341345906258,
        -0.07961573451757431,   -0.03320605680346489,  0.09566263854503632,
        0.23046398162841797,    0.0699889063835144,    -0.10884520411491394,
        0.05902893841266632,    -0.0597294345498085,   -0.1553957611322403,
        0.05773705616593361,    0.1169765293598175,    0.0762152150273323,
        -0.0075938086956739426, 0.13481159508228302,   0.17843163013458252,
        0.22264690697193146,    -0.010771931149065495, 0.054108183830976486,
        0.17433108389377594,    -0.15523573756217957,  -0.033009856939315796,
        0.025135628879070282,
    },
    {
        0.28336283564567566,   0.06453616172075272,  0.06527148187160492,
        0.017538735643029213,  0.004130773711949587, -0.1705613136291504,
        -0.31969788670539856,  0.3041928708553314,   0.09651116281747818,
        0.19976776838302612,   -0.12906821072101593, 0.4959252178668976,
        0.03535286709666252,   -0.03222636878490448, -0.05766613408923149,
        -0.024824338033795357, 0.020484281703829765, -0.08584211766719818,
        -0.20104332268238068,  -0.357451468706131,   0.19701749086380005,
        0.29627472162246704,   0.06088707223534584,  -0.3123239576816559,
        0.12925298511981964,   0.20747999846935272,  -0.04073365777730942,
        -0.4540356993675232,   0.06494154781103134,  -0.16301050782203674,
        0.13661791384220123,   0.35574886202812195,  -0.20489034056663513,
        0.020376380532979965,  -0.44586801528930664, 0.5160562992095947,
        0.08304037153720856,   0.1660703420639038,   0.06750383228063583,
        0.18786367774009705,   -0.2505606710910797,  0.15589283406734467,
        -0.1833968609571457,   0.3003484904766083,   -0.06315179169178009,
        0.047641146928071976,  -0.12138835340738297, -0.19979383051395416,
        -0.46886077523231506,  0.07641041278839111,  -0.3861106038093567,
        -0.17689074575901031,  -0.08898583799600601, -0.025137366726994514,
        -0.06710480898618698,  -0.03896290063858032, 0.010322307236492634,
        0.5589026808738708,    -0.22320446372032166, -0.26017478108406067,
        0.03344167023897171,   0.10264594107866287,  0.45646950602531433,
        0.144841730594635,
    },
    {
        0.1451280266046524,    0.14990234375,         0.08127402514219284,
        0.00920167751610279,   -0.06605541706085205,  0.016085468232631683,
        -0.23939494788646698,  0.026195991784334183,  -0.2493457943201065,
        0.022701850160956383,  -0.18946856260299683,  0.048506684601306915,
        0.15469324588775635,   0.06488190591335297,   0.0549280010163784,
        0.12341102957725525,   0.025485947728157043,  -0.07442227005958557,
        -0.18306806683540344,  0.3519349694252014,    -0.1507991999387741,
        0.07611322402954102,   0.27373161911964417,   -0.01288480032235384,
        -0.09241093695163727,  -0.007525912951678038, -0.38646605610847473,
        -0.021838799118995667, -0.09892266988754272,  0.19477857649326324,
        0.14226926863193512,   0.10202880203723907,   -0.192263662815094,
        0.04395512491464615,   0.2340106964111328,    0.11160057783126831,
        -0.0923369824886322,   0.19191645085811615,   0.23282583057880402,
        -0.08163878321647644,  0.09298189729452133,   0.13586017489433289,
        0.145966574549675,     0.20220713317394257,   -0.1943371742963791,
        0.0796869769692421,    -0.13974913954734802,  0.08175896108150482,
        -0.3581639528274536,   0.24199388921260834,   -0.04584097862243652,
        -0.19959472119808197,  -0.019186174497008324, 0.1821185052394867,
        -0.17064550518989563,  0.10280945897102356,   0.3089846074581146,
        -0.019939318299293518, -0.028721267357468605, -0.32513633370399475,
        -0.008502364158630371, -0.37095052003860474,  -0.009167431853711605,
        0.0024993373081088066,
    },
    {
        -0.2112450748682022,  0.18312840163707733,   -0.012602973729372025,
        0.40344637632369995,  0.08995340764522552,   0.33011192083358765,
        0.026242965832352638, -0.3937232494354248,   -0.17753642797470093,
        0.08370952308177948,  0.06030341982841492,   -0.20346905291080475,
        -0.25203439593315125, -0.05012691020965576,  0.09345579147338867,
        0.006064396817237139, 0.02876388467848301,   -0.17936286330223083,
        0.2181309312582016,   0.13061021268367767,   -0.047033268958330154,
        0.0963698998093605,   -0.047924481332302094, 0.16214831173419952,
        -0.26609233021736145, -0.13897137343883514,  -0.09624960273504257,
        -0.11604633927345276, -0.08063362538814545,  -0.2863166928291321,
        0.0565614178776741,   0.0019452223787084222, -0.12404932826757431,
        0.1991780549287796,   0.09149187803268433,   -0.2916940152645111,
        -0.28125524520874023, -0.06309337168931961,  0.01628986932337284,
        -0.23587319254875183, 0.36642158031463623,   -0.18979790806770325,
        0.013862116262316704, 0.09595709294080734,   -0.2894919514656067,
        0.055859703570604324, 0.15032458305358887,   0.3033532500267029,
        -0.3491085171699524,  0.10648088902235031,   -0.060612086206674576,
        0.09963883459568024,  -0.4669133126735687,   0.21309451758861542,
        -0.06529586762189865, -0.09647884964942932,  0.24808892607688904,
        -0.1851912885904312,  0.11361045390367508,   0.3194282054901123,
        -0.13534477353096008, -0.2696094810962677,   0.27007195353507996,
        -0.17601673305034637,
    },
    {
        -0.05513472482562065,   0.008082778193056583,  0.2422630339860916,
        0.2665546238422394,     -0.06243090704083443,  -0.10646485537290573,
        0.056208398193120956,   0.04023829475045204,   0.2305787056684494,
        -0.07042213529348373,   -0.10721608996391296,  0.03166913241147995,
        0.04030350595712662,    0.09679853916168213,   -0.1904878467321396,
        0.15400126576423645,    -0.021387161687016487, -0.1499236822128296,
        -0.11569718271493912,   -0.1464814990758896,   -0.25801199674606323,
        -0.0031740861013531685, 0.21964052319526672,   -0.1644630879163742,
        0.0483604334294796,     0.06482841074466705,   0.09269142150878906,
        -0.1599441021680832,    0.306156724691391,     -0.1528884321451187,
        -0.15045535564422607,   -0.007333237212151289, 0.08757170289754868,
        0.12756188213825226,    -0.21629589796066284,  -0.04959627613425255,
        -0.18910931050777435,   -0.07453199476003647,  -0.16576281189918518,
        0.13442720472812653,    0.1989256888628006,    0.09429372102022171,
        -0.018612826243042946,  -0.046552661806344986, -0.019924381747841835,
        0.06316894292831421,    0.1987195611000061,    0.024824829772114754,
        0.04221910610795021,    -0.18832191824913025,  -0.18428783118724823,
        -0.1073598861694336,    0.1010020524263382,    0.20840948820114136,
        -0.19434678554534912,   0.19762176275253296,   -0.090095654129982,
        0.21909350156784058,    -0.2859555184841156,   -0.04207044839859009,
        0.06437383592128754,    -0.037657495588064194, 0.07021718472242355,
        -0.1753254532814026,
    },
    {
        -0.0320465974509716,   0.2567107081413269,    0.02273412235081196,
        -0.020901542156934738, -0.07055136561393738,  -0.006748919375240803,
        0.09223684668540955,   0.03226089105010033,   -0.18326427042484283,
        0.09453585743904114,   0.126921609044075,     -0.1263282746076584,
        -0.1148643046617508,   -0.08704853057861328,  -0.16128326952457428,
        -0.11739744246006012,  -0.08772578090429306,  0.02774721011519432,
        0.12600213289260864,   -0.2196587473154068,   -0.20578640699386597,
        0.07660114765167236,   -0.1114984080195427,   -0.16405515372753143,
        -0.03251254931092262,  0.14284704625606537,   0.03923199325799942,
        0.264432430267334,     0.2647852599620819,    -0.06754545867443085,
        -0.13157682120800018,  -0.03518301621079445,  0.23671823740005493,
        0.11658720672130585,   -0.06034306064248085,  -0.004066505469381809,
        0.27786728739738464,   0.07503949850797653,   0.03503691777586937,
        0.1748528927564621,    0.13646534085273743,   -0.04530978947877884,
        -0.21733573079109192,  -0.08746221661567688,  -0.018950743600726128,
        -0.20235586166381836,  -0.05013963580131531,  0.08028911054134369,
        0.10944937914609909,   0.15302368998527527,   0.26669591665267944,
        0.1418694704771042,    0.09985888004302979,   -0.07486627995967865,
        -0.09854242950677872,  0.1355101764202118,    0.07724972814321518,
        0.11848141252994537,   -0.1572657972574234,   -0.18893010914325714,
        0.20397695899009705,   -0.009727499447762966, 0.0722375437617302,
        -0.05418233200907707,
    },
    {
        0.3840675950050354,    0.03970979526638985,   -0.10263822972774506,
        0.0889367088675499,    -0.2655669152736664,   -0.23979395627975464,
        -0.08137132227420807,  0.059459954500198364,  0.33099833130836487,
        0.3367132246494293,    0.1802515834569931,    0.011492757126688957,
        0.19196665287017822,   -0.14882716536521912,  -0.4312451183795929,
        0.11024781316518784,   0.14403869211673737,   -0.037803955376148224,
        0.01167089119553566,   0.1602747142314911,    0.28516578674316406,
        0.09455344080924988,   -0.019098544493317604, -0.00598488561809063,
        0.039949119091033936,  0.30352070927619934,   -0.18654832243919373,
        0.22481441497802734,   0.08370149880647659,   0.261366069316864,
        -0.32469335198402405,  -0.39183735847473145,  0.14153026044368744,
        0.16238920390605927,   0.27493882179260254,   0.013852131552994251,
        0.30863791704177856,   -0.09753483533859253,  0.005576324183493853,
        0.04175436124205589,   -0.023706112056970596, 0.09622779488563538,
        0.0906895250082016,    -0.04415237903594971,  -0.14131170511245728,
        -0.3664175570011139,   0.06219709664583206,   -0.12221082299947739,
        0.03201773390173912,   -0.10149550437927246,  -0.12303368747234344,
        -0.022467385977506638, 0.22623343765735626,   0.031190820038318634,
        -0.18613508343696594,  0.257860004901886,     0.036339178681373596,
        0.13425078988075256,   -0.005428849719464779, 0.15145942568778992,
        -0.08412657678127289,  -0.2480594962835312,   0.15014393627643585,
        -0.1000409871339798,
    },
    {
        0.04434574395418167,   0.06047360226511955,   0.050434838980436325,
        0.2369006872177124,    0.238420307636261,     0.09936558455228806,
        0.29318925738334656,   -0.1272793710231781,   -0.07370035350322723,
        -0.16689792275428772,  0.015301589854061604,  -0.06150135025382042,
        -0.07460252940654755,  0.03458888828754425,   -0.037564467638731,
        0.1306575983762741,    0.036689940840005875,  -0.07642432302236557,
        -0.041759781539440155, 0.025323858484625816,  -0.06995321810245514,
        0.010789172723889351,  -0.2171372026205063,   0.2991575002670288,
        -0.07693075388669968,  -0.2455865442752838,   0.09718409925699234,
        -0.12102397531270981,  -0.056882623583078384, -0.004339925479143858,
        -0.042515382170677185, 0.09813094884157181,   0.12225263565778732,
        0.17166195809841156,   -0.0521731823682785,   0.0690053328871727,
        -0.11962102353572845,  -0.028343582525849342, -0.153137668967247,
        -0.1623510867357254,   0.21048849821090698,   -0.13373908400535583,
        0.13328109681606293,   0.18206098675727844,   -0.2569514214992523,
        0.03361263498663902,   0.07732337713241577,   0.29484713077545166,
        0.07662177085876465,   -0.012291145510971546, 0.06397763639688492,
        -0.22271423041820526,  -0.3449242413043976,   -0.0068134707398712635,
        -0.1643267273902893,   -0.1612652838230133,   0.09214023500680923,
        0.14573001861572266,   0.29204386472702026,   0.1097724512219429,
        -0.021150760352611542, -0.017128383740782738, 0.19323445856571198,
        0.09934107214212418,
    },
    {
        0.050585292279720306,  -0.09151174873113632,   0.050866372883319855,
        -0.105070561170578,    0.14983758330345154,    0.13458625972270966,
        0.07618283480405807,   0.16327528655529022,    0.027172259986400604,
        0.0414569228887558,    -0.1381579041481018,    0.14114423096179962,
        -0.08963238447904587,  0.011951472610235214,   0.13771100342273712,
        -0.20715254545211792,  -0.14413756132125854,   0.09826204180717468,
        -0.07230290025472641,  -0.14565983414649963,   0.054832667112350464,
        0.03565192222595215,   0.039376720786094666,   -0.23361517488956451,
        -0.1382429003715515,   -0.2351127564907074,    -0.1496569961309433,
        0.1056923046708107,    0.0700857937335968,     0.31036800146102905,
        -0.0543600395321846,   -0.008987117558717728,  -0.24731074273586273,
        0.015706919133663177,  -0.10319657623767853,   -0.04036702960729599,
        -0.2756601870059967,   0.04299264773726463,    -0.21075530350208282,
        0.19366733729839325,   -0.16232721507549286,   -0.06744366884231567,
        0.06440021842718124,   -0.0005592473316937685, 0.09046334028244019,
        -0.16831503808498383,  0.04956122487783432,    -0.12200546264648438,
        0.16615460813045502,   0.09597445279359818,    -0.315546452999115,
        0.09090134501457214,   -0.12143262475728989,   -0.05812264606356621,
        -0.026158103719353676, 0.2303474098443985,     0.24808865785598755,
        0.12151944637298584,   -0.06703707575798035,   0.09335079044103622,
        0.08150774985551834,   -0.13134193420410156,   -0.17967434227466583,
        0.11490016430616379,
    },
    {
        0.36228349804878235,  0.11462678015232086,   0.00998254120349884,
        -0.20811302959918976, -0.4827394485473633,   -0.47026705741882324,
        0.16086924076080322,  0.22943294048309326,   0.06175297498703003,
        0.1531260460615158,   0.4084492027759552,    0.14662908017635345,
        0.21555417776107788,  0.1483461856842041,    -0.06656258553266525,
        0.2443956732749939,   -0.06970866024494171,  0.028909331187605858,
        0.14463935792446136,  0.4142819344997406,    -0.1909385621547699,
        0.00378022575750947,  0.005662430543452501,  -0.30214929580688477,
        0.13055747747421265,  0.17480628192424774,   -0.22351165115833282,
        -0.09139541536569595, 0.026529742404818535,  -0.29387325048446655,
        0.21471339464187622,  -0.18854889273643494,  0.28812405467033386,
        -0.37615966796875,    0.4286560118198395,    -0.07069885730743408,
        0.5460928678512573,   -0.19197195768356323,  -0.0339488759636879,
        -0.08550979197025299, 0.11060969531536102,   0.02044879086315632,
        0.19980114698410034,  0.1740407794713974,    -0.02197958528995514,
        0.12253715842962265,  -0.06748197227716446,  0.03596217930316925,
        -0.35556671023368835, 0.03307536616921425,   -0.06518470495939255,
        0.19532731175422668,  0.0024289486464112997, -0.14626576006412506,
        0.08152144402265549,  0.3502805233001709,    -0.07332863658666611,
        -0.15093563497066498, -0.024807924404740334, -0.21597154438495636,
        0.1498742252588272,   -0.2010546624660492,   0.03945312276482582,
        -0.1698741614818573,
    },
    {
        -0.03993785008788109,  0.020072458311915398, 0.21870917081832886,
        -0.09352363646030426,  0.19669480621814728,  0.10136456042528152,
        0.06700307130813599,   -0.152274027466774,   -0.07418123632669449,
        0.1974824219942093,    0.1321166604757309,   0.04892631992697716,
        -0.21507270634174347,  0.052086640149354935, 0.004774485249072313,
        0.07358121871948242,   0.0953398123383522,   -0.07746285200119019,
        0.006811833009123802,  0.08025722950696945,  -0.1557769626379013,
        -0.12028123438358307,  0.20414499938488007,  0.18172165751457214,
        -0.08768222481012344,  -0.0634448453783989,  0.09689295291900635,
        0.17098896205425262,   0.1822681874036789,   -0.0007598384981974959,
        0.03278133645653725,   0.11283396929502487,  -0.1169046014547348,
        0.19352537393569946,   0.12286029011011124,  -0.30729493498802185,
        -0.11640012264251709,  -0.08824989199638367, -0.10219281911849976,
        0.09576910734176636,   0.20065875351428986,  0.20484982430934906,
        -0.18842773139476776,  -0.11499480158090591, -0.08736242353916168,
        -0.1355191171169281,   0.15097060799598694,  0.20586863160133362,
        0.17484106123447418,   -0.152971088886261,   0.14373943209648132,
        0.11323057860136032,   -0.04362525790929794, 0.034356489777565,
        -0.09320840239524841,  -0.03736308962106705, 0.17087318003177643,
        -0.04492071270942688,  0.13051967322826385,  0.06253117322921753,
        -0.016465656459331512, 0.03489513322710991,  -0.12094999849796295,
        0.10709481686353683,
    },
    {
        -0.06575222313404083,  -0.124472476541996,    -0.14144988358020782,
        0.1304968148469925,    0.059257011860609055,  0.19517765939235687,
        0.14441035687923431,   0.023828580975532532,  -0.24970857799053192,
        -0.025250891223549843, -0.3230489194393158,   0.0671941488981247,
        0.07564450055360794,   0.06517957895994186,   -0.15058055520057678,
        0.08005739748477936,   0.10854701697826385,   -0.03331412374973297,
        0.07501953095197678,   -0.10541539639234543,  -0.05238066986203194,
        -0.07010806351900101,  -0.04558149352669716,  -0.04362931102514267,
        -0.05609177052974701,  -0.13717113435268402,  0.061864860355854034,
        -0.08570476621389389,  -0.05059800297021866,  0.1882198601961136,
        0.0012240067590028048, 0.09460746496915817,   -0.19018520414829254,
        -0.03937337175011635,  -0.2574440538883209,   -0.09985210001468658,
        -0.3018644154071808,   0.07498805224895477,   -0.1230354756116867,
        0.04810785502195358,   0.09003055095672607,   0.18285495042800903,
        -0.11434335261583328,  -0.16340868175029755,  0.17317767441272736,
        -0.07183269411325455,  -0.12998849153518677,  -0.052644744515419006,
        0.0470687672495842,    0.14501698315143585,   -0.07283077389001846,
        0.1135902926325798,    0.11905097961425781,   -0.018231498077511787,
        -0.005641280207782984, 0.12443747371435165,   -0.011873412877321243,
        0.045520853251218796,  -0.059644851833581924, -0.023525120690464973,
        0.12150240689516068,   -0.14636051654815674,  0.03719552233815193,
        -0.02242118865251541,
    },
    {
        -0.12807507812976837,  -0.25243932008743286, -0.0746631994843483,
        0.12570030987262726,   -0.03163154423236847, 0.3513878583908081,
        0.2020174264907837,    0.2091224491596222,   0.023739146068692207,
        0.10256198793649673,   -0.13021203875541687, 0.1570269912481308,
        0.016957562416791916,  -0.21751077473163605, 0.08194886147975922,
        0.18311472237110138,   0.02648567408323288,  -0.10859807580709457,
        -0.10933173447847366,  -0.17171506583690643, 0.19552963972091675,
        -0.058961909264326096, 0.09662682563066483,  0.12965577840805054,
        -0.0881747305393219,   -0.12633445858955383, 0.179731085896492,
        0.12208010256290436,   -0.26620355248451233, 0.27888724207878113,
        -0.05810145288705826,  -0.03420884162187576, -0.1474061757326126,
        0.23731380701065063,   -0.04821252077817917, -0.1429068148136139,
        -0.055139727890491486, 0.16149765253067017,  -0.06489987671375275,
        0.16475482285022736,   -0.16710859537124634, 0.217057466506958,
        -0.07033519446849823,  0.07397405803203583,  0.22274258732795715,
        -0.003206739667803049, -0.03474551811814308, -0.013108978047966957,
        0.33829042315483093,   0.10198177397251129,  -0.0243039783090353,
        -0.0347922183573246,   0.2886200547218323,   -0.16164331138134003,
        0.10125814378261566,   -0.02772294543683529, -0.08979232609272003,
        -0.008556198328733444, 0.18169298768043518,  -0.05658624693751335,
        -0.15504197776317596,  0.026965010911226273, 0.0350237712264061,
        -0.027580147609114647,
    },
    {
        0.038424331694841385, -0.00816621445119381,  -0.015163189731538296,
        -0.06032513082027435, -0.06033309921622276,  0.0876803770661354,
        -0.22013798356056213, 0.011389018967747688,  -0.25493714213371277,
        0.07908044010400772,  -0.07273460179567337,  0.4564283490180969,
        0.06743251532316208,  -0.18718533217906952,  0.5658250451087952,
        -0.1255720555782318,  0.04886157810688019,   0.07898140698671341,
        -0.13200709223747253, 0.14951540529727936,   0.1613020896911621,
        0.05411132797598839,  0.01600579358637333,   -0.2497846484184265,
        0.22792023420333862,  -0.17101335525512695,  -0.08614548295736313,
        0.01921352557837963,  -0.06716649979352951,  -0.01481636893004179,
        0.09547702968120575,  -0.07772095501422882,  0.04515396058559418,
        0.30617794394493103,  -0.16684827208518982,  -0.11129111796617508,
        0.09690937399864197,  0.09257257729768753,   -0.14299701154232025,
        0.32034143805503845,  0.2196124792098999,    -0.4938569962978363,
        0.08466913551092148,  0.30533266067504883,   -0.10213486850261688,
        0.12457671016454697,  -0.11079104244709015,  -0.0015836777165532112,
        -0.14431793987751007, -0.005876828450709581, 0.1599498838186264,
        0.19700899720191956,  -0.046662475913763046, -0.014205892570316792,
        -0.18356867134571075, -0.01578991860151291,  0.2301158607006073,
        -0.1966135948896408,  -0.026688966900110245, -0.028037630021572113,
        -0.2312796264886856,  0.09521347284317017,   -0.21251103281974792,
        -0.08427537977695465,
    },
    {
        -0.18522895872592926,  0.12448330968618393,   -0.08348366618156433,
        -0.04350367560982704,  0.30251064896583557,   0.44584429264068604,
        -0.07953235507011414,  -0.06935282051563263,  -0.10478433221578598,
        -0.08652383834123611,  -0.4275851249694824,   0.0013635820941999555,
        -0.1427268236875534,   0.07699991762638092,   0.27572137117385864,
        -0.06069864332675934,  0.012611441314220428,  -0.04753453657031059,
        -0.130513995885849,    0.06170909106731415,   0.10391984134912491,
        -0.1409660279750824,   0.1193074882030487,    0.2775934636592865,
        -0.24798241257667542,  -0.06810363382101059,  -0.06569494307041168,
        -0.06263726204633713,  -0.16903816163539886,  0.19524671137332916,
        0.09586989879608154,   0.23771901428699493,   -0.17384593188762665,
        0.26607847213745117,   0.15653342008590698,   -0.06703617423772812,
        -0.3043805956840515,   0.18374793231487274,   -0.16580082476139069,
        -0.08383255451917648,  0.15479452908039093,   0.11730948835611343,
        -0.08475098758935928,  0.10972881317138672,   0.16097219288349152,
        0.008596894331276417,  -0.11040098965167999,  0.21226465702056885,
        0.18527178466320038,   -0.12955345213413239,  -0.09827005863189697,
        -0.24360568821430206,  -0.06565210968255997,  0.15710851550102234,
        -0.1248292624950409,   -0.14508886635303497,  0.1702609360218048,
        -0.015108414925634861, -0.017860034480690956, 0.11876613646745682,
        -0.14017952978610992,  0.131491020321846,     0.2607177495956421,
        0.03254665806889534,
    },
    {
        0.23347321152687073,   -0.07832125574350357,  0.32378455996513367,
        0.03528394177556038,   0.12369654327630997,   0.03614966943860054,
        -0.015277152881026268, -0.10632462799549103,  0.05073190852999687,
        0.015550251118838787,  -0.05731338635087013,  0.10132422298192978,
        -0.04351514205336571,  0.02735200896859169,   0.11397479474544525,
        0.10489094257354736,   0.15397420525550842,   0.01710752584040165,
        -0.09699635952711105,  -0.11397983133792877,  -0.27581843733787537,
        -0.02351856417953968,  0.24175044894218445,   0.06610331684350967,
        -0.14067156612873077,  -0.029414953663945198, -0.10699108242988586,
        -0.14853619039058685,  0.2903050184249878,    0.14994901418685913,
        0.1985277682542801,    0.05713774636387825,   -0.0022735237143933773,
        0.09638574719429016,   0.02791675180196762,   0.08340098708868027,
        0.016608182340860367,  -0.06492950767278671,  -0.13871043920516968,
        0.117982417345047,     0.13948071002960205,   0.06772813200950623,
        0.010491874068975449,  -0.030471503734588623, 0.11451569199562073,
        -0.1463564783334732,   -0.08366959542036057,  -0.07869844138622284,
        -0.09211934357881546,  -0.015354794450104237, -0.19143977761268616,
        -0.1395212709903717,   -0.049012430012226105, 0.4021056592464447,
        0.054491471499204636,  0.3204246163368225,    -0.06982626020908356,
        0.3850502371788025,    0.06116470322012901,   0.18450893461704254,
        0.29056286811828613,   -0.14498472213745117,  0.14295214414596558,
        -0.099683977663517,
    },
    {
        0.18355529010295868,   0.07593116909265518,   -0.08058854192495346,
        -0.03272981569170952,  -0.05311299115419388,  -0.051596589386463165,
        0.05153774097561836,   0.03367103636264801,   -0.12096723914146423,
        0.08013640344142914,   -0.029585497453808784, -0.02656599134206772,
        -0.009664420038461685, -0.11061743646860123,  -0.03684767335653305,
        -0.05314507707953453,  -0.18441036343574524,  0.12197040021419525,
        -0.12433870881795883,  -0.08406489342451096,  0.11787770688533783,
        0.05460384115576744,   -0.026398498564958572, -0.03279569745063782,
        -0.019621826708316803, 0.10331558436155319,   -0.14758627116680145,
        0.025533396750688553,  -0.009379159659147263, -0.07036560773849487,
        0.004443679470568895,  0.1404409259557724,    0.16545377671718597,
        0.14058637619018555,   -0.004479285329580307, -0.0724482387304306,
        -0.08310201019048691,  0.08168858289718628,   0.10146184265613556,
        -0.10576881468296051,  0.06994304060935974,   -0.10130710899829865,
        0.13368554413318634,   0.12246198207139969,   -0.13416974246501923,
        -0.15074241161346436,  -0.05940909683704376,  0.1560819447040558,
        -0.038244180381298065, -0.12466887384653091,  -0.16185671091079712,
        -0.1736176609992981,   -0.12403514236211777,  -0.09241621941328049,
        0.14648284018039703,   0.10810109227895737,   0.15228433907032013,
        0.11072881519794464,   -0.1694176346063614,   -0.07751627266407013,
        0.14449964463710785,   0.05876270309090614,   0.09851719439029694,
        -0.16618655622005463,
    },
    {
        0.3671703338623047,   0.3324551582336426,    0.2649957835674286,
        -0.0995904728770256,  -0.161947563290596,    -0.3937875032424927,
        -0.31330135464668274, 0.40063443779945374,   0.25383853912353516,
        0.4657629132270813,   -0.29086628556251526,  0.09740819036960602,
        -0.10666196048259735, 0.09707781672477722,   -0.11235354840755463,
        -0.1802568882703781,  -0.06999490410089493,  0.07723374664783478,
        -0.05322147533297539, 0.3038190007209778,    0.004516324494034052,
        -0.1797177642583847,  -0.0849970355629921,   0.11559741199016571,
        0.2761712372303009,   -0.05391022935509682,  -0.25018107891082764,
        0.23889003694057465,  -0.21154940128326416,  0.0229951124638319,
