#ifndef OUTPUT_LAYER
#define OUTPUT_LAYER

#include "neural_network.h"

fixed_point_t output_weights[HIDDEN_LAYER_64_SIZE][OUTPUT_LAYER_SIZE] = {
    {
        -0.25021085143089294,
        0.2702837586402893,
        0.065978042781353,
        -0.31335875391960144,
        0.028030671179294586,
        -0.3162047266960144,
        -0.41547927260398865,
        0.28390082716941833,
        0.06498626619577408,
        0.10828614979982376,
    },
    {
        0.22319018840789795,
        0.19143371284008026,
        -0.005803278181701899,
        -0.5415359139442444,
        0.14244985580444336,
        -0.541165292263031,
        -0.3508417010307312,
        0.007231021299958229,
        -0.04404979199171066,
        -0.33265912532806396,
    },
    {
        0.22329720854759216,
        -0.02111436054110527,
        0.24267227947711945,
        -0.1974508911371231,
        -0.11738765984773636,
        -0.25078824162483215,
        -0.4153091013431549,
        -0.24685126543045044,
        0.30110064148902893,
        0.24939586222171783,
    },
    {
        0.2797875702381134,
        -0.37130072712898254,
        -0.14020098745822906,
        -0.06981827318668365,
        -0.5418611168861389,
        -0.20787636935710907,
        0.2981565594673157,
        -0.24372071027755737,
        0.19188299775123596,
        -0.04480714350938797,
    },
    {
        0.20180708169937134,
        0.03224646672606468,
        -0.20424580574035645,
        0.09868377447128296,
        -0.17754612863063812,
        0.02077740989625454,
        -0.056373368948698044,
        -0.43532904982566833,
        0.19335484504699707,
        -0.29898834228515625,
    },
    {
        -0.329620361328125,
        -0.2938140034675598,
        0.007422806695103645,
        0.2463412582874298,
        -0.45266973972320557,
        0.3235333263874054,
        0.30874744057655334,
        -0.3129604160785675,
        0.21836987137794495,
        0.02359185740351677,
    },
    {
        -0.0065648057498037815,
        -0.5203964114189148,
        -0.45023486018180847,
        -0.34288614988327026,
        0.23890624940395355,
        0.4524063766002655,
        0.06390818953514099,
        -0.31991711258888245,
        0.026194633916020393,
        0.05499011650681496,
    },
    {
        0.17966274917125702,
        0.18436549603939056,
        -0.1534530073404312,
        0.18291075527668,
        -0.3366200923919678,
        0.23197565972805023,
        -0.462489515542984,
        0.10957006365060806,
        -0.35440903902053833,
        0.30883798003196716,
    },
    {
        -0.4086741805076599,
        0.163027822971344,
        -0.0951470285654068,
        -0.036199092864990234,
        -0.33215266466140747,
        -0.393777459859848,
        0.12371093034744263,
        0.1808730959892273,
        0.11648200452327728,
        0.396973580121994,
    },
    {
        -0.19104216992855072,
        0.21103228628635406,
        0.023444069549441338,
        -0.07475371658802032,
        -0.05589177459478378,
        -0.40918102860450745,
        -0.26231539249420166,
        0.06104979291558266,
        0.2279544323682785,
        0.3372321128845215,
    },
    {
        -0.748738169670105,
        -0.20630592107772827,
        -0.006205422338098288,
        0.22012414038181305,
        0.3905152380466461,
        -0.1110849380493164,
        0.32394880056381226,
        0.31556230783462524,
        -0.25737303495407104,
        0.007036847993731499,
    },
    {
        0.015429812483489513,
        0.3008385896682739,
        0.16446873545646667,
        0.2308243066072464,
        -0.4217829406261444,
        -0.2386399805545807,
        0.038181282579898834,
        0.3538512587547302,
        -0.3009917140007019,
        -0.3652184009552002,
    },
    {
        0.32022809982299805,
        0.3571493625640869,
        -0.6892892718315125,
        -0.2822819650173187,
        -0.6675325036048889,
        0.25433358550071716,
        -0.06789733469486237,
        0.025754651054739952,
        0.07185893505811691,
        -0.020589590072631836,
    },
    {
        0.014757905155420303,
        0.22356128692626953,
        -0.05428599938750267,
        -0.13371044397354126,
        -0.2006799876689911,
        -0.04017208144068718,
        0.121466264128685,
        -0.23015934228897095,
        0.08976699411869049,
        0.07118093967437744,
    },
    {
        -0.5667807459831238,
        0.2676098942756653,
        0.09617262333631516,
        0.29921045899391174,
        -0.3427383601665497,
        -0.13320386409759521,
        -0.04787304624915123,
        0.2451469749212265,
        0.35567522048950195,
        -0.48710840940475464,
    },
    {
        0.14627958834171295,
        -0.4599105715751648,
        0.31045106053352356,
        -0.31526362895965576,
        0.16366976499557495,
        0.002870219759643078,
        0.30216458439826965,
        -0.5104020237922668,
        -0.19544586539268494,
        0.06731325387954712,
    },
    {
        -0.17199227213859558,
        0.12625758349895477,
        0.1435025930404663,
        -0.11655835807323456,
        -0.03510051593184471,
        -0.23505055904388428,
        0.17421698570251465,
        0.08489317446947098,
        -0.20252899825572968,
        -0.05745402351021767,
    },
    {
        0.0296383835375309,
        -0.058865129947662354,
        -0.12080926448106766,
        -0.028523119166493416,
        0.004105874337255955,
        -0.026070846244692802,
        0.10384669899940491,
        0.102005735039711,
        -0.14792412519454956,
        -0.27216148376464844,
    },
    {
        -0.010781560093164444,
        -0.29544979333877563,
        -0.5548198819160461,
        0.14734312891960144,
        0.3215673863887787,
        0.0673043429851532,
        0.1902439147233963,
        0.06211359426379204,
        -0.31905317306518555,
        -0.19104425609111786,
    },
    {
        -0.22244428098201752,
        0.3151949346065521,
        0.37110844254493713,
        -0.42093226313591003,
        0.36394569277763367,
        -0.07989996671676636,
        0.15121279656887054,
        -0.22849051654338837,
        -0.33943355083465576,
        0.1595565229654312,
    },
    {
        -0.285519003868103,
        0.4006679058074951,
        -0.5071141719818115,
        -0.0484418161213398,
        -0.5465656518936157,
        0.22862081229686737,
        -0.07837161421775818,
        0.04853149503469467,
        -0.13833223283290863,
        -0.16483475267887115,
    },
    {
        -0.28157737851142883,
        0.09442611783742905,
        -0.0985056608915329,
        -0.19768443703651428,
        0.09865951538085938,
        -0.2776903808116913,
        0.20540907979011536,
        0.36949244141578674,
        0.15894605219364166,
        -0.18653737008571625,
    },
    {
        0.026285775005817413,
        -0.48635175824165344,
        0.32758185267448425,
        0.1413246989250183,
        -0.33459073305130005,
        -0.3197683095932007,
        -0.011669861152768135,
        -0.1203063577413559,
        -0.06574153900146484,
        0.2561151087284088,
    },
    {
        -0.01358386967331171,
        0.2627364993095398,
        -0.3494817912578583,
        -0.3444497585296631,
        -0.03453218936920166,
        0.1986529529094696,
        0.31168046593666077,
        -0.39214494824409485,
        0.1923326551914215,
        -0.019734470173716545,
    },
    {
        -0.4434118866920471,
        0.45686075091362,
        -0.21211537718772888,
        -0.2148638516664505,
        0.13060852885246277,
        0.2374468296766281,
        -0.380084365606308,
        0.2379426807165146,
        -0.4167119562625885,
        -0.2333664447069168,
    },
    {
        0.09662766754627228,
        0.009825260378420353,
        -0.34204626083374023,
        -0.13517975807189941,
        0.2959047555923462,
        -0.07972278445959091,
        -0.40619218349456787,
        0.2222050577402115,
        -0.1258777379989624,
        0.21890267729759216,
    },
    {
        0.1759517639875412,
        -0.3376317322254181,
        -0.35364317893981934,
        0.2581501603126526,
        0.13206300139427185,
        0.20369090139865875,
        0.20911848545074463,
        0.23676760494709015,
        0.3093397915363312,
        0.3075616657733917,
    },
    {
        -0.2299385368824005,
        0.04970809072256088,
        -0.027705509215593338,
        0.06657437980175018,
        0.19206729531288147,
        -0.3837200105190277,
        -0.48587387800216675,
        -0.16675686836242676,
        0.2342631220817566,
        0.11186442524194717,
    },
    {
        0.21985596418380737,
        -0.3749989867210388,
        0.3106117248535156,
        0.11284318566322327,
        0.2357882857322693,
        -0.1593608856201172,
        -0.43103858828544617,
        0.27536213397979736,
        0.3365122377872467,
        0.2319808006286621,
    },
    {
        -0.4958963096141815,
        0.1541399210691452,
        0.07000581175088882,
        0.1777045577764511,
        -0.3887423574924469,
        -0.043389998376369476,
        -0.34375378489494324,
        -0.3684433102607727,
        0.10852498561143875,
        0.13929490745067596,
    },
    {
        0.021517891436815262,
        -0.20947690308094025,
        0.21003605425357819,
        -0.08821175247430801,
        -0.03634728118777275,
        0.10784926265478134,
        -0.02948320470750332,
        -0.00544324703514576,
        -0.12530601024627686,
        -0.3472713232040405,
    },
    {
        0.304589182138443,
        -0.20752908289432526,
        -0.06207182630896568,
        0.05135495215654373,
        -0.6082624793052673,
        0.09421998262405396,
        -0.26952847838401794,
        -0.22471559047698975,
        -0.1568884253501892,
        -0.3826695680618286,
    },
    {
        -0.15924565494060516,
        -0.049406398087739944,
        -0.46736881136894226,
        -0.2472042292356491,
        0.30299222469329834,
        0.30934473872184753,
        -0.24090102314949036,
        0.18483974039554596,
        0.16800163686275482,
        0.21791763603687286,
    },
    {
        -0.22283020615577698,
        -0.06320197135210037,
        -0.40521717071533203,
        0.3696421980857849,
        -0.2528711259365082,
        -0.2522899806499481,
        0.14333951473236084,
        0.07906641811132431,
        0.3349471688270569,
        0.10570765286684036,
    },
    {
        -0.24267667531967163,
        0.13799238204956055,
        -0.08209378272294998,
        -0.5194470286369324,
        0.22675880789756775,
        -0.3172301650047302,
        0.1274198293685913,
        -0.5007032155990601,
        -0.27093949913978577,
        0.24710391461849213,
    },
    {
        -0.3252001702785492,
        -0.19246362149715424,
        0.23509834706783295,
        -0.42281872034072876,
        -0.27143824100494385,
        -0.11359318345785141,
        -0.20145227015018463,
        0.45336082577705383,
        -0.25550389289855957,
        -0.30239972472190857,
    },
    {
        -0.17974580824375153,
        -0.12469632923603058,
        0.02243388071656227,
        -0.04279670491814613,
        0.3238145411014557,
        -0.1251581311225891,
        -0.3217024803161621,
        0.3238782584667206,
        -0.38257190585136414,
        0.22594903409481049,
    },
    {
        0.16293947398662567,
        -0.20552656054496765,
        0.21824516355991364,
        0.2979791760444641,
        -0.2106158286333084,
        0.34009817242622375,
        0.1695157289505005,
        -0.4621202349662781,
        -0.2682866156101227,
        -0.34674227237701416,
    },
    {
        0.22383953630924225,
        0.3058314025402069,
        -0.46349406242370605,
        -0.011072163470089436,
        0.20389099419116974,
        -0.31182584166526794,
        -0.03447232395410538,
        -0.30320999026298523,
        -0.11122573912143707,
        -0.05251405015587807,
    },
    {
        -0.5533535480499268,
        0.0037301478441804647,
        0.18626032769680023,
        0.35962623357772827,
        -0.283322274684906,
        0.28237447142601013,
        -0.6670565605163574,
        0.3673010766506195,
        -0.317421555519104,
        -0.2551807463169098,
    },
    {
        0.30511847138404846,
        -0.07801951467990875,
        0.24208255112171173,
        -0.4444146454334259,
        0.32167068123817444,
        -0.41118738055229187,
        0.10266059637069702,
        0.1082397922873497,
        0.19021286070346832,
        -0.39543241262435913,
    },
    {
        0.27794045209884644,
        0.10549096018075943,
        -0.036382291465997696,
        -0.043270520865917206,
        -0.2060627043247223,
        0.24773555994033813,
        -0.006977512501180172,
        -0.18280845880508423,
        -0.35940924286842346,
        0.3870604932308197,
    },
    {
        -0.12448534369468689,
        0.22385641932487488,
        -0.07202363759279251,
        -0.28694143891334534,
        -0.5031586289405823,
        0.025836674496531487,
        -0.059684641659259796,
        -0.12273457646369934,
        -0.03624587878584862,
        -0.3700791001319885,
    },
    {
        0.33766162395477295,
        0.4214217960834503,
        0.1693485528230667,
        0.15555793046951294,
        -0.1356147825717926,
        -0.12920275330543518,
        0.2245723158121109,
        0.40064918994903564,
        -0.04342375695705414,
        -0.3716011047363281,
    },
    {
        -0.2631669044494629,
        0.13185356557369232,
        -0.012608491815626621,
        0.3433992862701416,
        -0.2803265154361725,
        -0.005352001171559095,
        -0.11337064206600189,
        0.13893485069274902,
        -0.027995431795716286,
        0.14879079163074493,
    },
    {
        0.3285970389842987,
        -0.08316472917795181,
        -0.31149768829345703,
        -0.14335398375988007,
        -0.2081936150789261,
        0.05008953437209129,
        0.027931801974773407,
        -0.27148619294166565,
        -0.17949962615966797,
        -0.3391055464744568,
    },
    {
        0.11587979644536972,
        0.12078658491373062,
        -0.47851836681365967,
        0.02355419471859932,
        -0.11208963394165039,
        -0.42638176679611206,
        0.0027043651789426804,
        0.07959149777889252,
        -0.2918785512447357,
        -0.008392032235860825,
    },
    {
        0.039786677807569504,
        0.061571549624204636,
        -0.17718057334423065,
        -0.37572646141052246,
        0.2839592695236206,
        0.24203863739967346,
        0.3103882968425751,
        -0.2925260365009308,
        0.23690320551395416,
        0.13694804906845093,
    },
    {
        -0.5665146708488464,
        -0.11409459263086319,
        0.0858258530497551,
        0.3032521903514862,
        0.18379762768745422,
        0.24982471764087677,
        -0.07429786026477814,
        -0.5943973660469055,
        -0.0657426193356514,
        -0.07060002535581589,
    },
    {
        0.3275572657585144,
        0.22434748709201813,
        0.31914713978767395,
        -0.09042102098464966,
        0.16430209577083588,
        -0.06254269182682037,
        -0.06327749043703079,
        -0.20771212875843048,
        -0.25996527075767517,
        -0.11874997615814209,
    },
    {
        0.12341292202472687,
        0.2704417407512665,
        0.09815894812345505,
        0.17670132219791412,
        0.29588475823402405,
        -0.35980355739593506,
        0.34199604392051697,
        -0.16734741628170013,
        -0.15580372512340546,
        -0.4314306080341339,
    },
    {
        0.012971116229891777,
        -0.19927506148815155,
        0.11588352918624878,
        0.11854896694421768,
        0.2543051540851593,
        -0.6343293786048889,
        -0.14241279661655426,
        0.10886683315038681,
        0.044692277908325195,
        -0.021353643387556076,
    },
    {
        0.21452072262763977,
        0.08905939757823944,
        0.08279258757829666,
        0.4089076817035675,
        0.15589821338653564,
        -0.033658187836408615,
        -0.11418455839157104,
        -0.37147054076194763,
        0.04886111617088318,
        0.48804953694343567,
    },
    {
        -0.3504808843135834,
        -0.39352652430534363,
        0.3995046615600586,
        -0.19713416695594788,
        0.044815342873334885,
        0.0759817361831665,
        -0.09522987902164459,
        0.2825712561607361,
        0.2467574030160904,
        -0.3018133342266083,
    },
    {
        0.014047560282051563,
        0.25252896547317505,
        -0.06662105768918991,
        -0.00442244578152895,
        -0.2508862018585205,
        -0.2655937373638153,
        -0.22936418652534485,
        -0.229473277926445,
        0.06291822344064713,
        -0.11227649450302124,
    },
    {
        -0.19814129173755646,
        -0.1940687596797943,
        0.2822115123271942,
        -0.39771533012390137,
        0.0006120839971117675,
        -0.39628586173057556,
        0.024654772132635117,
        -0.07222543656826019,
        -0.3176443576812744,
        0.19172559678554535,
    },
    {
        0.19650688767433167,
        0.27510517835617065,
        0.2914647161960602,
        0.3304711878299713,
        -0.29442456364631653,
        -0.3065820336341858,
        0.21243999898433685,
        -0.012866798788309097,
        -0.07209698110818863,
        -0.0017021705862134695,
    },
    {
        0.13725538551807404,
        0.08880104869604111,
        0.16099464893341064,
        -0.27217376232147217,
        -0.2991905212402344,
        0.3647729158401489,
        0.05619997903704643,
        0.3170038163661957,
        0.3407559096813202,
        0.30676624178886414,
    },
    {
        -0.3433004915714264,
        0.2723681330680847,
        -0.03411494195461273,
        -0.2955266237258911,
        -0.0008466189610771835,
        0.007782684173434973,
        0.1025201752781868,
        -0.16451957821846008,
        0.1069532185792923,
        -0.3819500803947449,
    },
    {
        -0.15077199041843414,
        -0.40453779697418213,
        0.12137558311223984,
        -0.11556496471166611,
        0.19905273616313934,
        0.22493943572044373,
        0.26338422298431396,
        -0.12752783298492432,
        0.3513377606868744,
        0.14561998844146729,
    },
    {
        -0.24269330501556396,
        -0.06639515608549118,
        -0.1034950539469719,
        -0.18795928359031677,
        0.11120037734508514,
        -0.008529393002390862,
        0.06307722628116608,
        -0.2769525945186615,
        -0.23074078559875488,
        0.15429170429706573,
    },
    {
        0.11263368278741837,
        -0.26917916536331177,
        -0.5175196528434753,
        0.2931247651576996,
        -0.027660798281431198,
        0.2504827678203583,
        -0.19406439363956451,
        0.0779171735048294,
        -0.04902961105108261,
        -0.0568426214158535,
    },
    {
        0.2651572525501251,
        -0.18266989290714264,
        -0.5096829533576965,
        -0.16848154366016388,
        -0.2519954741001129,
        -0.03765294328331947,
        0.4220978319644928,
        0.4568786919116974,
        -0.30774423480033875,
        -0.27272018790245056,
    },
    {
        -0.06075601652264595,
        -0.018010245636105537,
        0.018927574157714844,
        0.05829649418592453,
        0.20132479071617126,
        0.07673172652721405,
        0.07677222788333893,
        0.227849543094635,
        0.10360627621412277,
        -0.05607936903834343,
    },

};

fixed_point_t output_biases[OUTPUT_LAYER_SIZE] = {
    -0.042064014822244644, 0.13518212735652924,   0.022158712148666382,
    -0.02045941725373268,  0.003760772990062833,  0.05400900915265083,
    -0.06671027839183807,  -0.005015910137444735, -0.059934310615062714,
    0.00220138905569911,
};

#endif
